Language model created by QuickLM on Mon Nov 18 11:29:00 EST 2019
Copyright (c) 1996-2010 Carnegie Mellon University and Alexander I. Rudnicky

The model is in standard ARPA format, designed by Doug Paul while he was at MITRE.

The code that was used to produce this language model is available in Open Source.
Please visit http://www.speech.cs.cmu.edu/tools/ for more information

The (fixed) discount mass is 0.5. The backoffs are computed using the ratio method.
This model based on a corpus of 6211 sentences and 6213 words

\data\
ngram 1=6213
ngram 2=12422
ngram 3=6211

\1-grams:
-0.7782 </s> -0.3010
-0.7782 <s> -0.2218
-4.5713 AAFM -0.2218
-4.5713 AAJP -0.2218
-4.5713 AAM -0.2218
-4.5713 AAN -0.2218
-4.5713 AARM -0.2218
-4.5713 AARN -0.2218
-4.5713 AARU -0.2218
-4.5713 AASM -0.2218
-4.5713 AASN -0.2218
-4.5713 AASP -0.2218
-4.5713 AAST -0.2218
-4.5713 AASU -0.2218
-4.5713 AASY -0.2218
-4.5713 AAU -0.2218
-4.5713 AFO -0.2218
-4.5713 AI -0.2218
-4.5713 AJCH -0.2218
-4.5713 AJT -0.2218
-4.5713 AM -0.2218
-4.5713 AN -0.2218
-4.5713 ANG -0.2218
-4.5713 ANH -0.2218
-4.5713 AO -0.2218
-4.5713 ARI -0.2218
-4.5713 ARM -0.2218
-4.5713 ARNH -0.2218
-4.5713 ARO -0.2218
-4.5713 ASC -0.2218
-4.5713 ASCH -0.2218
-4.5713 ASI -0.2218
-4.5713 ASM -0.2218
-4.5713 ASN -0.2218
-4.5713 ASNG -0.2218
-4.5713 ASNH -0.2218
-4.5713 ASO -0.2218
-4.5713 ASP -0.2218
-4.5713 AST -0.2218
-4.5713 ASY -0.2218
-4.5713 AWM -0.2218
-4.5713 AWN -0.2218
-4.5713 AWSC -0.2218
-4.5713 AWSNG -0.2218
-4.5713 AWSP -0.2218
-4.5713 AWST -0.2218
-4.5713 AWXM -0.2218
-4.5713 BA -0.2218
-4.5713 BAAFM -0.2218
-4.5713 BAAFN -0.2218
-4.5713 BAAFU -0.2218
-4.5713 BAAFY -0.2218
-4.5713 BAAJC -0.2218
-4.5713 BAAJN -0.2218
-4.5713 BAAJP -0.2218
-4.5713 BAAJT -0.2218
-4.5713 BAAJU -0.2218
-4.5713 BAAJY -0.2218
-4.5713 BAAN -0.2218
-4.5713 BAANG -0.2218
-4.5713 BAARM -0.2218
-4.5713 BAARN -0.2218
-4.5713 BAARY -0.2218
-4.5713 BAASC -0.2218
-4.5713 BAASM -0.2218
-4.5713 BAASN -0.2218
-4.5713 BAASP -0.2218
-4.5713 BAAST -0.2218
-4.5713 BAASU -0.2218
-4.5713 BAASY -0.2218
-4.5713 BAAU -0.2218
-4.5713 BAAXY -0.2218
-4.5713 BAAY -0.2218
-4.5713 BAF -0.2218
-4.5713 BAFI -0.2218
-4.5713 BAFN -0.2218
-4.5713 BAFNG -0.2218
-4.5713 BAFNH -0.2218
-4.5713 BAFO -0.2218
-4.5713 BAFU -0.2218
-4.5713 BAFY -0.2218
-4.5713 BAI -0.2218
-4.5713 BAJ -0.2218
-4.5713 BAJC -0.2218
-4.5713 BAJCH -0.2218
-4.5713 BAJI -0.2218
-4.5713 BAJN -0.2218
-4.5713 BAJNG -0.2218
-4.5713 BAJO -0.2218
-4.5713 BAJT -0.2218
-4.5713 BAN -0.2218
-4.5713 BANG -0.2218
-4.5713 BANH -0.2218
-4.5713 BAO -0.2218
-4.5713 BAR -0.2218
-4.5713 BARN -0.2218
-4.5713 BARNG -0.2218
-4.5713 BARNH -0.2218
-4.5713 BARO -0.2218
-4.5713 BARU -0.2218
-4.5713 BARY -0.2218
-4.5713 BAS -0.2218
-4.5713 BASC -0.2218
-4.5713 BASCH -0.2218
-4.5713 BASI -0.2218
-4.5713 BASM -0.2218
-4.5713 BASN -0.2218
-4.5713 BASNG -0.2218
-4.5713 BASNH -0.2218
-4.5713 BASO -0.2218
-4.5713 BASP -0.2218
-4.5713 BAST -0.2218
-4.5713 BASU -0.2218
-4.5713 BASY -0.2218
-4.5713 BAU -0.2218
-4.5713 BAWFNG -0.2218
-4.5713 BAWJM -0.2218
-4.5713 BAWJT -0.2218
-4.5713 BAWM -0.2218
-4.5713 BAWN -0.2218
-4.5713 BAWNG -0.2218
-4.5713 BAWSC -0.2218
-4.5713 BAWSN -0.2218
-4.5713 BAWSP -0.2218
-4.5713 BAWST -0.2218
-4.5713 BAWXNG -0.2218
-4.5713 BAX -0.2218
-4.5713 BAXI -0.2218
-4.5713 BAXNG -0.2218
-4.5713 BAXO -0.2218
-4.5713 BAY -0.2218
-4.5713 BE -0.2218
-4.5713 BEE -0.2218
-4.5713 BEEF -0.2218
-4.5713 BEEFN -0.2218
-4.5713 BEEFNH -0.2218
-4.5713 BEEFU -0.2218
-4.5713 BEEJ -0.2218
-4.5713 BEEJCH -0.2218
-4.5713 BEEJN -0.2218
-4.5713 BEEJNH -0.2218
-4.5713 BEEJT -0.2218
-4.5713 BEEJU -0.2218
-4.5713 BEEN -0.2218
-4.5713 BEENH -0.2218
-4.5713 BEER -0.2218
-4.5713 BEES -0.2218
-4.5713 BEESN -0.2218
-4.5713 BEESP -0.2218
-4.5713 BEEST -0.2218
-4.5713 BEEU -0.2218
-4.5713 BEEX -0.2218
-4.5713 BEF -0.2218
-4.5713 BEFM -0.2218
-4.5713 BEFN -0.2218
-4.5713 BEFO -0.2218
-4.5713 BEJ -0.2218
-4.5713 BEJN -0.2218
-4.5713 BEJP -0.2218
-4.5713 BEJT -0.2218
-4.5713 BEN -0.2218
-4.5713 BENG -0.2218
-4.5713 BEO -0.2218
-4.5713 BER -0.2218
-4.5713 BERM -0.2218
-4.5713 BERO -0.2218
-4.5713 BES -0.2218
-4.5713 BESN -0.2218
-4.5713 BESO -0.2218
-4.5713 BESP -0.2218
-4.5713 BEST -0.2218
-4.5713 BEX -0.2218
-4.5713 BEXN -0.2218
-4.5713 BI -0.2218
-4.5713 BIA -0.2218
-4.5713 BIEEFN -0.2218
-4.5713 BIEEFU -0.2218
-4.5713 BIEEJN -0.2218
-4.5713 BIEEJT -0.2218
-4.5713 BIEEN -0.2218
-4.5713 BIEERN -0.2218
-4.5713 BIEERU -0.2218
-4.5713 BIEESC -0.2218
-4.5713 BIEESM -0.2218
-4.5713 BIEESN -0.2218
-4.5713 BIEESNG -0.2218
-4.5713 BIEEST -0.2218
-4.5713 BIEESU -0.2218
-4.5713 BIEEU -0.2218
-4.5713 BIF -0.2218
-4.5713 BIFA -0.2218
-4.5713 BIFM -0.2218
-4.5713 BIFNH -0.2218
-4.5713 BIFU -0.2218
-4.5713 BIJ -0.2218
-4.5713 BIJA -0.2218
-4.5713 BIJCH -0.2218
-4.5713 BIJN -0.2218
-4.5713 BIJNH -0.2218
-4.5713 BIJP -0.2218
-4.5713 BIJT -0.2218
-4.5713 BIJU -0.2218
-4.5713 BIM -0.2218
-4.5713 BIN -0.2218
-4.5713 BINH -0.2218
-4.5713 BIR -0.2218
-4.5713 BIRM -0.2218
-4.5713 BIRNH -0.2218
-4.5713 BIS -0.2218
-4.5713 BISCH -0.2218
-4.5713 BISNH -0.2218
-4.5713 BIST -0.2218
-4.5713 BISU -0.2218
-4.5713 BIX -0.2218
-4.5713 BIXNH -0.2218
-4.5713 BIXU -0.2218
-4.5713 BO -0.2218
-4.5713 BOA -0.2218
-4.5713 BOF -0.2218
-4.5713 BOFN -0.2218
-4.5713 BOFNG -0.2218
-4.5713 BOJ -0.2218
-4.5713 BOJC -0.2218
-4.5713 BOJN -0.2218
-4.5713 BOJNG -0.2218
-4.5713 BOJT -0.2218
-4.5713 BOM -0.2218
-4.5713 BON -0.2218
-4.5713 BONG -0.2218
-4.5713 BOO -0.2218
-4.5713 BOOF -0.2218
-4.5713 BOOFI -0.2218
-4.5713 BOOFN -0.2218
-4.5713 BOOFNG -0.2218
-4.5713 BOOI -0.2218
-4.5713 BOOJ -0.2218
-4.5713 BOOJC -0.2218
-4.5713 BOOJI -0.2218
-4.5713 BOOJN -0.2218
-4.5713 BOOJP -0.2218
-4.5713 BOOJT -0.2218
-4.5713 BOOM -0.2218
-4.5713 BOON -0.2218
-4.5713 BOONG -0.2218
-4.5713 BOOR -0.2218
-4.5713 BOORI -0.2218
-4.5713 BOORN -0.2218
-4.5713 BOORNG -0.2218
-4.5713 BOOS -0.2218
-4.5713 BOOSC -0.2218
-4.5713 BOOSI -0.2218
-4.5713 BOOSN -0.2218
-4.5713 BOOSNG -0.2218
-4.5713 BOOSP -0.2218
-4.5713 BOOST -0.2218
-4.5713 BOOXNG -0.2218
-4.5713 BOR -0.2218
-4.5713 BORI -0.2218
-4.5713 BORM -0.2218
-4.5713 BORNG -0.2218
-4.5713 BOS -0.2218
-4.5713 BOSC -0.2218
-4.5713 BOSI -0.2218
-4.5713 BOSN -0.2218
-4.5713 BOSNG -0.2218
-4.5713 BOSP -0.2218
-4.5713 BOST -0.2218
-4.5713 BOW -0.2218
-4.5713 BOWF -0.2218
-4.5713 BOWFI -0.2218
-4.5713 BOWFM -0.2218
-4.5713 BOWI -0.2218
-4.5713 BOWJ -0.2218
-4.5713 BOWJM -0.2218
-4.5713 BOWJN -0.2218
-4.5713 BOWM -0.2218
-4.5713 BOWN -0.2218
-4.5713 BOWR -0.2218
-4.5713 BOWRI -0.2218
-4.5713 BOWS -0.2218
-4.5713 BOWSI -0.2218
-4.5713 BOWST -0.2218
-4.5713 BOWX -0.2218
-4.5713 BOWXN -0.2218
-4.5713 BOX -0.2218
-4.5713 BOXM -0.2218
-4.5713 BOXNG -0.2218
-4.5713 BU -0.2218
-4.5713 BUA -0.2218
-4.5713 BUF -0.2218
-4.5713 BUFA -0.2218
-4.5713 BUFI -0.2218
-4.5713 BUFN -0.2218
-4.5713 BUFNG -0.2218
-4.5713 BUI -0.2218
-4.5713 BUJ -0.2218
-4.5713 BUJA -0.2218
-4.5713 BUJC -0.2218
-4.5713 BUJI -0.2218
-4.5713 BUJNG -0.2218
-4.5713 BUJP -0.2218
-4.5713 BUJT -0.2218
-4.5713 BUN -0.2218
-4.5713 BUNG -0.2218
-4.5713 BUOOFI -0.2218
-4.5713 BUOOFM -0.2218
-4.5713 BUOOFN -0.2218
-4.5713 BUOOFNG -0.2218
-4.5713 BUOOJC -0.2218
-4.5713 BUOOJT -0.2218
-4.5713 BUOON -0.2218
-4.5713 BUOONG -0.2218
-4.5713 BUOORI -0.2218
-4.5713 BUOOST -0.2218
-4.5713 BURN -0.2218
-4.5713 BURNG -0.2218
-4.5713 BUS -0.2218
-4.5713 BUSA -0.2218
-4.5713 BUSN -0.2218
-4.5713 BUSNG -0.2218
-4.5713 BUSP -0.2218
-4.5713 BUST -0.2218
-4.5713 BUWFA -0.2218
-4.5713 BUWFNG -0.2218
-4.5713 BUWJ -0.2218
-4.5713 BUWJA -0.2218
-4.5713 BUWJC -0.2218
-4.5713 BUWNG -0.2218
-4.5713 BUWOWI -0.2218
-4.5713 BUWOWM -0.2218
-4.5713 BUWOWNG -0.2218
-4.5713 BUWOWRI -0.2218
-4.5713 BUWOWSC -0.2218
-4.5713 BUWOWSM -0.2218
-4.5713 BUWOWSNG -0.2218
-4.5713 BUWOWSU -0.2218
-4.5713 BUWOWU -0.2218
-4.5713 BUWRA -0.2218
-4.5713 BUWRU -0.2218
-4.5713 BUWSC -0.2218
-4.5713 BUWSNG -0.2218
-4.5713 BUWST -0.2218
-4.5713 BUWU -0.2218
-4.5713 BUWXA -0.2218
-4.5713 BUYST -0.2218
-4.5713 CA -0.2218
-4.5713 CAAFM -0.2218
-4.5713 CAAFN -0.2218
-4.5713 CAAFU -0.2218
-4.5713 CAAFY -0.2218
-4.5713 CAAJN -0.2218
-4.5713 CAAJP -0.2218
-4.5713 CAAJT -0.2218
-4.5713 CAAJU -0.2218
-4.5713 CAAJY -0.2218
-4.5713 CAAM -0.2218
-4.5713 CAAN -0.2218
-4.5713 CAANG -0.2218
-4.5713 CAARM -0.2218
-4.5713 CAARN -0.2218
-4.5713 CAARU -0.2218
-4.5713 CAASC -0.2218
-4.5713 CAASM -0.2218
-4.5713 CAASN -0.2218
-4.5713 CAASP -0.2218
-4.5713 CAAST -0.2218
-4.5713 CAASU -0.2218
-4.5713 CAASY -0.2218
-4.5713 CAAU -0.2218
-4.5713 CAAXM -0.2218
-4.5713 CAAXN -0.2218
-4.5713 CAAXNG -0.2218
-4.5713 CAAXU -0.2218
-4.5713 CAAY -0.2218
-4.5713 CAF -0.2218
-4.5713 CAFI -0.2218
-4.5713 CAFN -0.2218
-4.5713 CAFNG -0.2218
-4.5713 CAFNH -0.2218
-4.5713 CAFO -0.2218
-4.5713 CAFU -0.2218
-4.5713 CAFY -0.2218
-4.5713 CAI -0.2218
-4.5713 CAJ -0.2218
-4.5713 CAJC -0.2218
-4.5713 CAJCH -0.2218
-4.5713 CAJM -0.2218
-4.5713 CAJN -0.2218
-4.5713 CAJNH -0.2218
-4.5713 CAJO -0.2218
-4.5713 CAJP -0.2218
-4.5713 CAJY -0.2218
-4.5713 CAM -0.2218
-4.5713 CAN -0.2218
-4.5713 CANG -0.2218
-4.5713 CANH -0.2218
-4.5713 CAO -0.2218
-4.5713 CAR -0.2218
-4.5713 CARI -0.2218
-4.5713 CARM -0.2218
-4.5713 CARN -0.2218
-4.5713 CARNG -0.2218
-4.5713 CARNH -0.2218
-4.5713 CARO -0.2218
-4.5713 CAS -0.2218
-4.5713 CASC -0.2218
-4.5713 CASCH -0.2218
-4.5713 CASI -0.2218
-4.5713 CASM -0.2218
-4.5713 CASN -0.2218
-4.5713 CASNG -0.2218
-4.5713 CASNH -0.2218
-4.5713 CASO -0.2218
-4.5713 CASP -0.2218
-4.5713 CAST -0.2218
-4.5713 CASU -0.2218
-4.5713 CASY -0.2218
-4.5713 CAU -0.2218
-4.5713 CAWFM -0.2218
-4.5713 CAWFN -0.2218
-4.5713 CAWJC -0.2218
-4.5713 CAWJM -0.2218
-4.5713 CAWJN -0.2218
-4.5713 CAWJP -0.2218
-4.5713 CAWJT -0.2218
-4.5713 CAWM -0.2218
-4.5713 CAWN -0.2218
-4.5713 CAWNG -0.2218
-4.5713 CAWRNG -0.2218
-4.5713 CAWSC -0.2218
-4.5713 CAWSM -0.2218
-4.5713 CAWSN -0.2218
-4.5713 CAWSP -0.2218
-4.5713 CAWST -0.2218
-4.5713 CAXI -0.2218
-4.5713 CAY -0.2218
-4.5713 CHA -0.2218
-4.5713 CHAAFN -0.2218
-4.5713 CHAAFU -0.2218
-4.5713 CHAAFY -0.2218
-4.5713 CHAAJM -0.2218
-4.5713 CHAAJN -0.2218
-4.5713 CHAAJP -0.2218
-4.5713 CHAAJT -0.2218
-4.5713 CHAAJU -0.2218
-4.5713 CHAAM -0.2218
-4.5713 CHAAN -0.2218
-4.5713 CHAARN -0.2218
-4.5713 CHAASM -0.2218
-4.5713 CHAASN -0.2218
-4.5713 CHAASP -0.2218
-4.5713 CHAAST -0.2218
-4.5713 CHAASU -0.2218
-4.5713 CHAASY -0.2218
-4.5713 CHAAU -0.2218
-4.5713 CHAF -0.2218
-4.5713 CHAFI -0.2218
-4.5713 CHAFM -0.2218
-4.5713 CHAFNG -0.2218
-4.5713 CHAFNH -0.2218
-4.5713 CHAFO -0.2218
-4.5713 CHAFY -0.2218
-4.5713 CHAI -0.2218
-4.5713 CHAJ -0.2218
-4.5713 CHAJC -0.2218
-4.5713 CHAJCH -0.2218
-4.5713 CHAJM -0.2218
-4.5713 CHAJN -0.2218
-4.5713 CHAJNG -0.2218
-4.5713 CHAJNH -0.2218
-4.5713 CHAJO -0.2218
-4.5713 CHAJP -0.2218
-4.5713 CHAJY -0.2218
-4.5713 CHAM -0.2218
-4.5713 CHAN -0.2218
-4.5713 CHANG -0.2218
-4.5713 CHANH -0.2218
-4.5713 CHAO -0.2218
-4.5713 CHAR -0.2218
-4.5713 CHARI -0.2218
-4.5713 CHARNH -0.2218
-4.5713 CHARO -0.2218
-4.5713 CHARY -0.2218
-4.5713 CHAS -0.2218
-4.5713 CHASC -0.2218
-4.5713 CHASN -0.2218
-4.5713 CHASNG -0.2218
-4.5713 CHASNH -0.2218
-4.5713 CHASO -0.2218
-4.5713 CHAST -0.2218
-4.5713 CHASU -0.2218
-4.5713 CHASY -0.2218
-4.5713 CHAU -0.2218
-4.5713 CHAWFM -0.2218
-4.5713 CHAWFNG -0.2218
-4.5713 CHAWJC -0.2218
-4.5713 CHAWJM -0.2218
-4.5713 CHAWJN -0.2218
-4.5713 CHAWJNG -0.2218
-4.5713 CHAWJP -0.2218
-4.5713 CHAWJT -0.2218
-4.5713 CHAWM -0.2218
-4.5713 CHAWN -0.2218
-4.5713 CHAWNG -0.2218
-4.5713 CHAWRNG -0.2218
-4.5713 CHAWSC -0.2218
-4.5713 CHAWSM -0.2218
-4.5713 CHAWSN -0.2218
-4.5713 CHAWSP -0.2218
-4.5713 CHAWST -0.2218
-4.5713 CHAWXN -0.2218
-4.5713 CHAX -0.2218
-4.5713 CHAXO -0.2218
-4.5713 CHAY -0.2218
-4.5713 CHE -0.2218
-4.5713 CHEE -0.2218
-4.5713 CHEEF -0.2218
-4.5713 CHEEJ -0.2218
-4.5713 CHEEJCH -0.2218
-4.5713 CHEEJNH -0.2218
-4.5713 CHEEM -0.2218
-4.5713 CHEENH -0.2218
-4.5713 CHEERNH -0.2218
-4.5713 CHEES -0.2218
-4.5713 CHEESCH -0.2218
-4.5713 CHEEST -0.2218
-4.5713 CHEEXM -0.2218
-4.5713 CHEF -0.2218
-4.5713 CHEFN -0.2218
-4.5713 CHEFO -0.2218
-4.5713 CHEJ -0.2218
-4.5713 CHEJT -0.2218
-4.5713 CHEN -0.2218
-4.5713 CHEO -0.2218
-4.5713 CHER -0.2218
-4.5713 CHES -0.2218
-4.5713 CHESM -0.2218
-4.5713 CHESN -0.2218
-4.5713 CHESNG -0.2218
-4.5713 CHESO -0.2218
-4.5713 CHESP -0.2218
-4.5713 CHEST -0.2218
-4.5713 CHEX -0.2218
-4.5713 CHEXN -0.2218
-4.5713 CHI -0.2218
-4.5713 CHIA -0.2218
-4.5713 CHIEEFN -0.2218
-4.5713 CHIEEFNG -0.2218
-4.5713 CHIEEFU -0.2218
-4.5713 CHIEEM -0.2218
-4.5713 CHIEEN -0.2218
-4.5713 CHIEENG -0.2218
-4.5713 CHIEERU -0.2218
-4.5713 CHIEESC -0.2218
-4.5713 CHIEESM -0.2218
-4.5713 CHIEESN -0.2218
-4.5713 CHIEESNG -0.2218
-4.5713 CHIEEST -0.2218
-4.5713 CHIEESU -0.2218
-4.5713 CHIEEU -0.2218
-4.5713 CHIF -0.2218
-4.5713 CHIFA -0.2218
-4.5713 CHIFM -0.2218
-4.5713 CHIJ -0.2218
-4.5713 CHIJT -0.2218
-4.5713 CHIJU -0.2218
-4.5713 CHIM -0.2218
-4.5713 CHINH -0.2218
-4.5713 CHIR -0.2218
-4.5713 CHIRN -0.2218
-4.5713 CHIRNH -0.2218
-4.5713 CHIS -0.2218
-4.5713 CHISCH -0.2218
-4.5713 CHISM -0.2218
-4.5713 CHISN -0.2218
-4.5713 CHISNH -0.2218
-4.5713 CHISP -0.2218
-4.5713 CHIST -0.2218
-4.5713 CHIXA -0.2218
-4.5713 CHIXNH -0.2218
-4.5713 CHO -0.2218
-4.5713 CHOAFNG -0.2218
-4.5713 CHOAJC -0.2218
-4.5713 CHOAJI -0.2218
-4.5713 CHOAJNG -0.2218
-4.5713 CHOANG -0.2218
-4.5713 CHOARNG -0.2218
-4.5713 CHOASN -0.2218
-4.5713 CHOASNG -0.2218
-4.5713 CHOAWST -0.2218
-4.5713 CHOEJT -0.2218
-4.5713 CHOFE -0.2218
-4.5713 CHOFI -0.2218
-4.5713 CHOFM -0.2218
-4.5713 CHOFNG -0.2218
-4.5713 CHOI -0.2218
-4.5713 CHOJC -0.2218
-4.5713 CHOJE -0.2218
-4.5713 CHOJI -0.2218
-4.5713 CHOJN -0.2218
-4.5713 CHOJT -0.2218
-4.5713 CHOM -0.2218
-4.5713 CHONG -0.2218
-4.5713 CHOO -0.2218
-4.5713 CHOOF -0.2218
-4.5713 CHOOFI -0.2218
-4.5713 CHOOFM -0.2218
-4.5713 CHOOFN -0.2218
-4.5713 CHOOFNG -0.2218
-4.5713 CHOOJP -0.2218
-4.5713 CHOOJT -0.2218
-4.5713 CHOON -0.2218
-4.5713 CHOONG -0.2218
-4.5713 CHOORI -0.2218
-4.5713 CHOORNG -0.2218
-4.5713 CHOOSC -0.2218
-4.5713 CHOOSI -0.2218
-4.5713 CHOOSN -0.2218
-4.5713 CHOOSNG -0.2218
-4.5713 CHOOSP -0.2218
-4.5713 CHOOST -0.2218
-4.5713 CHOOX -0.2218
-4.5713 CHOR -0.2218
-4.5713 CHORI -0.2218
-4.5713 CHORM -0.2218
-4.5713 CHORNG -0.2218
-4.5713 CHOS -0.2218
-4.5713 CHOSC -0.2218
-4.5713 CHOSE -0.2218
-4.5713 CHOSI -0.2218
-4.5713 CHOSNG -0.2218
-4.5713 CHOSP -0.2218
-4.5713 CHOST -0.2218
-4.5713 CHOW -0.2218
-4.5713 CHOWF -0.2218
-4.5713 CHOWFN -0.2218
-4.5713 CHOWI -0.2218
-4.5713 CHOWJ -0.2218
-4.5713 CHOWJT -0.2218
-4.5713 CHOWM -0.2218
-4.5713 CHOWN -0.2218
-4.5713 CHOWR -0.2218
-4.5713 CHOWRM -0.2218
-4.5713 CHOWS -0.2218
-4.5713 CHOWSI -0.2218
-4.5713 CHOWSM -0.2218
-4.5713 CHOWSN -0.2218
-4.5713 CHOWSP -0.2218
-4.5713 CHOWST -0.2218
-4.5713 CHOX -0.2218
-4.5713 CHOXNG -0.2218
-4.5713 CHU -0.2218
-4.5713 CHUA -0.2218
-4.5713 CHUAARN -0.2218
-4.5713 CHUEES -0.2218
-4.5713 CHUF -0.2218
-4.5713 CHUFA -0.2218
-4.5713 CHUFI -0.2218
-4.5713 CHUFM -0.2218
-4.5713 CHUFN -0.2218
-4.5713 CHUFNG -0.2218
-4.5713 CHUFY -0.2218
-4.5713 CHUI -0.2218
-4.5713 CHUJC -0.2218
-4.5713 CHUJM -0.2218
-4.5713 CHUJP -0.2218
-4.5713 CHUJT -0.2218
-4.5713 CHUM -0.2218
-4.5713 CHUNG -0.2218
-4.5713 CHUOOFN -0.2218
-4.5713 CHUOOFNG -0.2218
-4.5713 CHUOOI -0.2218
-4.5713 CHUOOJC -0.2218
-4.5713 CHUOOJI -0.2218
-4.5713 CHUOOJNG -0.2218
-4.5713 CHUOOJT -0.2218
-4.5713 CHUOOM -0.2218
-4.5713 CHUOONG -0.2218
-4.5713 CHUOOSC -0.2218
-4.5713 CHUOOSI -0.2218
-4.5713 CHUOOST -0.2218
-4.5713 CHUOOXI -0.2218
-4.5713 CHUR -0.2218
-4.5713 CHURN -0.2218
-4.5713 CHURNG -0.2218
-4.5713 CHUS -0.2218
-4.5713 CHUSA -0.2218
-4.5713 CHUSC -0.2218
-4.5713 CHUSI -0.2218
-4.5713 CHUSM -0.2218
-4.5713 CHUSNG -0.2218
-4.5713 CHUST -0.2218
-4.5713 CHUW -0.2218
-4.5713 CHUWA -0.2218
-4.5713 CHUWF -0.2218
-4.5713 CHUWFA -0.2218
-4.5713 CHUWFNG -0.2218
-4.5713 CHUWJC -0.2218
-4.5713 CHUWNG -0.2218
-4.5713 CHUWOWFNG -0.2218
-4.5713 CHUWOWJC -0.2218
-4.5713 CHUWOWNG -0.2218
-4.5713 CHUWOWRNG -0.2218
-4.5713 CHUWOWSC -0.2218
-4.5713 CHUWOWSNG -0.2218
-4.5713 CHUWR -0.2218
-4.5713 CHUWRA -0.2218
-4.5713 CHUWRI -0.2218
-4.5713 CHUWRNG -0.2218
-4.5713 CHUWS -0.2218
-4.5713 CHUWSA -0.2218
-4.5713 CHUWSC -0.2218
-4.5713 CHUWSNG -0.2218
-4.5713 CHUWX -0.2218
-4.5713 CHUWXA -0.2218
-4.5713 CHUWXNG -0.2218
-4.5713 CHUXM -0.2218
-4.5713 CHUXN -0.2218
-4.5713 CHUYEEFN -0.2218
-4.5713 CHUYEEJN -0.2218
-4.5713 CHUYEEN -0.2218
-4.5713 CHUYEERN -0.2218
-4.5713 CHUYEESN -0.2218
-4.5713 CHUYEEST -0.2218
-4.5713 CO -0.2218
-4.5713 COF -0.2218
-4.5713 COFI -0.2218
-4.5713 COFM -0.2218
-4.5713 COFN -0.2218
-4.5713 COFNG -0.2218
-4.5713 COI -0.2218
-4.5713 COJ -0.2218
-4.5713 COJC -0.2218
-4.5713 COJM -0.2218
-4.5713 COJN -0.2218
-4.5713 COJNG -0.2218
-4.5713 COJP -0.2218
-4.5713 COJT -0.2218
-4.5713 COM -0.2218
-4.5713 CON -0.2218
-4.5713 CONG -0.2218
-4.5713 COO -0.2218
-4.5713 COOF -0.2218
-4.5713 COOFM -0.2218
-4.5713 COOFN -0.2218
-4.5713 COOFNG -0.2218
-4.5713 COOI -0.2218
-4.5713 COOJ -0.2218
-4.5713 COOJC -0.2218
-4.5713 COOJI -0.2218
-4.5713 COOJM -0.2218
-4.5713 COOJNG -0.2218
-4.5713 COOJP -0.2218
-4.5713 COOJT -0.2218
-4.5713 COON -0.2218
-4.5713 COONG -0.2218
-4.5713 COOOOSNG -0.2218
-4.5713 COOR -0.2218
-4.5713 COORI -0.2218
-4.5713 COORN -0.2218
-4.5713 COORNG -0.2218
-4.5713 COOS -0.2218
-4.5713 COOSC -0.2218
-4.5713 COOSI -0.2218
-4.5713 COOSM -0.2218
-4.5713 COOSNG -0.2218
-4.5713 COOSP -0.2218
-4.5713 COOST -0.2218
-4.5713 COOX -0.2218
-4.5713 COOXI -0.2218
-4.5713 COR -0.2218
-4.5713 CORI -0.2218
-4.5713 CORN -0.2218
-4.5713 COS -0.2218
-4.5713 COSC -0.2218
-4.5713 COSI -0.2218
-4.5713 COSNG -0.2218
-4.5713 COSP -0.2218
-4.5713 COST -0.2218
-4.5713 COW -0.2218
-4.5713 COWF -0.2218
-4.5713 COWFI -0.2218
-4.5713 COWI -0.2218
-4.5713 COWJN -0.2218
-4.5713 COWJT -0.2218
-4.5713 COWM -0.2218
-4.5713 COWN -0.2218
-4.5713 COWRI -0.2218
-4.5713 COWS -0.2218
-4.5713 COWSM -0.2218
-4.5713 COWX -0.2218
-4.5713 COWXI -0.2218
-4.5713 COWXN -0.2218
-4.5713 COXI -0.2218
-4.5713 COXNG -0.2218
-4.5713 CU -0.2218
-4.5713 CUA -0.2218
-4.5713 CUF -0.2218
-4.5713 CUFA -0.2218
-4.5713 CUFI -0.2218
-4.5713 CUFM -0.2218
-4.5713 CUFN -0.2218
-4.5713 CUFNG -0.2218
-4.5713 CUI -0.2218
-4.5713 CUJ -0.2218
-4.5713 CUJC -0.2218
-4.5713 CUJI -0.2218
-4.5713 CUJM -0.2218
-4.5713 CUJP -0.2218
-4.5713 CUJT -0.2218
-4.5713 CUN -0.2218
-4.5713 CUNG -0.2218
-4.5713 CUOOFN -0.2218
-4.5713 CUOOFNG -0.2218
-4.5713 CUOOJC -0.2218
-4.5713 CUOOJI -0.2218
-4.5713 CUOOJN -0.2218
-4.5713 CUOONG -0.2218
-4.5713 CUOOSC -0.2218
-4.5713 CUOOSI -0.2218
-4.5713 CUOOSN -0.2218
-4.5713 CUOOSNG -0.2218
-4.5713 CUOOXM -0.2218
-4.5713 CUR -0.2218
-4.5713 CURA -0.2218
-4.5713 CURI -0.2218
-4.5713 CURN -0.2218
-4.5713 CURNG -0.2218
-4.5713 CUS -0.2218
-4.5713 CUSC -0.2218
-4.5713 CUSI -0.2218
-4.5713 CUSM -0.2218
-4.5713 CUSNG -0.2218
-4.5713 CUSP -0.2218
-4.5713 CUST -0.2218
-4.5713 CUW -0.2218
-4.5713 CUWA -0.2218
-4.5713 CUWF -0.2218
-4.5713 CUWFU -0.2218
-4.5713 CUWJ -0.2218
-4.5713 CUWJA -0.2218
-4.5713 CUWJC -0.2218
-4.5713 CUWJU -0.2218
-4.5713 CUWNG -0.2218
-4.5713 CUWOWFI -0.2218
-4.5713 CUWOWFM -0.2218
-4.5713 CUWOWFNG -0.2218
-4.5713 CUWOWNG -0.2218
-4.5713 CUWOWSC -0.2218
-4.5713 CUWOWSI -0.2218
-4.5713 CUWOWSP -0.2218
-4.5713 CUWOWXI -0.2218
-4.5713 CUWOWXNG -0.2218
-4.5713 CUWR -0.2218
-4.5713 CUWRA -0.2218
-4.5713 CUWRI -0.2218
-4.5713 CUWRU -0.2218
-4.5713 CUWS -0.2218
-4.5713 CUWSA -0.2218
-4.5713 CUWSC -0.2218
-4.5713 CUWSNG -0.2218
-4.5713 CUWST -0.2218
-4.5713 CUWSU -0.2218
-4.5713 CUWU -0.2218
-4.5713 CUWX -0.2218
-4.5713 CUWXU -0.2218
-4.5713 CUX -0.2218
-4.5713 CUXI -0.2218
-4.5713 CUXN -0.2218
-4.5713 CUXNG -0.2218
-4.5713 DA -0.2218
-4.5713 DAAFM -0.2218
-4.5713 DAAFN -0.2218
-4.5713 DAAFU -0.2218
-4.5713 DAAFY -0.2218
-4.5713 DAAJM -0.2218
-4.5713 DAAJN -0.2218
-4.5713 DAAJP -0.2218
-4.5713 DAAJT -0.2218
-4.5713 DAAJY -0.2218
-4.5713 DAAM -0.2218
-4.5713 DAAN -0.2218
-4.5713 DAANG -0.2218
-4.5713 DAARM -0.2218
-4.5713 DAARN -0.2218
-4.5713 DAASN -0.2218
-4.5713 DAASP -0.2218
-4.5713 DAASU -0.2218
-4.5713 DAASY -0.2218
-4.5713 DAAU -0.2218
-4.5713 DAAXN -0.2218
-4.5713 DAAXY -0.2218
-4.5713 DAAY -0.2218
-4.5713 DAFI -0.2218
-4.5713 DAFN -0.2218
-4.5713 DAFNG -0.2218
-4.5713 DAFNH -0.2218
-4.5713 DAFO -0.2218
-4.5713 DAFU -0.2218
-4.5713 DAFY -0.2218
-4.5713 DAI -0.2218
-4.5713 DAJ -0.2218
-4.5713 DAJC -0.2218
-4.5713 DAJI -0.2218
-4.5713 DAJM -0.2218
-4.5713 DAJN -0.2218
-4.5713 DAJNG -0.2218
-4.5713 DAJO -0.2218
-4.5713 DAJT -0.2218
-4.5713 DAJY -0.2218
-4.5713 DAN -0.2218
-4.5713 DANG -0.2218
-4.5713 DANH -0.2218
-4.5713 DAO -0.2218
-4.5713 DARI -0.2218
-4.5713 DASI -0.2218
-4.5713 DASM -0.2218
-4.5713 DASN -0.2218
-4.5713 DASNG -0.2218
-4.5713 DAST -0.2218
-4.5713 DASY -0.2218
-4.5713 DAWFM -0.2218
-4.5713 DAWFN -0.2218
-4.5713 DAWFNG -0.2218
-4.5713 DAWJC -0.2218
-4.5713 DAWJM -0.2218
-4.5713 DAWJN -0.2218
-4.5713 DAWJT -0.2218
-4.5713 DAWM -0.2218
-4.5713 DAWNG -0.2218
-4.5713 DAWRNG -0.2218
-4.5713 DAWST -0.2218
-4.5713 DAX -0.2218
-4.5713 DAXI -0.2218
-4.5713 DAXY -0.2218
-4.5713 DAY -0.2218
-4.5713 DDA -0.2218
-4.5713 DDAAFM -0.2218
-4.5713 DDAAFN -0.2218
-4.5713 DDAAFU -0.2218
-4.5713 DDAAFY -0.2218
-4.5713 DDAAJM -0.2218
-4.5713 DDAAJN -0.2218
-4.5713 DDAAJP -0.2218
-4.5713 DDAAJT -0.2218
-4.5713 DDAAJU -0.2218
-4.5713 DDAAJY -0.2218
-4.5713 DDAAM -0.2218
-4.5713 DDAARU -0.2218
-4.5713 DDAARY -0.2218
-4.5713 DDAASM -0.2218
-4.5713 DDAAST -0.2218
-4.5713 DDAASU -0.2218
-4.5713 DDAASY -0.2218
-4.5713 DDAAU -0.2218
-4.5713 DDAAXM -0.2218
-4.5713 DDAAXN -0.2218
-4.5713 DDAAXY -0.2218
-4.5713 DDAAY -0.2218
-4.5713 DDAF -0.2218
-4.5713 DDAFI -0.2218
-4.5713 DDAFM -0.2218
-4.5713 DDAFN -0.2218
-4.5713 DDAFNG -0.2218
-4.5713 DDAFNH -0.2218
-4.5713 DDAFO -0.2218
-4.5713 DDAFY -0.2218
-4.5713 DDAI -0.2218
-4.5713 DDAJC -0.2218
-4.5713 DDAJCH -0.2218
-4.5713 DDAJI -0.2218
-4.5713 DDAJM -0.2218
-4.5713 DDAJN -0.2218
-4.5713 DDAJO -0.2218
-4.5713 DDAJP -0.2218
-4.5713 DDAJT -0.2218
-4.5713 DDAM -0.2218
-4.5713 DDAN -0.2218
-4.5713 DDANG -0.2218
-4.5713 DDANH -0.2218
-4.5713 DDAO -0.2218
-4.5713 DDAR -0.2218
-4.5713 DDARM -0.2218
-4.5713 DDARN -0.2218
-4.5713 DDARNG -0.2218
-4.5713 DDARNH -0.2218
-4.5713 DDARO -0.2218
-4.5713 DDAS -0.2218
-4.5713 DDASC -0.2218
-4.5713 DDASI -0.2218
-4.5713 DDASM -0.2218
-4.5713 DDASN -0.2218
-4.5713 DDASNG -0.2218
-4.5713 DDASNH -0.2218
-4.5713 DDASO -0.2218
-4.5713 DDASP -0.2218
-4.5713 DDAST -0.2218
-4.5713 DDASY -0.2218
-4.5713 DDAU -0.2218
-4.5713 DDAWFNG -0.2218
-4.5713 DDAWJC -0.2218
-4.5713 DDAWJN -0.2218
-4.5713 DDAWJNG -0.2218
-4.5713 DDAWJT -0.2218
-4.5713 DDAWM -0.2218
-4.5713 DDAWNG -0.2218
-4.5713 DDAWRNG -0.2218
-4.5713 DDAWSC -0.2218
-4.5713 DDAWSM -0.2218
-4.5713 DDAWSN -0.2218
-4.5713 DDAWSNG -0.2218
-4.5713 DDAWSP -0.2218
-4.5713 DDAWST -0.2218
-4.5713 DDAWXN -0.2218
-4.5713 DDAWXNG -0.2218
-4.5713 DDAX -0.2218
-4.5713 DDAXI -0.2218
-4.5713 DDAXNG -0.2218
-4.5713 DDAY -0.2218
-4.5713 DDE -0.2218
-4.5713 DDEE -0.2218
-4.5713 DDEEF -0.2218
-4.5713 DDEEFM -0.2218
-4.5713 DDEEFN -0.2218
-4.5713 DDEEFU -0.2218
-4.5713 DDEEJ -0.2218
-4.5713 DDEEJM -0.2218
-4.5713 DDEEM -0.2218
-4.5713 DDEENH -0.2218
-4.5713 DDEER -0.2218
-4.5713 DDEERU -0.2218
-4.5713 DDEES -0.2218
-4.5713 DDEESM -0.2218
-4.5713 DDEESN -0.2218
-4.5713 DDEEU -0.2218
-4.5713 DDEEX -0.2218
-4.5713 DDEEXNH -0.2218
-4.5713 DDEF -0.2218
-4.5713 DDEFN -0.2218
-4.5713 DDEFO -0.2218
-4.5713 DDEJP -0.2218
-4.5713 DDEJT -0.2218
-4.5713 DDEM -0.2218
-4.5713 DDEN -0.2218
-4.5713 DDENG -0.2218
-4.5713 DDEO -0.2218
-4.5713 DDER -0.2218
-4.5713 DDESO -0.2218
-4.5713 DDEST -0.2218
-4.5713 DDEXO -0.2218
-4.5713 DDI -0.2218
-4.5713 DDIEEFM -0.2218
-4.5713 DDIEEFN -0.2218
-4.5713 DDIEEFU -0.2218
-4.5713 DDIEEJN -0.2218
-4.5713 DDIEEJP -0.2218
-4.5713 DDIEEJT -0.2218
-4.5713 DDIEEJU -0.2218
-4.5713 DDIEEN -0.2218
-4.5713 DDIEENG -0.2218
-4.5713 DDIEERM -0.2218
-4.5713 DDIEERN -0.2218
-4.5713 DDIEERU -0.2218
-4.5713 DDIEESC -0.2218
-4.5713 DDIEESM -0.2218
-4.5713 DDIEESU -0.2218
-4.5713 DDIEEU -0.2218
-4.5713 DDIF -0.2218
-4.5713 DDIFA -0.2218
-4.5713 DDIFN -0.2218
-4.5713 DDIFNH -0.2218
-4.5713 DDIFU -0.2218
-4.5713 DDIJA -0.2218
-4.5713 DDIJCH -0.2218
-4.5713 DDIJNH -0.2218
-4.5713 DDIJT -0.2218
-4.5713 DDINH -0.2218
-4.5713 DDIR -0.2218
-4.5713 DDIRA -0.2218
-4.5713 DDIRNH -0.2218
-4.5713 DDISCH -0.2218
-4.5713 DDISNH -0.2218
-4.5713 DDIST -0.2218
-4.5713 DDIU -0.2218
-4.5713 DDIX -0.2218
-4.5713 DDIXA -0.2218
-4.5713 DDIXNH -0.2218
-4.5713 DDO -0.2218
-4.5713 DDOAFI -0.2218
-4.5713 DDOAFN -0.2218
-4.5713 DDOAJN -0.2218
-4.5713 DDOAJT -0.2218
-4.5713 DDOAN -0.2218
-4.5713 DDOARN -0.2218
-4.5713 DDOASI -0.2218
-4.5713 DDOASN -0.2218
-4.5713 DDOF -0.2218
-4.5713 DDOFI -0.2218
-4.5713 DDOFN -0.2218
-4.5713 DDOJ -0.2218
-4.5713 DDOJA -0.2218
-4.5713 DDOJC -0.2218
-4.5713 DDOJI -0.2218
-4.5713 DDOJNG -0.2218
-4.5713 DDOJT -0.2218
-4.5713 DDOM -0.2218
-4.5713 DDONG -0.2218
-4.5713 DDOO -0.2218
-4.5713 DDOOF -0.2218
-4.5713 DDOOFI -0.2218
-4.5713 DDOOFM -0.2218
-4.5713 DDOOFN -0.2218
-4.5713 DDOOFNG -0.2218
-4.5713 DDOOI -0.2218
-4.5713 DDOOJ -0.2218
-4.5713 DDOOJC -0.2218
-4.5713 DDOOJI -0.2218
-4.5713 DDOOJN -0.2218
-4.5713 DDOOJNG -0.2218
-4.5713 DDOOJP -0.2218
-4.5713 DDOOJT -0.2218
-4.5713 DDOON -0.2218
-4.5713 DDOONG -0.2218
-4.5713 DDOOR -0.2218
-4.5713 DDOORI -0.2218
-4.5713 DDOORNG -0.2218
-4.5713 DDOOS -0.2218
-4.5713 DDOOSC -0.2218
-4.5713 DDOOSI -0.2218
-4.5713 DDOOSM -0.2218
-4.5713 DDOOSN -0.2218
-4.5713 DDOOSNG -0.2218
-4.5713 DDOOSP -0.2218
-4.5713 DDOOST -0.2218
-4.5713 DDOOX -0.2218
-4.5713 DDOOXI -0.2218
-4.5713 DDOOXNG -0.2218
-4.5713 DDOR -0.2218
-4.5713 DDORM -0.2218
-4.5713 DDOS -0.2218
-4.5713 DDOSI -0.2218
-4.5713 DDOSM -0.2218
-4.5713 DDOSN -0.2218
-4.5713 DDOSNG -0.2218
-4.5713 DDOW -0.2218
-4.5713 DDOWF -0.2218
-4.5713 DDOWFI -0.2218
-4.5713 DDOWFM -0.2218
-4.5713 DDOWJ -0.2218
-4.5713 DDOWJI -0.2218
-4.5713 DDOWJT -0.2218
-4.5713 DDOWM -0.2218
-4.5713 DDOWN -0.2218
-4.5713 DDOWRM -0.2218
-4.5713 DDOWSI -0.2218
-4.5713 DDOWSN -0.2218
-4.5713 DDOWSP -0.2218
-4.5713 DDOWST -0.2218
-4.5713 DDOWX -0.2218
-4.5713 DDU -0.2218
-4.5713 DDUA -0.2218
-4.5713 DDUF -0.2218
-4.5713 DDUFA -0.2218
-4.5713 DDUFI -0.2218
-4.5713 DDUFM -0.2218
-4.5713 DDUFN -0.2218
-4.5713 DDUFNG -0.2218
-4.5713 DDUI -0.2218
-4.5713 DDUJ -0.2218
-4.5713 DDUJC -0.2218
-4.5713 DDUJN -0.2218
-4.5713 DDUJNG -0.2218
-4.5713 DDUN -0.2218
-4.5713 DDUOOI -0.2218
-4.5713 DDUOOJI -0.2218
-4.5713 DDUOORI -0.2218
-4.5713 DDUOOSC -0.2218
-4.5713 DDUOOSI -0.2218
-4.5713 DDUOOSNG -0.2218
-4.5713 DDUR -0.2218
-4.5713 DDUSC -0.2218
-4.5713 DDUSNG -0.2218
-4.5713 DDUSP -0.2218
-4.5713 DDUST -0.2218
-4.5713 DDUWA -0.2218
-4.5713 DDUWF -0.2218
-4.5713 DDUWFNG -0.2218
-4.5713 DDUWJC -0.2218
-4.5713 DDUWJNG -0.2218
-4.5713 DDUWOWFI -0.2218
-4.5713 DDUWOWFNG -0.2218
-4.5713 DDUWOWJC -0.2218
-4.5713 DDUWOWNG -0.2218
-4.5713 DDUWSA -0.2218
-4.5713 DDUWSC -0.2218
-4.5713 DDUWSNG -0.2218
-4.5713 DDUWST -0.2218
-4.5713 DDUXA -0.2218
-4.5713 DDUYSCH -0.2218
-4.5713 DE -0.2218
-4.5713 DEE -0.2218
-4.5713 DEEF -0.2218
-4.5713 DEEFN -0.2218
-4.5713 DEEFNH -0.2218
-4.5713 DEEJT -0.2218
-4.5713 DEEJU -0.2218
-4.5713 DEER -0.2218
-4.5713 DEES -0.2218
-4.5713 DEEST -0.2218
-4.5713 DEEX -0.2218
-4.5713 DEF -0.2218
-4.5713 DEJM -0.2218
-4.5713 DEJP -0.2218
-4.5713 DER -0.2218
-4.5713 DERO -0.2218
-4.5713 DESO -0.2218
-4.5713 DESP -0.2218
-4.5713 DI -0.2218
-4.5713 DIEEFU -0.2218
-4.5713 DIEEJC -0.2218
-4.5713 DIEEJM -0.2218
-4.5713 DIEEJN -0.2218
-4.5713 DIEEJP -0.2218
-4.5713 DIEEJT -0.2218
-4.5713 DIEEJU -0.2218
-4.5713 DIEEM -0.2218
-4.5713 DIEEN -0.2218
-4.5713 DIEESP -0.2218
-4.5713 DIEEST -0.2218
-4.5713 DIEEU -0.2218
-4.5713 DIEEXM -0.2218
-4.5713 DIEEXN -0.2218
-4.5713 DIEEXU -0.2218
-4.5713 DIF -0.2218
-4.5713 DIFM -0.2218
-4.5713 DIFU -0.2218
-4.5713 DIJ -0.2218
-4.5713 DIJCH -0.2218
-4.5713 DIJP -0.2218
-4.5713 DIJU -0.2218
-4.5713 DIM -0.2218
-4.5713 DIN -0.2218
-4.5713 DINH -0.2218
-4.5713 DIR -0.2218
-4.5713 DIS -0.2218
-4.5713 DISNH -0.2218
-4.5713 DISU -0.2218
-4.5713 DIU -0.2218
-4.5713 DIX -0.2218
-4.5713 DIXA -0.2218
-4.5713 DIXN -0.2218
-4.5713 DIXNH -0.2218
-4.5713 DO -0.2218
-4.5713 DOAFNH -0.2218
-4.5713 DOANH -0.2218
-4.5713 DOAXN -0.2218
-4.5713 DOF -0.2218
-4.5713 DOFM -0.2218
-4.5713 DOFNG -0.2218
-4.5713 DOI -0.2218
-4.5713 DOJA -0.2218
-4.5713 DOJC -0.2218
-4.5713 DOJN -0.2218
-4.5713 DOM -0.2218
-4.5713 DON -0.2218
-4.5713 DONG -0.2218
-4.5713 DOOFI -0.2218
-4.5713 DOOFN -0.2218
-4.5713 DOOJI -0.2218
-4.5713 DOOJNG -0.2218
-4.5713 DOOJT -0.2218
-4.5713 DOONG -0.2218
-4.5713 DOORI -0.2218
-4.5713 DOOSC -0.2218
-4.5713 DOOSI -0.2218
-4.5713 DOOSNG -0.2218
-4.5713 DOOST -0.2218
-4.5713 DOOX -0.2218
-4.5713 DOOXI -0.2218
-4.5713 DORM -0.2218
-4.5713 DORNG -0.2218
-4.5713 DOS -0.2218
-4.5713 DOSC -0.2218
-4.5713 DOW -0.2218
-4.5713 DOWFI -0.2218
-4.5713 DOWI -0.2218
-4.5713 DOWJN -0.2218
-4.5713 DOWN -0.2218
-4.5713 DOWR -0.2218
-4.5713 DOWS -0.2218
-4.5713 DOWSP -0.2218
-4.5713 DOWX -0.2218
-4.5713 DOXI -0.2218
-4.5713 DOXNG -0.2218
-4.5713 DU -0.2218
-4.5713 DUA -0.2218
-4.5713 DUAAJT -0.2218
-4.5713 DUEEFNH -0.2218
-4.5713 DUEEJ -0.2218
-4.5713 DUF -0.2218
-4.5713 DUFI -0.2218
-4.5713 DUFM -0.2218
-4.5713 DUFNG -0.2218
-4.5713 DUJ -0.2218
-4.5713 DUJC -0.2218
-4.5713 DUJM -0.2218
-4.5713 DUJNG -0.2218
-4.5713 DUNG -0.2218
-4.5713 DUOOFN -0.2218
-4.5713 DUOOSC -0.2218
-4.5713 DUOOXI -0.2218
-4.5713 DUSM -0.2218
-4.5713 DUST -0.2218
-4.5713 DUW -0.2218
-4.5713 DUWA -0.2218
-4.5713 DUWFA -0.2218
-4.5713 DUWFNG -0.2218
-4.5713 DUWJ -0.2218
-4.5713 DUWJA -0.2218
-4.5713 DUWJC -0.2218
-4.5713 DUWJNG -0.2218
-4.5713 DUWNG -0.2218
-4.5713 DUWOWFNG -0.2218
-4.5713 DUWOWJC -0.2218
-4.5713 DUWOWJI -0.2218
-4.5713 DUWOWJNG -0.2218
-4.5713 DUWOWJT -0.2218
-4.5713 DUWOWNG -0.2218
-4.5713 DUWOWSI -0.2218
-4.5713 DUWOWXNG -0.2218
-4.5713 DUWRNG -0.2218
-4.5713 DUWS -0.2218
-4.5713 DUWSA -0.2218
-4.5713 DUWST -0.2218
-4.5713 DUWX -0.2218
-4.5713 DUX -0.2218
-4.5713 DUXA -0.2218
-4.5713 DUXI -0.2218
-4.5713 DUXNG -0.2218
-4.5713 DUY -0.2218
-4.5713 DUYEEJT -0.2218
-4.5713 DUYEEN -0.2218
-4.5713 DY -0.2218
-4.5713 DYSN -0.2218
-4.5713 EEFNH -0.2218
-4.5713 EEJN -0.2218
-4.5713 EEJP -0.2218
-4.5713 EEM -0.2218
-4.5713 EESCH -0.2218
-4.5713 EESM -0.2218
-4.5713 EESP -0.2218
-4.5713 EEU -0.2218
-4.5713 EEXNH -0.2218
-4.5713 EFO -0.2218
-4.5713 EJO -0.2218
-4.5713 EJP -0.2218
-4.5713 EJT -0.2218
-4.5713 EM -0.2218
-4.5713 EN -0.2218
-4.5713 ENG -0.2218
-4.5713 EO -0.2218
-4.5713 ERN -0.2218
-4.5713 ERO -0.2218
-4.5713 ESC -0.2218
-4.5713 ESM -0.2218
-4.5713 ESN -0.2218
-4.5713 ESO -0.2218
-4.5713 ESP -0.2218
-4.5713 EST -0.2218
-4.5713 EXO -0.2218
-4.5713 GA -0.2218
-4.5713 GAAFM -0.2218
-4.5713 GAAFN -0.2218
-4.5713 GAAFU -0.2218
-4.5713 GAAFY -0.2218
-4.5713 GAAJM -0.2218
-4.5713 GAAJN -0.2218
-4.5713 GAAJP -0.2218
-4.5713 GAAJT -0.2218
-4.5713 GAAJY -0.2218
-4.5713 GAAN -0.2218
-4.5713 GAARM -0.2218
-4.5713 GAASC -0.2218
-4.5713 GAASM -0.2218
-4.5713 GAASN -0.2218
-4.5713 GAASP -0.2218
-4.5713 GAASU -0.2218
-4.5713 GAASY -0.2218
-4.5713 GAAU -0.2218
-4.5713 GAAXM -0.2218
-4.5713 GAAXU -0.2218
-4.5713 GAAXY -0.2218
-4.5713 GAAY -0.2218
-4.5713 GAF -0.2218
-4.5713 GAFI -0.2218
-4.5713 GAFN -0.2218
-4.5713 GAFNG -0.2218
-4.5713 GAFNH -0.2218
-4.5713 GAFO -0.2218
-4.5713 GAFU -0.2218
-4.5713 GAFY -0.2218
-4.5713 GAI -0.2218
-4.5713 GAJ -0.2218
-4.5713 GAJC -0.2218
-4.5713 GAJCH -0.2218
-4.5713 GAJN -0.2218
-4.5713 GAJO -0.2218
-4.5713 GAJT -0.2218
-4.5713 GAJY -0.2218
-4.5713 GAM -0.2218
-4.5713 GAN -0.2218
-4.5713 GANG -0.2218
-4.5713 GANH -0.2218
-4.5713 GAO -0.2218
-4.5713 GAR -0.2218
-4.5713 GARY -0.2218
-4.5713 GAS -0.2218
-4.5713 GASC -0.2218
-4.5713 GASI -0.2218
-4.5713 GASN -0.2218
-4.5713 GASNH -0.2218
-4.5713 GASO -0.2218
-4.5713 GASP -0.2218
-4.5713 GASU -0.2218
-4.5713 GASY -0.2218
-4.5713 GAU -0.2218
-4.5713 GAWFM -0.2218
-4.5713 GAWJC -0.2218
-4.5713 GAWJM -0.2218
-4.5713 GAWJNG -0.2218
-4.5713 GAWJP -0.2218
-4.5713 GAWJT -0.2218
-4.5713 GAWM -0.2218
-4.5713 GAWNG -0.2218
-4.5713 GAWSM -0.2218
-4.5713 GAWSN -0.2218
-4.5713 GAWSNG -0.2218
-4.5713 GAWSP -0.2218
-4.5713 GAWST -0.2218
-4.5713 GAX -0.2218
-4.5713 GAXI -0.2218
-4.5713 GAXY -0.2218
-4.5713 GAY -0.2218
-4.5713 GHE -0.2218
-4.5713 GHEE -0.2218
-4.5713 GHEEF -0.2218
-4.5713 GHEEFNH -0.2218
-4.5713 GHEEJ -0.2218
-4.5713 GHEEJT -0.2218
-4.5713 GHEERNH -0.2218
-4.5713 GHEES -0.2218
-4.5713 GHEESCH -0.2218
-4.5713 GHEF -0.2218
-4.5713 GHEFN -0.2218
-4.5713 GHEJ -0.2218
-4.5713 GHEJO -0.2218
-4.5713 GHEN -0.2218
-4.5713 GHER -0.2218
-4.5713 GHES -0.2218
-4.5713 GHESM -0.2218
-4.5713 GHESP -0.2218
-4.5713 GHEST -0.2218
-4.5713 GHEX -0.2218
-4.5713 GHI -0.2218
-4.5713 GHIEEFN -0.2218
-4.5713 GHIEESC -0.2218
-4.5713 GHIF -0.2218
-4.5713 GHIFM -0.2218
-4.5713 GHIM -0.2218
-4.5713 GHISN -0.2218
-4.5713 GIA -0.2218
-4.5713 GIAAFM -0.2218
-4.5713 GIAAFN -0.2218
-4.5713 GIAAFU -0.2218
-4.5713 GIAAFY -0.2218
-4.5713 GIAAJM -0.2218
-4.5713 GIAAJN -0.2218
-4.5713 GIAAJP -0.2218
-4.5713 GIAAJT -0.2218
-4.5713 GIAAJU -0.2218
-4.5713 GIAASC -0.2218
-4.5713 GIAASM -0.2218
-4.5713 GIAASN -0.2218
-4.5713 GIAASP -0.2218
-4.5713 GIAASU -0.2218
-4.5713 GIAASY -0.2218
-4.5713 GIAAXM -0.2218
-4.5713 GIAAXY -0.2218
-4.5713 GIAAY -0.2218
-4.5713 GIAF -0.2218
-4.5713 GIAFN -0.2218
-4.5713 GIAFNG -0.2218
-4.5713 GIAFNH -0.2218
-4.5713 GIAFO -0.2218
-4.5713 GIAFU -0.2218
-4.5713 GIAFY -0.2218
-4.5713 GIAI -0.2218
-4.5713 GIAJ -0.2218
-4.5713 GIAJI -0.2218
-4.5713 GIAJM -0.2218
-4.5713 GIAJNG -0.2218
-4.5713 GIAJT -0.2218
-4.5713 GIAM -0.2218
-4.5713 GIAN -0.2218
-4.5713 GIANG -0.2218
-4.5713 GIANH -0.2218
-4.5713 GIAO -0.2218
-4.5713 GIAR -0.2218
-4.5713 GIARI -0.2218
-4.5713 GIARM -0.2218
-4.5713 GIARN -0.2218
-4.5713 GIARNG -0.2218
-4.5713 GIARNH -0.2218
-4.5713 GIARO -0.2218
-4.5713 GIARU -0.2218
-4.5713 GIAS -0.2218
-4.5713 GIASC -0.2218
-4.5713 GIASM -0.2218
-4.5713 GIASN -0.2218
-4.5713 GIASNG -0.2218
-4.5713 GIASO -0.2218
-4.5713 GIASP -0.2218
-4.5713 GIAST -0.2218
-4.5713 GIAU -0.2218
-4.5713 GIAWFM -0.2218
-4.5713 GIAWFN -0.2218
-4.5713 GIAWFNG -0.2218
-4.5713 GIAWJC -0.2218
-4.5713 GIAWJM -0.2218
-4.5713 GIAWJN -0.2218
-4.5713 GIAWJT -0.2218
-4.5713 GIAWM -0.2218
-4.5713 GIAWNG -0.2218
-4.5713 GIAWST -0.2218
-4.5713 GIAWXM -0.2218
-4.5713 GIAX -0.2218
-4.5713 GIAXI -0.2218
-4.5713 GIAXN -0.2218
-4.5713 GIAXY -0.2218
-4.5713 GIEEF -0.2218
-4.5713 GIEEFN -0.2218
-4.5713 GIEEFNG -0.2218
-4.5713 GIEESM -0.2218
-4.5713 GIEESNG -0.2218
-4.5713 GIEEST -0.2218
-4.5713 GIEEXU -0.2218
-4.5713 GIEFM -0.2218
-4.5713 GIEJO -0.2218
-4.5713 GIEJP -0.2218
-4.5713 GIEO -0.2218
-4.5713 GIER -0.2218
-4.5713 GIES -0.2218
-4.5713 GIESO -0.2218
-4.5713 GIEX -0.2218
-4.5713 GIF -0.2218
-4.5713 GIFN -0.2218
-4.5713 GIOF -0.2218
-4.5713 GIOFI -0.2218
-4.5713 GIOFN -0.2218
-4.5713 GIOFNG -0.2218
-4.5713 GIOJ -0.2218
-4.5713 GIOJC -0.2218
-4.5713 GIOJI -0.2218
-4.5713 GIOJNG -0.2218
-4.5713 GIOJT -0.2218
-4.5713 GIONG -0.2218
-4.5713 GIOOF -0.2218
-4.5713 GIOOFI -0.2218
-4.5713 GIOOFNG -0.2218
-4.5713 GIOOJ -0.2218
-4.5713 GIOOJI -0.2218
-4.5713 GIOONG -0.2218
-4.5713 GIOORI -0.2218
-4.5713 GIOOSC -0.2218
-4.5713 GIOOSI -0.2218
-4.5713 GIOOSNG -0.2218
-4.5713 GIOOST -0.2218
-4.5713 GIOOX -0.2218
-4.5713 GIOOXI -0.2218
-4.5713 GIOR -0.2218
-4.5713 GIORI -0.2218
-4.5713 GIORN -0.2218
-4.5713 GIORNG -0.2218
-4.5713 GIOS -0.2218
-4.5713 GIOSI -0.2218
-4.5713 GIOSN -0.2218
-4.5713 GIOSNG -0.2218
-4.5713 GIOWF -0.2218
-4.5713 GIOWFI -0.2218
-4.5713 GIOWFN -0.2218
-4.5713 GIOWR -0.2218
-4.5713 GIOWSI -0.2218
-4.5713 GIOWXN -0.2218
-4.5713 GIR -0.2218
-4.5713 GIS -0.2218
-4.5713 GISCH -0.2218
-4.5713 GIUA -0.2218
-4.5713 GIUFI -0.2218
-4.5713 GIUFM -0.2218
-4.5713 GIUJA -0.2218
-4.5713 GIUJC -0.2218
-4.5713 GIUJI -0.2218
-4.5713 GIUN -0.2218
-4.5713 GIUOOJC -0.2218
-4.5713 GIURI -0.2218
-4.5713 GIUS -0.2218
-4.5713 GIUSI -0.2218
-4.5713 GIUSP -0.2218
-4.5713 GIUWF -0.2218
-4.5713 GIUWJT -0.2218
-4.5713 GIUWOWFNG -0.2218
-4.5713 GIUWOWNG -0.2218
-4.5713 GIUWOWSNG -0.2218
-4.5713 GIUWX -0.2218
-4.5713 GIUWXA -0.2218
-4.5713 GIUX -0.2218
-4.5713 GIUXA -0.2218
-4.5713 GO -0.2218
-4.5713 GOF -0.2218
-4.5713 GOFN -0.2218
-4.5713 GOJ -0.2218
-4.5713 GOJI -0.2218
-4.5713 GOJN -0.2218
-4.5713 GOJNG -0.2218
-4.5713 GOJT -0.2218
-4.5713 GOM -0.2218
-4.5713 GON -0.2218
-4.5713 GOO -0.2218
-4.5713 GOOF -0.2218
-4.5713 GOOFI -0.2218
-4.5713 GOOFM -0.2218
-4.5713 GOOFNG -0.2218
-4.5713 GOOJC -0.2218
-4.5713 GOOJI -0.2218
-4.5713 GOOJP -0.2218
-4.5713 GOOJT -0.2218
-4.5713 GOOM -0.2218
-4.5713 GOON -0.2218
-4.5713 GOONG -0.2218
-4.5713 GOOR -0.2218
-4.5713 GOOSC -0.2218
-4.5713 GOOSI -0.2218
-4.5713 GOOSM -0.2218
-4.5713 GOOX -0.2218
-4.5713 GORI -0.2218
-4.5713 GORNG -0.2218
-4.5713 GOSA -0.2218
-4.5713 GOSC -0.2218
-4.5713 GOSI -0.2218
-4.5713 GOSP -0.2218
-4.5713 GOST -0.2218
-4.5713 GOW -0.2218
-4.5713 GOWF -0.2218
-4.5713 GOWFM -0.2218
-4.5713 GOWFN -0.2218
-4.5713 GOWJI -0.2218
-4.5713 GOWJN -0.2218
-4.5713 GOWJT -0.2218
-4.5713 GOWN -0.2218
-4.5713 GOWR -0.2218
-4.5713 GOWRI -0.2218
-4.5713 GOWSM -0.2218
-4.5713 GOWX -0.2218
-4.5713 GOX -0.2218
-4.5713 GU -0.2218
-4.5713 GUF -0.2218
-4.5713 GUFI -0.2218
-4.5713 GUFN -0.2218
-4.5713 GUFNG -0.2218
-4.5713 GUJ -0.2218
-4.5713 GUJC -0.2218
-4.5713 GUJI -0.2218
-4.5713 GUOOFNG -0.2218
-4.5713 GUOOJC -0.2218
-4.5713 GUOOJT -0.2218
-4.5713 GUOOSC -0.2218
-4.5713 GUST -0.2218
-4.5713 GUWF -0.2218
-4.5713 GUWFNG -0.2218
-4.5713 GUWOWFM -0.2218
-4.5713 GUWOWFNG -0.2218
-4.5713 GUWOWJM -0.2218
-4.5713 GUWOWJNG -0.2218
-4.5713 GUWOWM -0.2218
-4.5713 GUWOWNG -0.2218
-4.5713 GUWOWXNG -0.2218
-4.5713 GUWRI -0.2218
-4.5713 GUWSNG -0.2218
-4.5713 GUXI -0.2218
-4.5713 HA -0.2218
-4.5713 HAAFM -0.2218
-4.5713 HAAFU -0.2218
-4.5713 HAAFY -0.2218
-4.5713 HAAJN -0.2218
-4.5713 HAAJU -0.2218
-4.5713 HAAM -0.2218
-4.5713 HAAN -0.2218
-4.5713 HAARM -0.2218
-4.5713 HAARU -0.2218
-4.5713 HAARY -0.2218
-4.5713 HAASN -0.2218
-4.5713 HAASP -0.2218
-4.5713 HAAST -0.2218
-4.5713 HAASU -0.2218
-4.5713 HAAU -0.2218
-4.5713 HAAXNG -0.2218
-4.5713 HAF -0.2218
-4.5713 HAFI -0.2218
-4.5713 HAFM -0.2218
-4.5713 HAFN -0.2218
-4.5713 HAFNG -0.2218
-4.5713 HAFNH -0.2218
-4.5713 HAFO -0.2218
-4.5713 HAFU -0.2218
-4.5713 HAI -0.2218
-4.5713 HAJ -0.2218
-4.5713 HAJC -0.2218
-4.5713 HAJCH -0.2218
-4.5713 HAJI -0.2218
-4.5713 HAJM -0.2218
-4.5713 HAJN -0.2218
-4.5713 HAJNG -0.2218
-4.5713 HAJNH -0.2218
-4.5713 HAJO -0.2218
-4.5713 HAJP -0.2218
-4.5713 HAJT -0.2218
-4.5713 HAJY -0.2218
-4.5713 HAM -0.2218
-4.5713 HAN -0.2218
-4.5713 HANG -0.2218
-4.5713 HANH -0.2218
-4.5713 HAO -0.2218
-4.5713 HAR -0.2218
-4.5713 HARI -0.2218
-4.5713 HARNG -0.2218
-4.5713 HARO -0.2218
-4.5713 HAS -0.2218
-4.5713 HASC -0.2218
-4.5713 HASCH -0.2218
-4.5713 HASI -0.2218
-4.5713 HASM -0.2218
-4.5713 HASN -0.2218
-4.5713 HASNG -0.2218
-4.5713 HASO -0.2218
-4.5713 HASP -0.2218
-4.5713 HAST -0.2218
-4.5713 HASY -0.2218
-4.5713 HAWFM -0.2218
-4.5713 HAWFN -0.2218
-4.5713 HAWFNG -0.2218
-4.5713 HAWJC -0.2218
-4.5713 HAWM -0.2218
-4.5713 HAWNG -0.2218
-4.5713 HAWRN -0.2218
-4.5713 HAWSC -0.2218
-4.5713 HAWSN -0.2218
-4.5713 HAWSNG -0.2218
-4.5713 HAWST -0.2218
-4.5713 HAXI -0.2218
-4.5713 HAXM -0.2218
-4.5713 HAXN -0.2218
-4.5713 HAXNG -0.2218
-4.5713 HAXNH -0.2218
-4.5713 HAXO -0.2218
-4.5713 HAXY -0.2218
-4.5713 HAY -0.2218
-4.5713 HE -0.2218
-4.5713 HEE -0.2218
-4.5713 HEEF -0.2218
-4.5713 HEEJ -0.2218
-4.5713 HEEJCH -0.2218
-4.5713 HEEJT -0.2218
-4.5713 HEEN -0.2218
-4.5713 HEENH -0.2218
-4.5713 HEER -0.2218
-4.5713 HEERN -0.2218
-4.5713 HEERNH -0.2218
-4.5713 HEESCH -0.2218
-4.5713 HEESN -0.2218
-4.5713 HEEST -0.2218
-4.5713 HEESU -0.2218
-4.5713 HEEX -0.2218
-4.5713 HEF -0.2218
-4.5713 HEFM -0.2218
-4.5713 HEFN -0.2218
-4.5713 HEFO -0.2218
-4.5713 HEJ -0.2218
-4.5713 HEJN -0.2218
-4.5713 HEJP -0.2218
-4.5713 HEJT -0.2218
-4.5713 HEM -0.2218
-4.5713 HEN -0.2218
-4.5713 HEO -0.2218
-4.5713 HERM -0.2218
-4.5713 HERO -0.2218
-4.5713 HES -0.2218
-4.5713 HESC -0.2218
-4.5713 HESO -0.2218
-4.5713 HEST -0.2218
-4.5713 HI -0.2218
-4.5713 HIA -0.2218
-4.5713 HIEEFM -0.2218
-4.5713 HIEEFN -0.2218
-4.5713 HIEEJN -0.2218
-4.5713 HIEEJP -0.2218
-4.5713 HIEEJU -0.2218
-4.5713 HIEEN -0.2218
-4.5713 HIEERM -0.2218
-4.5713 HIEERN -0.2218
-4.5713 HIEERU -0.2218
-4.5713 HIEESM -0.2218
-4.5713 HIEESN -0.2218
-4.5713 HIEESNG -0.2218
-4.5713 HIEESP -0.2218
-4.5713 HIEESU -0.2218
-4.5713 HIFNH -0.2218
-4.5713 HIJCH -0.2218
-4.5713 HIN -0.2218
-4.5713 HIR -0.2218
-4.5713 HIRNH -0.2218
-4.5713 HIS -0.2218
-4.5713 HISCH -0.2218
-4.5713 HISP -0.2218
-4.5713 HIST -0.2218
-4.5713 HIU -0.2218
-4.5713 HIX -0.2218
-4.5713 HIXNH -0.2218
-4.5713 HO -0.2218
-4.5713 HOA -0.2218
-4.5713 HOAF -0.2218
-4.5713 HOAFI -0.2218
-4.5713 HOAFN -0.2218
-4.5713 HOAFNG -0.2218
-4.5713 HOAFNH -0.2218
-4.5713 HOAJ -0.2218
-4.5713 HOAJCH -0.2218
-4.5713 HOAJI -0.2218
-4.5713 HOAJN -0.2218
-4.5713 HOAJNH -0.2218
-4.5713 HOAJT -0.2218
-4.5713 HOAN -0.2218
-4.5713 HOANG -0.2218
-4.5713 HOAR -0.2218
-4.5713 HOARNG -0.2218
-4.5713 HOARNH -0.2218
-4.5713 HOAS -0.2218
-4.5713 HOASC -0.2218
-4.5713 HOASN -0.2218
-4.5713 HOASNH -0.2218
-4.5713 HOASY -0.2218
-4.5713 HOAWFNG -0.2218
-4.5713 HOAWJC -0.2218
-4.5713 HOAWNG -0.2218
-4.5713 HOAWSC -0.2218
-4.5713 HOAWSM -0.2218
-4.5713 HOAWST -0.2218
-4.5713 HOAWXNG -0.2218
-4.5713 HOAXN -0.2218
-4.5713 HOAY -0.2218
-4.5713 HOE -0.2218
-4.5713 HOEF -0.2218
-4.5713 HOEJ -0.2218
-4.5713 HOEJT -0.2218
-4.5713 HOEN -0.2218
-4.5713 HOERN -0.2218
-4.5713 HOEST -0.2218
-4.5713 HOF -0.2218
-4.5713 HOFM -0.2218
-4.5713 HOFN -0.2218
-4.5713 HOFNG -0.2218
-4.5713 HOI -0.2218
-4.5713 HOJ -0.2218
-4.5713 HOJC -0.2218
-4.5713 HOJNG -0.2218
-4.5713 HOJP -0.2218
-4.5713 HOM -0.2218
-4.5713 HON -0.2218
-4.5713 HONG -0.2218
-4.5713 HOO -0.2218
-4.5713 HOOF -0.2218
-4.5713 HOOFI -0.2218
-4.5713 HOOFM -0.2218
-4.5713 HOOFN -0.2218
-4.5713 HOOFNG -0.2218
-4.5713 HOOI -0.2218
-4.5713 HOOJ -0.2218
-4.5713 HOOJC -0.2218
-4.5713 HOOJI -0.2218
-4.5713 HOOJN -0.2218
-4.5713 HOOJP -0.2218
-4.5713 HOOJT -0.2218
-4.5713 HOOM -0.2218
-4.5713 HOON -0.2218
-4.5713 HOONG -0.2218
-4.5713 HOOR -0.2218
-4.5713 HOORI -0.2218
-4.5713 HOORN -0.2218
-4.5713 HOORNG -0.2218
-4.5713 HOOS -0.2218
-4.5713 HOOSC -0.2218
-4.5713 HOOSI -0.2218
-4.5713 HOOSNG -0.2218
-4.5713 HOOST -0.2218
-4.5713 HOOX -0.2218
-4.5713 HOOXM -0.2218
-4.5713 HOOXN -0.2218
-4.5713 HORI -0.2218
-4.5713 HORM -0.2218
-4.5713 HORN -0.2218
-4.5713 HORNG -0.2218
-4.5713 HOSC -0.2218
-4.5713 HOSI -0.2218
-4.5713 HOSM -0.2218
-4.5713 HOSNG -0.2218
-4.5713 HOSP -0.2218
-4.5713 HOST -0.2218
-4.5713 HOW -0.2218
-4.5713 HOWF -0.2218
-4.5713 HOWFI -0.2218
-4.5713 HOWFN -0.2218
-4.5713 HOWI -0.2218
-4.5713 HOWJI -0.2218
-4.5713 HOWJM -0.2218
-4.5713 HOWJP -0.2218
-4.5713 HOWJT -0.2218
-4.5713 HOWN -0.2218
-4.5713 HOWR -0.2218
-4.5713 HOWRI -0.2218
-4.5713 HOWS -0.2218
-4.5713 HOWSN -0.2218
-4.5713 HOWSP -0.2218
-4.5713 HOWST -0.2218
-4.5713 HOWXI -0.2218
-4.5713 HOXM -0.2218
-4.5713 HU -0.2218
-4.5713 HUA -0.2218
-4.5713 HUAAN -0.2218
-4.5713 HUAASN -0.2218
-4.5713 HUEE -0.2218
-4.5713 HUEEF -0.2218
-4.5713 HUEEJ -0.2218
-4.5713 HUEENH -0.2218
-4.5713 HUEES -0.2218
-4.5713 HUEESCH -0.2218
-4.5713 HUF -0.2218
-4.5713 HUFA -0.2218
-4.5713 HUFM -0.2218
-4.5713 HUFN -0.2218
-4.5713 HUFNG -0.2218
-4.5713 HUJ -0.2218
-4.5713 HUJC -0.2218
-4.5713 HUJI -0.2218
-4.5713 HUJM -0.2218
-4.5713 HUJP -0.2218
-4.5713 HUJT -0.2218
-4.5713 HUM -0.2218
-4.5713 HUN -0.2218
-4.5713 HUNG -0.2218
-4.5713 HUOOSNG -0.2218
-4.5713 HUOW -0.2218
-4.5713 HUOWXN -0.2218
-4.5713 HUR -0.2218
-4.5713 HURI -0.2218
-4.5713 HURN -0.2218
-4.5713 HUS -0.2218
-4.5713 HUSC -0.2218
-4.5713 HUSI -0.2218
-4.5713 HUSNG -0.2218
-4.5713 HUSP -0.2218
-4.5713 HUST -0.2218
-4.5713 HUSY -0.2218
-4.5713 HUW -0.2218
-4.5713 HUWF -0.2218
-4.5713 HUWFA -0.2218
-4.5713 HUWFNG -0.2218
-4.5713 HUWJC -0.2218
-4.5713 HUWJU -0.2218
-4.5713 HUWNG -0.2218
-4.5713 HUWOWFNG -0.2218
-4.5713 HUWOWJM -0.2218
-4.5713 HUWOWNG -0.2218
-4.5713 HUWOWRNG -0.2218
-4.5713 HUWOWSC -0.2218
-4.5713 HUWOWSNG -0.2218
-4.5713 HUWOWU -0.2218
-4.5713 HUWR -0.2218
-4.5713 HUWRNG -0.2218
-4.5713 HUWS -0.2218
-4.5713 HUWSA -0.2218
-4.5713 HUWSC -0.2218
-4.5713 HUWSNG -0.2218
-4.5713 HUWU -0.2218
-4.5713 HUWXNG -0.2218
-4.5713 HUWXU -0.2218
-4.5713 HUX -0.2218
-4.5713 HUXM -0.2218
-4.5713 HUY -0.2218
-4.5713 HUYEEFN -0.2218
-4.5713 HUYEEJN -0.2218
-4.5713 HUYEEJT -0.2218
-4.5713 HUYEEN -0.2218
-4.5713 HUYEEST -0.2218
-4.5713 HUYEEXN -0.2218
-4.5713 HUYFNH -0.2218
-4.5713 HUYJCH -0.2218
-4.5713 HUYNH -0.2218
-4.5713 HUYR -0.2218
-4.5713 HUYSCH -0.2218
-4.5713 HUYST -0.2218
-4.5713 HY -0.2218
-4.5713 HYR -0.2218
-4.5713 IFN -0.2218
-4.5713 IFNH -0.2218
-4.5713 IJCH -0.2218
-4.5713 IJN -0.2218
-4.5713 IJT -0.2218
-4.5713 IM -0.2218
-4.5713 IN -0.2218
-4.5713 INH -0.2218
-4.5713 IRA -0.2218
-4.5713 IRM -0.2218
-4.5713 IRN -0.2218
-4.5713 IRU -0.2218
-4.5713 ISCH -0.2218
-4.5713 ISN -0.2218
-4.5713 IST -0.2218
-4.5713 IXNH -0.2218
-4.5713 KA -0.2218
-4.5713 KAN -0.2218
-4.5713 KAY -0.2218
-4.5713 KE -0.2218
-4.5713 KEE -0.2218
-4.5713 KEEF -0.2218
-4.5713 KEEFM -0.2218
-4.5713 KEEFN -0.2218
-4.5713 KEEFNH -0.2218
-4.5713 KEEFU -0.2218
-4.5713 KEEJ -0.2218
-4.5713 KEEJCH -0.2218
-4.5713 KEEJNH -0.2218
-4.5713 KEEN -0.2218
-4.5713 KEENG -0.2218
-4.5713 KEENH -0.2218
-4.5713 KEER -0.2218
-4.5713 KEES -0.2218
-4.5713 KEESCH -0.2218
-4.5713 KEESP -0.2218
-4.5713 KEEST -0.2218
-4.5713 KEEU -0.2218
-4.5713 KEEXNH -0.2218
-4.5713 KEF -0.2218
-4.5713 KEFM -0.2218
-4.5713 KEFN -0.2218
-4.5713 KEFO -0.2218
-4.5713 KEJ -0.2218
-4.5713 KEJO -0.2218
-4.5713 KEJP -0.2218
-4.5713 KEJT -0.2218
-4.5713 KEM -0.2218
-4.5713 KEN -0.2218
-4.5713 KENG -0.2218
-4.5713 KEO -0.2218
-4.5713 KER -0.2218
-4.5713 KERNG -0.2218
-4.5713 KERO -0.2218
-4.5713 KES -0.2218
-4.5713 KESC -0.2218
-4.5713 KESM -0.2218
-4.5713 KESN -0.2218
-4.5713 KESO -0.2218
-4.5713 KESP -0.2218
-4.5713 KEST -0.2218
-4.5713 KEX -0.2218
-4.5713 KEXM -0.2218
-4.5713 KEXO -0.2218
-4.5713 KHA -0.2218
-4.5713 KHAAJP -0.2218
-4.5713 KHAAM -0.2218
-4.5713 KHAAN -0.2218
-4.5713 KHAARN -0.2218
-4.5713 KHAARU -0.2218
-4.5713 KHAARY -0.2218
-4.5713 KHAASC -0.2218
-4.5713 KHAASN -0.2218
-4.5713 KHAASP -0.2218
-4.5713 KHAAST -0.2218
-4.5713 KHAASU -0.2218
-4.5713 KHAAU -0.2218
-4.5713 KHAF -0.2218
-4.5713 KHAFN -0.2218
-4.5713 KHAI -0.2218
-4.5713 KHAJ -0.2218
-4.5713 KHAJC -0.2218
-4.5713 KHAJNG -0.2218
-4.5713 KHAJO -0.2218
-4.5713 KHAJP -0.2218
-4.5713 KHAM -0.2218
-4.5713 KHAN -0.2218
-4.5713 KHANG -0.2218
-4.5713 KHANH -0.2218
-4.5713 KHAO -0.2218
-4.5713 KHAR -0.2218
-4.5713 KHARI -0.2218
-4.5713 KHARM -0.2218
-4.5713 KHARN -0.2218
-4.5713 KHARNG -0.2218
-4.5713 KHARNH -0.2218
-4.5713 KHARO -0.2218
-4.5713 KHAS -0.2218
-4.5713 KHASC -0.2218
-4.5713 KHASCH -0.2218
-4.5713 KHASI -0.2218
-4.5713 KHASM -0.2218
-4.5713 KHASN -0.2218
-4.5713 KHASNG -0.2218
-4.5713 KHASNH -0.2218
-4.5713 KHASO -0.2218
-4.5713 KHASP -0.2218
-4.5713 KHAST -0.2218
-4.5713 KHASU -0.2218
-4.5713 KHASY -0.2218
-4.5713 KHAU -0.2218
-4.5713 KHAWJC -0.2218
-4.5713 KHAWM -0.2218
-4.5713 KHAWN -0.2218
-4.5713 KHAWNG -0.2218
-4.5713 KHAWRM -0.2218
-4.5713 KHAWRN -0.2218
-4.5713 KHAWRNG -0.2218
-4.5713 KHAWSC -0.2218
-4.5713 KHAWSM -0.2218
-4.5713 KHAWSN -0.2218
-4.5713 KHAWSP -0.2218
-4.5713 KHAWST -0.2218
-4.5713 KHAY -0.2218
-4.5713 KHE -0.2218
-4.5713 KHEE -0.2218
-4.5713 KHEEF -0.2218
-4.5713 KHEEFU -0.2218
-4.5713 KHEEJ -0.2218
-4.5713 KHEEJNH -0.2218
-4.5713 KHEENH -0.2218
-4.5713 KHEERNH -0.2218
-4.5713 KHEES -0.2218
-4.5713 KHEEU -0.2218
-4.5713 KHEF -0.2218
-4.5713 KHEFN -0.2218
-4.5713 KHEFO -0.2218
-4.5713 KHEJC -0.2218
-4.5713 KHEM -0.2218
-4.5713 KHEN -0.2218
-4.5713 KHEO -0.2218
-4.5713 KHES -0.2218
-4.5713 KHESO -0.2218
-4.5713 KHESP -0.2218
-4.5713 KHEST -0.2218
-4.5713 KHEX -0.2218
-4.5713 KHI -0.2218
-4.5713 KHIEEFN -0.2218
-4.5713 KHIEEM -0.2218
-4.5713 KHIEEN -0.2218
-4.5713 KHIEENG -0.2218
-4.5713 KHIEERN -0.2218
-4.5713 KHIEESM -0.2218
-4.5713 KHIEESN -0.2218
-4.5713 KHIEESP -0.2218
-4.5713 KHIEEST -0.2218
-4.5713 KHIEESU -0.2218
-4.5713 KHIEEU -0.2218
-4.5713 KHIEEXNG -0.2218
-4.5713 KHIF -0.2218
-4.5713 KHIFN -0.2218
-4.5713 KHIJA -0.2218
-4.5713 KHIJT -0.2218
-4.5713 KHIN -0.2218
-4.5713 KHINH -0.2218
-4.5713 KHIR -0.2218
-4.5713 KHIRNH -0.2218
-4.5713 KHIS -0.2218
-4.5713 KHISA -0.2218
-4.5713 KHISCH -0.2218
-4.5713 KHIST -0.2218
-4.5713 KHISU -0.2218
-4.5713 KHIU -0.2218
-4.5713 KHIXNH -0.2218
-4.5713 KHO -0.2218
-4.5713 KHOA -0.2218
-4.5713 KHOAI -0.2218
-4.5713 KHOAN -0.2218
-4.5713 KHOANG -0.2218
-4.5713 KHOANH -0.2218
-4.5713 KHOARI -0.2218
-4.5713 KHOARN -0.2218
-4.5713 KHOARNG -0.2218
-4.5713 KHOARNH -0.2218
-4.5713 KHOAS -0.2218
-4.5713 KHOASC -0.2218
-4.5713 KHOASI -0.2218
-4.5713 KHOASN -0.2218
-4.5713 KHOASNG -0.2218
-4.5713 KHOAST -0.2218
-4.5713 KHOASY -0.2218
-4.5713 KHOAWFM -0.2218
-4.5713 KHOAWM -0.2218
-4.5713 KHOAWN -0.2218
-4.5713 KHOAWSN -0.2218
-4.5713 KHOAWSNG -0.2218
-4.5713 KHOAWST -0.2218
-4.5713 KHOE -0.2218
-4.5713 KHOEFO -0.2218
-4.5713 KHOEO -0.2218
-4.5713 KHOER -0.2218
-4.5713 KHOES -0.2218
-4.5713 KHOEST -0.2218
-4.5713 KHOF -0.2218
-4.5713 KHOFM -0.2218
-4.5713 KHOI -0.2218
-4.5713 KHOJM -0.2218
-4.5713 KHOM -0.2218
-4.5713 KHOO -0.2218
-4.5713 KHOOI -0.2218
-4.5713 KHOON -0.2218
-4.5713 KHOONG -0.2218
-4.5713 KHOOOOSNG -0.2218
-4.5713 KHOOR -0.2218
-4.5713 KHOORN -0.2218
-4.5713 KHOORNG -0.2218
-4.5713 KHOOS -0.2218
-4.5713 KHOOSC -0.2218
-4.5713 KHOOSI -0.2218
-4.5713 KHOOSN -0.2218
-4.5713 KHOOSNG -0.2218
-4.5713 KHORA -0.2218
-4.5713 KHORI -0.2218
-4.5713 KHORNG -0.2218
-4.5713 KHOS -0.2218
-4.5713 KHOSC -0.2218
-4.5713 KHOSI -0.2218
-4.5713 KHOSM -0.2218
-4.5713 KHOW -0.2218
-4.5713 KHOWF -0.2218
-4.5713 KHOWI -0.2218
-4.5713 KHOWRI -0.2218
-4.5713 KHOWS -0.2218
-4.5713 KHOWSP -0.2218
-4.5713 KHU -0.2218
-4.5713 KHUA -0.2218
-4.5713 KHUAAN -0.2218
-4.5713 KHUAANG -0.2218
-4.5713 KHUAARN -0.2218
-4.5713 KHUAAST -0.2218
-4.5713 KHUAASY -0.2218
-4.5713 KHUAAY -0.2218
-4.5713 KHUEE -0.2218
-4.5713 KHUEESCH -0.2218
-4.5713 KHUF -0.2218
-4.5713 KHUFA -0.2218
-4.5713 KHUFNG -0.2218
-4.5713 KHUI -0.2218
-4.5713 KHUJ -0.2218
-4.5713 KHUJC -0.2218
-4.5713 KHUJT -0.2218
-4.5713 KHUM -0.2218
-4.5713 KHUNG -0.2218
-4.5713 KHUOON -0.2218
-4.5713 KHUOONG -0.2218
-4.5713 KHUR -0.2218
-4.5713 KHURA -0.2218
-4.5713 KHURNG -0.2218
-4.5713 KHUS -0.2218
-4.5713 KHUSC -0.2218
-4.5713 KHUSM -0.2218
-4.5713 KHUW -0.2218
-4.5713 KHUWF -0.2218
-4.5713 KHUWFA -0.2218
-4.5713 KHUWFNG -0.2218
-4.5713 KHUWJA -0.2218
-4.5713 KHUWOWN -0.2218
-4.5713 KHUWOWNG -0.2218
-4.5713 KHUWOWSC -0.2218
-4.5713 KHUWOWST -0.2218
-4.5713 KHUWOWSU -0.2218
-4.5713 KHUWR -0.2218
-4.5713 KHUWS -0.2218
-4.5713 KHUWSA -0.2218
-4.5713 KHUWSNG -0.2218
-4.5713 KHUWSU -0.2218
-4.5713 KHUY -0.2218
-4.5713 KHUYA -0.2218
-4.5713 KHUYEEN -0.2218
-4.5713 KHUYEERN -0.2218
-4.5713 KHUYEESN -0.2218
-4.5713 KHUYEEST -0.2218
-4.5713 KHUYFNH -0.2218
-4.5713 KHUYJU -0.2218
-4.5713 KHUYNH -0.2218
-4.5713 KHUYRU -0.2218
-4.5713 KI -0.2218
-4.5713 KIA -0.2218
-4.5713 KIEEFM -0.2218
-4.5713 KIEEFN -0.2218
-4.5713 KIEEFNG -0.2218
-4.5713 KIEEFU -0.2218
-4.5713 KIEEJM -0.2218
-4.5713 KIEEJN -0.2218
-4.5713 KIEEJT -0.2218
-4.5713 KIEEJU -0.2218
-4.5713 KIEEM -0.2218
-4.5713 KIEEN -0.2218
-4.5713 KIEENG -0.2218
-4.5713 KIEERM -0.2218
-4.5713 KIEERNG -0.2218
-4.5713 KIEERU -0.2218
-4.5713 KIEESM -0.2218
-4.5713 KIEESN -0.2218
-4.5713 KIEESP -0.2218
-4.5713 KIEEST -0.2218
-4.5713 KIEESU -0.2218
-4.5713 KIEEU -0.2218
-4.5713 KIEEXNG -0.2218
-4.5713 KIF -0.2218
-4.5713 KIFA -0.2218
-4.5713 KIFM -0.2218
-4.5713 KIFN -0.2218
-4.5713 KIFNH -0.2218
-4.5713 KIJ -0.2218
-4.5713 KIJCH -0.2218
-4.5713 KIJP -0.2218
-4.5713 KIJT -0.2218
-4.5713 KIM -0.2218
-4.5713 KINH -0.2218
-4.5713 KIR -0.2218
-4.5713 KIRNH -0.2218
-4.5713 KIS -0.2218
-4.5713 KISCH -0.2218
-4.5713 KISN -0.2218
-4.5713 KISNH -0.2218
-4.5713 KISP -0.2218
-4.5713 KIXU -0.2218
-4.5713 KOST -0.2218
-4.5713 KOWI -0.2218
-4.5713 KU -0.2218
-4.5713 KUEENH -0.2218
-4.5713 KUNG -0.2218
-4.5713 KY -0.2218
-4.5713 KYF -0.2218
-4.5713 KYJ -0.2218
-4.5713 KYR -0.2218
-4.5713 KYS -0.2218
-4.5713 KYX -0.2218
-4.5713 LA -0.2218
-4.5713 LAAFM -0.2218
-4.5713 LAAFN -0.2218
-4.5713 LAAFU -0.2218
-4.5713 LAAFY -0.2218
-4.5713 LAAJN -0.2218
-4.5713 LAAJP -0.2218
-4.5713 LAAJT -0.2218
-4.5713 LAAJU -0.2218
-4.5713 LAAM -0.2218
-4.5713 LAAN -0.2218
-4.5713 LAANG -0.2218
-4.5713 LAARM -0.2218
-4.5713 LAARN -0.2218
-4.5713 LAARY -0.2218
-4.5713 LAASC -0.2218
-4.5713 LAASM -0.2218
-4.5713 LAASN -0.2218
-4.5713 LAASP -0.2218
-4.5713 LAAST -0.2218
-4.5713 LAASY -0.2218
-4.5713 LAAU -0.2218
-4.5713 LAAXM -0.2218
-4.5713 LAAXN -0.2218
-4.5713 LAAXY -0.2218
-4.5713 LAAY -0.2218
-4.5713 LAF -0.2218
-4.5713 LAFI -0.2218
-4.5713 LAFM -0.2218
-4.5713 LAFN -0.2218
-4.5713 LAFNG -0.2218
-4.5713 LAFNH -0.2218
-4.5713 LAFO -0.2218
-4.5713 LAFU -0.2218
-4.5713 LAI -0.2218
-4.5713 LAJ -0.2218
-4.5713 LAJC -0.2218
-4.5713 LAJCH -0.2218
-4.5713 LAJI -0.2218
-4.5713 LAJM -0.2218
-4.5713 LAJN -0.2218
-4.5713 LAJNG -0.2218
-4.5713 LAJNH -0.2218
-4.5713 LAJO -0.2218
-4.5713 LAJP -0.2218
-4.5713 LAJT -0.2218
-4.5713 LAJY -0.2218
-4.5713 LAM -0.2218
-4.5713 LAN -0.2218
-4.5713 LANG -0.2218
-4.5713 LANH -0.2218
-4.5713 LAO -0.2218
-4.5713 LAR -0.2218
-4.5713 LARI -0.2218
-4.5713 LARM -0.2218
-4.5713 LARNG -0.2218
-4.5713 LARNH -0.2218
-4.5713 LARO -0.2218
-4.5713 LARU -0.2218
-4.5713 LARY -0.2218
-4.5713 LAS -0.2218
-4.5713 LASC -0.2218
-4.5713 LASCH -0.2218
-4.5713 LASI -0.2218
-4.5713 LASN -0.2218
-4.5713 LASNG -0.2218
-4.5713 LASNH -0.2218
-4.5713 LASO -0.2218
-4.5713 LASP -0.2218
-4.5713 LAST -0.2218
-4.5713 LASU -0.2218
-4.5713 LASY -0.2218
-4.5713 LAU -0.2218
-4.5713 LAWFN -0.2218
-4.5713 LAWFNG -0.2218
-4.5713 LAWJC -0.2218
-4.5713 LAWJM -0.2218
-4.5713 LAWJN -0.2218
-4.5713 LAWJNG -0.2218
-4.5713 LAWJP -0.2218
-4.5713 LAWJT -0.2218
-4.5713 LAWM -0.2218
-4.5713 LAWN -0.2218
-4.5713 LAWNG -0.2218
-4.5713 LAWRM -0.2218
-4.5713 LAWRN -0.2218
-4.5713 LAWRNG -0.2218
-4.5713 LAWSC -0.2218
-4.5713 LAWSM -0.2218
-4.5713 LAWSNG -0.2218
-4.5713 LAWSP -0.2218
-4.5713 LAWST -0.2218
-4.5713 LAWXNG -0.2218
-4.5713 LAX -0.2218
-4.5713 LAXI -0.2218
-4.5713 LAXM -0.2218
-4.5713 LAXN -0.2218
-4.5713 LAXNG -0.2218
-4.5713 LAXNH -0.2218
-4.5713 LAXO -0.2218
-4.5713 LAY -0.2218
-4.5713 LE -0.2218
-4.5713 LEE -0.2218
-4.5713 LEEF -0.2218
-4.5713 LEEFNH -0.2218
-4.5713 LEEFU -0.2218
-4.5713 LEEJ -0.2218
-4.5713 LEEJCH -0.2218
-4.5713 LEEJNH -0.2218
-4.5713 LEEJT -0.2218
-4.5713 LEEN -0.2218
-4.5713 LEENH -0.2218
-4.5713 LEER -0.2218
-4.5713 LEERU -0.2218
-4.5713 LEESCH -0.2218
-4.5713 LEEST -0.2218
-4.5713 LEESU -0.2218
-4.5713 LEEU -0.2218
-4.5713 LEEX -0.2218
-4.5713 LEEXU -0.2218
-4.5713 LEF -0.2218
-4.5713 LEFM -0.2218
-4.5713 LEFN -0.2218
-4.5713 LEFNG -0.2218
-4.5713 LEFO -0.2218
-4.5713 LEJ -0.2218
-4.5713 LEJM -0.2218
-4.5713 LEJN -0.2218
-4.5713 LEJO -0.2218
-4.5713 LEJP -0.2218
-4.5713 LEJT -0.2218
-4.5713 LEM -0.2218
-4.5713 LEN -0.2218
-4.5713 LENG -0.2218
-4.5713 LEO -0.2218
-4.5713 LER -0.2218
-4.5713 LERN -0.2218
-4.5713 LERNG -0.2218
-4.5713 LERO -0.2218
-4.5713 LES -0.2218
-4.5713 LESM -0.2218
-4.5713 LESN -0.2218
-4.5713 LESNG -0.2218
-4.5713 LESO -0.2218
-4.5713 LESP -0.2218
-4.5713 LEST -0.2218
-4.5713 LEX -0.2218
-4.5713 LEXN -0.2218
-4.5713 LEXO -0.2218
-4.5713 LI -0.2218
-4.5713 LIA -0.2218
-4.5713 LIEEFM -0.2218
-4.5713 LIEEFN -0.2218
-4.5713 LIEEFNG -0.2218
-4.5713 LIEEFU -0.2218
-4.5713 LIEEJM -0.2218
-4.5713 LIEEJNG -0.2218
-4.5713 LIEEJP -0.2218
-4.5713 LIEEJT -0.2218
-4.5713 LIEEJU -0.2218
-4.5713 LIEEM -0.2218
-4.5713 LIEEN -0.2218
-4.5713 LIEENG -0.2218
-4.5713 LIEERNG -0.2218
-4.5713 LIEESC -0.2218
-4.5713 LIEESM -0.2218
-4.5713 LIEESN -0.2218
-4.5713 LIEESP -0.2218
-4.5713 LIEESU -0.2218
-4.5713 LIEEU -0.2218
-4.5713 LIEEXM -0.2218
-4.5713 LIEEXN -0.2218
-4.5713 LIEEXU -0.2218
-4.5713 LIF -0.2218
-4.5713 LIFA -0.2218
-4.5713 LIFM -0.2218
-4.5713 LIFN -0.2218
-4.5713 LIFNH -0.2218
-4.5713 LIFU -0.2218
-4.5713 LIJ -0.2218
-4.5713 LIJA -0.2218
-4.5713 LIJCH -0.2218
-4.5713 LIJM -0.2218
-4.5713 LIJNH -0.2218
-4.5713 LIJU -0.2218
-4.5713 LIM -0.2218
-4.5713 LIN -0.2218
-4.5713 LINH -0.2218
-4.5713 LIRNH -0.2218
-4.5713 LIS -0.2218
-4.5713 LISCH -0.2218
-4.5713 LISNH -0.2218
-4.5713 LISP -0.2218
-4.5713 LIST -0.2218
-4.5713 LISU -0.2218
-4.5713 LIU -0.2218
-4.5713 LIXNH -0.2218
-4.5713 LO -0.2218
-4.5713 LOA -0.2218
-4.5713 LOAF -0.2218
-4.5713 LOAFI -0.2218
-4.5713 LOAFN -0.2218
-4.5713 LOAFNG -0.2218
-4.5713 LOAI -0.2218
-4.5713 LOAJC -0.2218
-4.5713 LOAJI -0.2218
-4.5713 LOAJN -0.2218
-4.5713 LOAJNG -0.2218
-4.5713 LOAJT -0.2218
-4.5713 LOAN -0.2218
-4.5713 LOANG -0.2218
-4.5713 LOANH -0.2218
-4.5713 LOARNG -0.2218
-4.5713 LOASN -0.2218
-4.5713 LOASNG -0.2218
-4.5713 LOAST -0.2218
-4.5713 LOAWFNG -0.2218
-4.5713 LOAWN -0.2218
-4.5713 LOAWNG -0.2218
-4.5713 LOAWST -0.2218
-4.5713 LOAXNG -0.2218
-4.5713 LOAY -0.2218
-4.5713 LOE -0.2218
-4.5713 LOEF -0.2218
-4.5713 LOEJT -0.2218
-4.5713 LOEST -0.2218
-4.5713 LOF -0.2218
-4.5713 LOFI -0.2218
-4.5713 LOFM -0.2218
-4.5713 LOFN -0.2218
-4.5713 LOFNG -0.2218
-4.5713 LOI -0.2218
-4.5713 LOJ -0.2218
-4.5713 LOJC -0.2218
-4.5713 LOJI -0.2218
-4.5713 LOJM -0.2218
-4.5713 LOJN -0.2218
-4.5713 LOJNG -0.2218
-4.5713 LOJT -0.2218
-4.5713 LOM -0.2218
-4.5713 LON -0.2218
-4.5713 LONG -0.2218
-4.5713 LOO -0.2218
-4.5713 LOOF -0.2218
-4.5713 LOOFI -0.2218
-4.5713 LOOFM -0.2218
-4.5713 LOOFN -0.2218
-4.5713 LOOFNG -0.2218
-4.5713 LOOI -0.2218
-4.5713 LOOJ -0.2218
-4.5713 LOOJC -0.2218
-4.5713 LOOJI -0.2218
-4.5713 LOOJM -0.2218
-4.5713 LOOJN -0.2218
-4.5713 LOOJNG -0.2218
-4.5713 LOOJP -0.2218
-4.5713 LOOJT -0.2218
-4.5713 LOOM -0.2218
-4.5713 LOON -0.2218
-4.5713 LOONG -0.2218
-4.5713 LOOR -0.2218
-4.5713 LOORM -0.2218
-4.5713 LOORN -0.2218
-4.5713 LOORNG -0.2218
-4.5713 LOOS -0.2218
-4.5713 LOOSC -0.2218
-4.5713 LOOSI -0.2218
-4.5713 LOOSM -0.2218
-4.5713 LOOSN -0.2218
-4.5713 LOOSP -0.2218
-4.5713 LOOST -0.2218
-4.5713 LOOX -0.2218
-4.5713 LOOXI -0.2218
-4.5713 LORA -0.2218
-4.5713 LORI -0.2218
-4.5713 LORM -0.2218
-4.5713 LORN -0.2218
-4.5713 LORNG -0.2218
-4.5713 LOS -0.2218
-4.5713 LOSA -0.2218
-4.5713 LOSC -0.2218
-4.5713 LOSE -0.2218
-4.5713 LOSI -0.2218
-4.5713 LOSM -0.2218
-4.5713 LOSNG -0.2218
-4.5713 LOSP -0.2218
-4.5713 LOST -0.2218
-4.5713 LOW -0.2218
-4.5713 LOWF -0.2218
-4.5713 LOWFI -0.2218
-4.5713 LOWFM -0.2218
-4.5713 LOWFN -0.2218
-4.5713 LOWI -0.2218
-4.5713 LOWJ -0.2218
-4.5713 LOWJI -0.2218
-4.5713 LOWJM -0.2218
-4.5713 LOWJN -0.2218
-4.5713 LOWJP -0.2218
-4.5713 LOWJT -0.2218
-4.5713 LOWN -0.2218
-4.5713 LOWNG -0.2218
-4.5713 LOWR -0.2218
-4.5713 LOWRM -0.2218
-4.5713 LOWRN -0.2218
-4.5713 LOWS -0.2218
-4.5713 LOWSI -0.2218
-4.5713 LOWSN -0.2218
-4.5713 LOWSP -0.2218
-4.5713 LOWST -0.2218
-4.5713 LOWX -0.2218
-4.5713 LOWXI -0.2218
-4.5713 LOWXM -0.2218
-4.5713 LOX -0.2218
-4.5713 LOXA -0.2218
-4.5713 LOXI -0.2218
-4.5713 LOXM -0.2218
-4.5713 LOXNG -0.2218
-4.5713 LU -0.2218
-4.5713 LUAAJN -0.2218
-4.5713 LUAAJT -0.2218
-4.5713 LUAAN -0.2218
-4.5713 LUAARN -0.2218
-4.5713 LUAASN -0.2218
-4.5713 LUF -0.2218
-4.5713 LUFA -0.2218
-4.5713 LUFI -0.2218
-4.5713 LUFM -0.2218
-4.5713 LUFN -0.2218
-4.5713 LUFNG -0.2218
-4.5713 LUI -0.2218
-4.5713 LUJ -0.2218
-4.5713 LUJA -0.2218
-4.5713 LUJC -0.2218
-4.5713 LUJI -0.2218
-4.5713 LUJN -0.2218
-4.5713 LUJNG -0.2218
-4.5713 LUJP -0.2218
-4.5713 LUJT -0.2218
-4.5713 LUM -0.2218
-4.5713 LUNG -0.2218
-4.5713 LUOOFN -0.2218
-4.5713 LUOOFNG -0.2218
-4.5713 LUOOJC -0.2218
-4.5713 LUOOJM -0.2218
-4.5713 LUOOM -0.2218
-4.5713 LUOON -0.2218
-4.5713 LUOONG -0.2218
-4.5713 LUOOSC -0.2218
-4.5713 LUOOSNG -0.2218
-4.5713 LUOOXNG -0.2218
-4.5713 LUR -0.2218
-4.5713 LURI -0.2218
-4.5713 LURM -0.2218
-4.5713 LURN -0.2218
-4.5713 LURNG -0.2218
-4.5713 LUS -0.2218
-4.5713 LUSA -0.2218
-4.5713 LUSC -0.2218
-4.5713 LUSI -0.2218
-4.5713 LUSM -0.2218
-4.5713 LUSN -0.2218
-4.5713 LUSNG -0.2218
-4.5713 LUSP -0.2218
-4.5713 LUST -0.2218
-4.5713 LUW -0.2218
-4.5713 LUWA -0.2218
-4.5713 LUWF -0.2218
-4.5713 LUWFA -0.2218
-4.5713 LUWFNG -0.2218
-4.5713 LUWJ -0.2218
-4.5713 LUWJA -0.2218
-4.5713 LUWJC -0.2218
-4.5713 LUWJNG -0.2218
-4.5713 LUWJU -0.2218
-4.5713 LUWNG -0.2218
-4.5713 LUWOWFI -0.2218
-4.5713 LUWOWFM -0.2218
-4.5713 LUWOWFN -0.2218
-4.5713 LUWOWFNG -0.2218
-4.5713 LUWOWJC -0.2218
-4.5713 LUWOWJM -0.2218
-4.5713 LUWOWJN -0.2218
-4.5713 LUWOWJNG -0.2218
-4.5713 LUWOWJT -0.2218
-4.5713 LUWOWM -0.2218
-4.5713 LUWOWN -0.2218
-4.5713 LUWOWNG -0.2218
-4.5713 LUWOWSI -0.2218
-4.5713 LUWOWST -0.2218
-4.5713 LUWOWXI -0.2218
-4.5713 LUWOWXNG -0.2218
-4.5713 LUWR -0.2218
-4.5713 LUWRA -0.2218
-4.5713 LUWRNG -0.2218
-4.5713 LUWSA -0.2218
-4.5713 LUWSC -0.2218
-4.5713 LUWU -0.2218
-4.5713 LUWX -0.2218
-4.5713 LUWXA -0.2218
-4.5713 LUWXNG -0.2218
-4.5713 LUX -0.2218
-4.5713 LUXA -0.2218
-4.5713 LUXM -0.2218
-4.5713 LUXN -0.2218
-4.5713 LUXNG -0.2218
-4.5713 LUXY -0.2218
-4.5713 LUYEEJN -0.2218
-4.5713 LUYEESN -0.2218
-4.5713 LUYJ -0.2218
-4.5713 LUYS -0.2218
-4.5713 LUYX -0.2218
-4.5713 LY -0.2218
-4.5713 LYJ -0.2218
-4.5713 LYS -0.2218
-4.5713 LYX -0.2218
-4.5713 MA -0.2218
-4.5713 MAAFM -0.2218
-4.5713 MAAFN -0.2218
-4.5713 MAAFNG -0.2218
-4.5713 MAAFU -0.2218
-4.5713 MAAJN -0.2218
-4.5713 MAAJP -0.2218
-4.5713 MAAJT -0.2218
-4.5713 MAAJU -0.2218
-4.5713 MAAM -0.2218
-4.5713 MAAN -0.2218
-4.5713 MAANG -0.2218
-4.5713 MAARM -0.2218
-4.5713 MAARN -0.2218
-4.5713 MAARU -0.2218
-4.5713 MAARY -0.2218
-4.5713 MAASM -0.2218
-4.5713 MAASN -0.2218
-4.5713 MAASP -0.2218
-4.5713 MAAST -0.2218
-4.5713 MAASU -0.2218
-4.5713 MAASY -0.2218
-4.5713 MAAU -0.2218
-4.5713 MAAXM -0.2218
-4.5713 MAAXN -0.2218
-4.5713 MAAXU -0.2218
-4.5713 MAAY -0.2218
-4.5713 MAF -0.2218
-4.5713 MAFI -0.2218
-4.5713 MAFN -0.2218
-4.5713 MAFNG -0.2218
-4.5713 MAFNH -0.2218
-4.5713 MAFO -0.2218
-4.5713 MAFU -0.2218
-4.5713 MAFY -0.2218
-4.5713 MAI -0.2218
-4.5713 MAJ -0.2218
-4.5713 MAJC -0.2218
-4.5713 MAJCH -0.2218
-4.5713 MAJI -0.2218
-4.5713 MAJN -0.2218
-4.5713 MAJNG -0.2218
-4.5713 MAJNH -0.2218
-4.5713 MAJO -0.2218
-4.5713 MAJP -0.2218
-4.5713 MAJT -0.2218
-4.5713 MAJY -0.2218
-4.5713 MAN -0.2218
-4.5713 MANG -0.2218
-4.5713 MANH -0.2218
-4.5713 MAO -0.2218
-4.5713 MAR -0.2218
-4.5713 MARI -0.2218
-4.5713 MARNG -0.2218
-4.5713 MARNH -0.2218
-4.5713 MARY -0.2218
-4.5713 MAS -0.2218
-4.5713 MASC -0.2218
-4.5713 MASCH -0.2218
-4.5713 MASI -0.2218
-4.5713 MASN -0.2218
-4.5713 MASNG -0.2218
-4.5713 MASNH -0.2218
-4.5713 MASO -0.2218
-4.5713 MAST -0.2218
-4.5713 MASU -0.2218
-4.5713 MASY -0.2218
-4.5713 MAU -0.2218
-4.5713 MAWFN -0.2218
-4.5713 MAWJC -0.2218
-4.5713 MAWJN -0.2218
-4.5713 MAWJT -0.2218
-4.5713 MAWM -0.2218
-4.5713 MAWNG -0.2218
-4.5713 MAWRN -0.2218
-4.5713 MAWSC -0.2218
-4.5713 MAWSM -0.2218
-4.5713 MAWSN -0.2218
-4.5713 MAWSNG -0.2218
-4.5713 MAWST -0.2218
-4.5713 MAX -0.2218
-4.5713 MAXI -0.2218
-4.5713 MAXN -0.2218
-4.5713 MAXNG -0.2218
-4.5713 MAXNH -0.2218
-4.5713 MAXO -0.2218
-4.5713 MAY -0.2218
-4.5713 ME -0.2218
-4.5713 MEE -0.2218
-4.5713 MEEF -0.2218
-4.5713 MEEFM -0.2218
-4.5713 MEEFN -0.2218
-4.5713 MEEJ -0.2218
-4.5713 MEEJNH -0.2218
-4.5713 MEEJT -0.2218
-4.5713 MEENH -0.2218
-4.5713 MEES -0.2218
-4.5713 MEESCH -0.2218
-4.5713 MEESN -0.2218
-4.5713 MEESU -0.2218
-4.5713 MEEX -0.2218
-4.5713 MEF -0.2218
-4.5713 MEFM -0.2218
-4.5713 MEFN -0.2218
-4.5713 MEFNG -0.2218
-4.5713 MEFO -0.2218
-4.5713 MEJ -0.2218
-4.5713 MEJO -0.2218
-4.5713 MEJP -0.2218
-4.5713 MEJT -0.2218
-4.5713 MEM -0.2218
-4.5713 MEN -0.2218
-4.5713 MEO -0.2218
-4.5713 MER -0.2218
-4.5713 MERO -0.2218
-4.5713 MES -0.2218
-4.5713 MESM -0.2218
-4.5713 MESN -0.2218
-4.5713 MESO -0.2218
-4.5713 MESP -0.2218
-4.5713 MEST -0.2218
-4.5713 MEX -0.2218
-4.5713 MEXO -0.2218
-4.5713 MI -0.2218
-4.5713 MIEEFN -0.2218
-4.5713 MIEEFU -0.2218
-4.5713 MIEEJN -0.2218
-4.5713 MIEEJNG -0.2218
-4.5713 MIEEJT -0.2218
-4.5713 MIEEN -0.2218
-4.5713 MIEENG -0.2218
-4.5713 MIEESN -0.2218
-4.5713 MIEESNG -0.2218
-4.5713 MIEEST -0.2218
-4.5713 MIEESU -0.2218
-4.5713 MIEEU -0.2218
-4.5713 MIEEXN -0.2218
-4.5713 MIEEXU -0.2218
-4.5713 MIF -0.2218
-4.5713 MIFN -0.2218
-4.5713 MIFNH -0.2218
-4.5713 MIFU -0.2218
-4.5713 MIJ -0.2218
-4.5713 MIJCH -0.2218
-4.5713 MIJN -0.2218
-4.5713 MIJT -0.2218
-4.5713 MIN -0.2218
-4.5713 MINH -0.2218
-4.5713 MIR -0.2218
-4.5713 MIRA -0.2218
-4.5713 MIRM -0.2218
-4.5713 MIS -0.2218
-4.5713 MISA -0.2218
-4.5713 MISCH -0.2218
-4.5713 MISM -0.2218
-4.5713 MISP -0.2218
-4.5713 MIST -0.2218
-4.5713 MISU -0.2218
-4.5713 MIU -0.2218
-4.5713 MIXM -0.2218
-4.5713 MO -0.2218
-4.5713 MOAY -0.2218
-4.5713 MOF -0.2218
-4.5713 MOFI -0.2218
-4.5713 MOFN -0.2218
-4.5713 MOFNG -0.2218
-4.5713 MOI -0.2218
-4.5713 MOJ -0.2218
-4.5713 MOJC -0.2218
-4.5713 MOJI -0.2218
-4.5713 MOJN -0.2218
-4.5713 MOJNG -0.2218
-4.5713 MOJT -0.2218
-4.5713 MOM -0.2218
-4.5713 MON -0.2218
-4.5713 MONG -0.2218
-4.5713 MOO -0.2218
-4.5713 MOOF -0.2218
-4.5713 MOOFI -0.2218
-4.5713 MOOFM -0.2218
-4.5713 MOOFNG -0.2218
-4.5713 MOOI -0.2218
-4.5713 MOOJ -0.2218
-4.5713 MOOJC -0.2218
-4.5713 MOOJI -0.2218
-4.5713 MOOJNG -0.2218
-4.5713 MOOJT -0.2218
-4.5713 MOOM -0.2218
-4.5713 MOON -0.2218
-4.5713 MOONG -0.2218
-4.5713 MOOR -0.2218
-4.5713 MOORNG -0.2218
-4.5713 MOOS -0.2218
-4.5713 MOOSC -0.2218
-4.5713 MOOSI -0.2218
-4.5713 MOOSNG -0.2218
-4.5713 MOOST -0.2218
-4.5713 MOOX -0.2218
-4.5713 MOOXI -0.2218
-4.5713 MOR -0.2218
-4.5713 MORI -0.2218
-4.5713 MORM -0.2218
-4.5713 MORNG -0.2218
-4.5713 MOS -0.2218
-4.5713 MOSC -0.2218
-4.5713 MOSI -0.2218
-4.5713 MOSM -0.2218
-4.5713 MOSN -0.2218
-4.5713 MOSNG -0.2218
-4.5713 MOSP -0.2218
-4.5713 MOST -0.2218
-4.5713 MOW -0.2218
-4.5713 MOWF -0.2218
-4.5713 MOWFI -0.2218
-4.5713 MOWFM -0.2218
-4.5713 MOWJ -0.2218
-4.5713 MOWN -0.2218
-4.5713 MOWR -0.2218
-4.5713 MOWRN -0.2218
-4.5713 MOWS -0.2218
-4.5713 MOWSI -0.2218
-4.5713 MOWSM -0.2218
-4.5713 MOWSN -0.2218
-4.5713 MOWSP -0.2218
-4.5713 MOWX -0.2218
-4.5713 MOX -0.2218
-4.5713 MOXM -0.2218
-4.5713 MU -0.2218
-4.5713 MUA -0.2218
-4.5713 MUF -0.2218
-4.5713 MUFA -0.2218
-4.5713 MUFI -0.2218
-4.5713 MUFN -0.2218
-4.5713 MUFNG -0.2218
-4.5713 MUI -0.2218
-4.5713 MUJ -0.2218
-4.5713 MUJC -0.2218
-4.5713 MUJI -0.2218
-4.5713 MUJN -0.2218
-4.5713 MUJP -0.2218
-4.5713 MUJT -0.2218
-4.5713 MUM -0.2218
-4.5713 MUN -0.2218
-4.5713 MUNG -0.2218
-4.5713 MUOOFNG -0.2218
-4.5713 MUOOI -0.2218
-4.5713 MUOOJI -0.2218
-4.5713 MUOOJN -0.2218
-4.5713 MUOON -0.2218
-4.5713 MUOONG -0.2218
-4.5713 MUOOSI -0.2218
-4.5713 MUOOSN -0.2218
-4.5713 MUOOSNG -0.2218
-4.5713 MUOOST -0.2218
-4.5713 MUOOXI -0.2218
-4.5713 MUOOXM -0.2218
-4.5713 MUOOXNG -0.2218
-4.5713 MUR -0.2218
-4.5713 MURI -0.2218
-4.5713 MURM -0.2218
-4.5713 MURN -0.2218
-4.5713 MURNG -0.2218
-4.5713 MUS -0.2218
-4.5713 MUSA -0.2218
-4.5713 MUSC -0.2218
-4.5713 MUSI -0.2218
-4.5713 MUSM -0.2218
-4.5713 MUSP -0.2218
-4.5713 MUST -0.2218
-4.5713 MUWA -0.2218
-4.5713 MUWFNG -0.2218
-4.5713 MUWJA -0.2218
-4.5713 MUWJC -0.2218
-4.5713 MUWNG -0.2218
-4.5713 MUWOWFI -0.2218
-4.5713 MUWOWFNG -0.2218
-4.5713 MUWOWI -0.2218
-4.5713 MUWOWJN -0.2218
-4.5713 MUWOWJT -0.2218
-4.5713 MUWOWN -0.2218
-4.5713 MUWOWNG -0.2218
-4.5713 MUWOWSN -0.2218
-4.5713 MUWOWSP -0.2218
-4.5713 MUWOWST -0.2218
-4.5713 MUWOWXU -0.2218
-4.5713 MUWRA -0.2218
-4.5713 MUWSA -0.2218
-4.5713 MUWSC -0.2218
-4.5713 MUWSN -0.2218
-4.5713 MUWST -0.2218
-4.5713 MUWU -0.2218
-4.5713 MUX -0.2218
-4.5713 MUXI -0.2218
-4.5713 MUXM -0.2218
-4.5713 MY -0.2218
-4.5713 MYX -0.2218
-4.5713 NA -0.2218
-4.5713 NAAFM -0.2218
-4.5713 NAAFN -0.2218
-4.5713 NAAFY -0.2218
-4.5713 NAAJM -0.2218
-4.5713 NAAJNG -0.2218
-4.5713 NAAJP -0.2218
-4.5713 NAAJU -0.2218
-4.5713 NAAM -0.2218
-4.5713 NAANG -0.2218
-4.5713 NAARY -0.2218
-4.5713 NAASC -0.2218
-4.5713 NAASM -0.2218
-4.5713 NAASN -0.2218
-4.5713 NAASNG -0.2218
-4.5713 NAASP -0.2218
-4.5713 NAASU -0.2218
-4.5713 NAASY -0.2218
-4.5713 NAAU -0.2218
-4.5713 NAAXM -0.2218
-4.5713 NAAXNG -0.2218
-4.5713 NAAXU -0.2218
-4.5713 NAAXY -0.2218
-4.5713 NAAY -0.2218
-4.5713 NAF -0.2218
-4.5713 NAFI -0.2218
-4.5713 NAFN -0.2218
-4.5713 NAFNG -0.2218
-4.5713 NAFNH -0.2218
-4.5713 NAFO -0.2218
-4.5713 NAFY -0.2218
-4.5713 NAI -0.2218
-4.5713 NAJ -0.2218
-4.5713 NAJC -0.2218
-4.5713 NAJI -0.2218
-4.5713 NAJM -0.2218
-4.5713 NAJN -0.2218
-4.5713 NAJNG -0.2218
-4.5713 NAJNH -0.2218
-4.5713 NAJO -0.2218
-4.5713 NAJP -0.2218
-4.5713 NAJT -0.2218
-4.5713 NAJY -0.2218
-4.5713 NAM -0.2218
-4.5713 NAN -0.2218
-4.5713 NANG -0.2218
-4.5713 NANH -0.2218
-4.5713 NAO -0.2218
-4.5713 NAR -0.2218
-4.5713 NARI -0.2218
-4.5713 NARN -0.2218
-4.5713 NARY -0.2218
-4.5713 NAS -0.2218
-4.5713 NASC -0.2218
-4.5713 NASCH -0.2218
-4.5713 NASI -0.2218
-4.5713 NASM -0.2218
-4.5713 NASN -0.2218
-4.5713 NASNH -0.2218
-4.5713 NASO -0.2218
-4.5713 NAST -0.2218
-4.5713 NASU -0.2218
-4.5713 NASY -0.2218
-4.5713 NAU -0.2218
-4.5713 NAWFM -0.2218
-4.5713 NAWFN -0.2218
-4.5713 NAWFNG -0.2218
-4.5713 NAWJC -0.2218
-4.5713 NAWJN -0.2218
-4.5713 NAWJNG -0.2218
-4.5713 NAWM -0.2218
-4.5713 NAWN -0.2218
-4.5713 NAWNG -0.2218
-4.5713 NAWRM -0.2218
-4.5713 NAWSC -0.2218
-4.5713 NAWSM -0.2218
-4.5713 NAWSN -0.2218
-4.5713 NAWSNG -0.2218
-4.5713 NAWSP -0.2218
-4.5713 NAWXNG -0.2218
-4.5713 NAX -0.2218
-4.5713 NAXO -0.2218
-4.5713 NAXY -0.2218
-4.5713 NAY -0.2218
-4.5713 NE -0.2218
-4.5713 NEE -0.2218
-4.5713 NEEF -0.2218
-4.5713 NEEFN -0.2218
-4.5713 NEEJ -0.2218
-4.5713 NEEJM -0.2218
-4.5713 NEEJN -0.2218
-4.5713 NEEM -0.2218
-4.5713 NEEN -0.2218
-4.5713 NEER -0.2218
-4.5713 NEESM -0.2218
-4.5713 NEESN -0.2218
-4.5713 NEESP -0.2218
-4.5713 NEEST -0.2218
-4.5713 NEESU -0.2218
-4.5713 NEEU -0.2218
-4.5713 NEF -0.2218
-4.5713 NEFO -0.2218
-4.5713 NEJP -0.2218
-4.5713 NEJT -0.2218
-4.5713 NEM -0.2218
-4.5713 NEO -0.2218
-4.5713 NER -0.2218
-4.5713 NERO -0.2218
-4.5713 NES -0.2218
-4.5713 NESM -0.2218
-4.5713 NESN -0.2218
-4.5713 NESO -0.2218
-4.5713 NESP -0.2218
-4.5713 NEST -0.2218
-4.5713 NGA -0.2218
-4.5713 NGAAFM -0.2218
-4.5713 NGAAFN -0.2218
-4.5713 NGAAFU -0.2218
-4.5713 NGAAFY -0.2218
-4.5713 NGAAJM -0.2218
-4.5713 NGAAJN -0.2218
-4.5713 NGAAJP -0.2218
-4.5713 NGAAJU -0.2218
-4.5713 NGAAJY -0.2218
-4.5713 NGAAM -0.2218
-4.5713 NGAAN -0.2218
-4.5713 NGAARM -0.2218
-4.5713 NGAARN -0.2218
-4.5713 NGAARNG -0.2218
-4.5713 NGAASC -0.2218
-4.5713 NGAASM -0.2218
-4.5713 NGAASN -0.2218
-4.5713 NGAASP -0.2218
-4.5713 NGAAST -0.2218
-4.5713 NGAASU -0.2218
-4.5713 NGAASY -0.2218
-4.5713 NGAAU -0.2218
-4.5713 NGAAXM -0.2218
-4.5713 NGAAXU -0.2218
-4.5713 NGAAY -0.2218
-4.5713 NGAF -0.2218
-4.5713 NGAFI -0.2218
-4.5713 NGAFM -0.2218
-4.5713 NGAFN -0.2218
-4.5713 NGAFNG -0.2218
-4.5713 NGAFNH -0.2218
-4.5713 NGAFO -0.2218
-4.5713 NGAFY -0.2218
-4.5713 NGAI -0.2218
-4.5713 NGAJC -0.2218
-4.5713 NGAJCH -0.2218
-4.5713 NGAJI -0.2218
-4.5713 NGAJN -0.2218
-4.5713 NGAJNH -0.2218
-4.5713 NGAJO -0.2218
-4.5713 NGAJT -0.2218
-4.5713 NGAM -0.2218
-4.5713 NGAN -0.2218
-4.5713 NGANG -0.2218
-4.5713 NGAO -0.2218
-4.5713 NGAR -0.2218
-4.5713 NGARI -0.2218
-4.5713 NGARNH -0.2218
-4.5713 NGARO -0.2218
-4.5713 NGASC -0.2218
-4.5713 NGASCH -0.2218
-4.5713 NGASI -0.2218
-4.5713 NGASM -0.2218
-4.5713 NGASN -0.2218
-4.5713 NGASNG -0.2218
-4.5713 NGASO -0.2218
-4.5713 NGASP -0.2218
-4.5713 NGAST -0.2218
-4.5713 NGASU -0.2218
-4.5713 NGASY -0.2218
-4.5713 NGAU -0.2218
-4.5713 NGAWFN -0.2218
-4.5713 NGAWJT -0.2218
-4.5713 NGAWM -0.2218
-4.5713 NGAWN -0.2218
-4.5713 NGAWRNG -0.2218
-4.5713 NGAWSC -0.2218
-4.5713 NGAWSM -0.2218
-4.5713 NGAWSN -0.2218
-4.5713 NGAWST -0.2218
-4.5713 NGAWXNG -0.2218
-4.5713 NGAX -0.2218
-4.5713 NGAXI -0.2218
-4.5713 NGAXNG -0.2218
-4.5713 NGAY -0.2218
-4.5713 NGHE -0.2218
-4.5713 NGHEE -0.2218
-4.5713 NGHEEF -0.2218
-4.5713 NGHEEFU -0.2218
-4.5713 NGHEEJ -0.2218
-4.5713 NGHEEJCH -0.2218
-4.5713 NGHEEJN -0.2218
-4.5713 NGHEENH -0.2218
-4.5713 NGHEER -0.2218
-4.5713 NGHEERN -0.2218
-4.5713 NGHEERNH -0.2218
-4.5713 NGHEERU -0.2218
-4.5713 NGHEESCH -0.2218
-4.5713 NGHEEU -0.2218
-4.5713 NGHEEX -0.2218
-4.5713 NGHEEXNH -0.2218
-4.5713 NGHEEXU -0.2218
-4.5713 NGHEF -0.2218
-4.5713 NGHEFO -0.2218
-4.5713 NGHEJ -0.2218
-4.5713 NGHEJN -0.2218
-4.5713 NGHEJO -0.2218
-4.5713 NGHEJT -0.2218
-4.5713 NGHERO -0.2218
-4.5713 NGHES -0.2218
-4.5713 NGHESN -0.2218
-4.5713 NGHEXN -0.2218
-4.5713 NGHEXO -0.2218
-4.5713 NGHI -0.2218
-4.5713 NGHIEEFN -0.2218
-4.5713 NGHIEEJM -0.2218
-4.5713 NGHIEEJN -0.2218
-4.5713 NGHIEEJP -0.2218
-4.5713 NGHIEEJT -0.2218
-4.5713 NGHIEEM -0.2218
-4.5713 NGHIEEN -0.2218
-4.5713 NGHIEENG -0.2218
-4.5713 NGHIEESN -0.2218
-4.5713 NGHIEEU -0.2218
-4.5713 NGHIEEXM -0.2218
-4.5713 NGHIF -0.2218
-4.5713 NGHIFN -0.2218
-4.5713 NGHIJ -0.2218
-4.5713 NGHIJCH -0.2218
-4.5713 NGHIJT -0.2218
-4.5713 NGHIJU -0.2218
-4.5713 NGHINH -0.2218
-4.5713 NGHIR -0.2218
-4.5713 NGHIRNH -0.2218
-4.5713 NGHIS -0.2218
-4.5713 NGHISA -0.2218
-4.5713 NGHIU -0.2218
-4.5713 NGHIX -0.2218
-4.5713 NGHIXA -0.2218
-4.5713 NGHIXNH -0.2218
-4.5713 NGO -0.2218
-4.5713 NGOA -0.2218
-4.5713 NGOAFI -0.2218
-4.5713 NGOAFM -0.2218
-4.5713 NGOAJC -0.2218
-4.5713 NGOAJCH -0.2218
-4.5713 NGOAJI -0.2218
-4.5713 NGOAJM -0.2218
-4.5713 NGOAJN -0.2218
-4.5713 NGOAJY -0.2218
-4.5713 NGOAM -0.2218
-4.5713 NGOAN -0.2218
-4.5713 NGOANG -0.2218
-4.5713 NGOAO -0.2218
-4.5713 NGOARI -0.2218
-4.5713 NGOARNG -0.2218
-4.5713 NGOARNH -0.2218
-4.5713 NGOARY -0.2218
-4.5713 NGOASC -0.2218
-4.5713 NGOASI -0.2218
-4.5713 NGOASO -0.2218
-4.5713 NGOASP -0.2218
-4.5713 NGOASY -0.2218
-4.5713 NGOAWFN -0.2218
-4.5713 NGOAWFNG -0.2218
-4.5713 NGOAWJC -0.2218
-4.5713 NGOAWJT -0.2218
-4.5713 NGOAWRN -0.2218
-4.5713 NGOAWSC -0.2218
-4.5713 NGOAWST -0.2218
-4.5713 NGOAXN -0.2218
-4.5713 NGOAY -0.2218
-4.5713 NGOE -0.2218
-4.5713 NGOEFO -0.2218
-4.5713 NGOEJO -0.2218
-4.5713 NGOEM -0.2218
-4.5713 NGOEN -0.2218
-4.5713 NGOEO -0.2218
-4.5713 NGOERM -0.2218
-4.5713 NGOERN -0.2218
-4.5713 NGOERO -0.2218
-4.5713 NGOES -0.2218
-4.5713 NGOESM -0.2218
-4.5713 NGOESO -0.2218
-4.5713 NGOEST -0.2218
-4.5713 NGOF -0.2218
-4.5713 NGOFI -0.2218
-4.5713 NGOFN -0.2218
-4.5713 NGOFNG -0.2218
-4.5713 NGOI -0.2218
-4.5713 NGOJ -0.2218
-4.5713 NGOJA -0.2218
-4.5713 NGOJC -0.2218
-4.5713 NGOJN -0.2218
-4.5713 NGOJNG -0.2218
-4.5713 NGOJT -0.2218
-4.5713 NGON -0.2218
-4.5713 NGONG -0.2218
-4.5713 NGOO -0.2218
-4.5713 NGOOF -0.2218
-4.5713 NGOOFI -0.2218
-4.5713 NGOOFM -0.2218
-4.5713 NGOOFN -0.2218
-4.5713 NGOOFNG -0.2218
-4.5713 NGOOI -0.2218
-4.5713 NGOOJ -0.2218
-4.5713 NGOOJC -0.2218
-4.5713 NGOOJN -0.2218
-4.5713 NGOOJT -0.2218
-4.5713 NGOON -0.2218
-4.5713 NGOONG -0.2218
-4.5713 NGOOR -0.2218
-4.5713 NGOORM -0.2218
-4.5713 NGOORN -0.2218
-4.5713 NGOOS -0.2218
-4.5713 NGOOSC -0.2218
-4.5713 NGOOSN -0.2218
-4.5713 NGOOST -0.2218
-4.5713 NGOOX -0.2218
-4.5713 NGOOXNG -0.2218
-4.5713 NGOR -0.2218
-4.5713 NGORM -0.2218
-4.5713 NGORNG -0.2218
-4.5713 NGOS -0.2218
-4.5713 NGOSC -0.2218
-4.5713 NGOSI -0.2218
-4.5713 NGOSM -0.2218
-4.5713 NGOSN -0.2218
-4.5713 NGOSNG -0.2218
-4.5713 NGOSP -0.2218
-4.5713 NGOST -0.2218
-4.5713 NGOW -0.2218
-4.5713 NGOWF -0.2218
-4.5713 NGOWFI -0.2218
-4.5713 NGOWI -0.2218
-4.5713 NGOWJ -0.2218
-4.5713 NGOWJI -0.2218
-4.5713 NGOWJM -0.2218
-4.5713 NGOWJP -0.2218
-4.5713 NGOWM -0.2218
-4.5713 NGOWN -0.2218
-4.5713 NGOWS -0.2218
-4.5713 NGOWSN -0.2218
-4.5713 NGOWSP -0.2218
-4.5713 NGOWST -0.2218
-4.5713 NGOWX -0.2218
-4.5713 NGOX -0.2218
-4.5713 NGOXA -0.2218
-4.5713 NGOXI -0.2218
-4.5713 NGOXNG -0.2218
-4.5713 NGU -0.2218
-4.5713 NGUAARY -0.2218
-4.5713 NGUAAY -0.2218
-4.5713 NGUEEJCH -0.2218
-4.5713 NGUEESCH -0.2218
-4.5713 NGUF -0.2218
-4.5713 NGUFI -0.2218
-4.5713 NGUFN -0.2218
-4.5713 NGUFNG -0.2218
-4.5713 NGUJ -0.2218
-4.5713 NGUJA -0.2218
-4.5713 NGUJC -0.2218
-4.5713 NGUJM -0.2218
-4.5713 NGUJP -0.2218
-4.5713 NGUJT -0.2218
-4.5713 NGUOOFI -0.2218
-4.5713 NGUOOFN -0.2218
-4.5713 NGUOOI -0.2218
-4.5713 NGUOOJI -0.2218
-4.5713 NGUR -0.2218
-4.5713 NGURI -0.2218
-4.5713 NGURM -0.2218
-4.5713 NGURN -0.2218
-4.5713 NGURNG -0.2218
-4.5713 NGUS -0.2218
-4.5713 NGUSC -0.2218
-4.5713 NGUSNG -0.2218
-4.5713 NGUST -0.2218
-4.5713 NGUW -0.2218
-4.5713 NGUWF -0.2218
-4.5713 NGUWFA -0.2218
-4.5713 NGUWFNG -0.2218
-4.5713 NGUWJ -0.2218
-4.5713 NGUWJA -0.2218
-4.5713 NGUWJC -0.2218
-4.5713 NGUWNG -0.2218
-4.5713 NGUWOWFI -0.2218
-4.5713 NGUWOWFNG -0.2218
-4.5713 NGUWOWI -0.2218
-4.5713 NGUWOWJC -0.2218
-4.5713 NGUWOWJNG -0.2218
-4.5713 NGUWOWN -0.2218
-4.5713 NGUWOWRNG -0.2218
-4.5713 NGUWOWSC -0.2218
-4.5713 NGUWOWXNG -0.2218
-4.5713 NGUWRA -0.2218
-4.5713 NGUWRI -0.2218
-4.5713 NGUWRNG -0.2218
-4.5713 NGUWS -0.2218
-4.5713 NGUWSA -0.2218
-4.5713 NGUWU -0.2218
-4.5713 NGUWX -0.2218
-4.5713 NGUX -0.2218
-4.5713 NGUY -0.2218
-4.5713 NGUYEEFN -0.2218
-4.5713 NGUYEEJN -0.2218
-4.5713 NGUYEEJT -0.2218
-4.5713 NGUYEEN -0.2218
-4.5713 NGUYEEXN -0.2218
-4.5713 NGUYJ -0.2218
-4.5713 NGUYRU -0.2218
-4.5713 NGUYST -0.2218
-4.5713 NHA -0.2218
-4.5713 NHAAFM -0.2218
-4.5713 NHAAFN -0.2218
-4.5713 NHAAFU -0.2218
-4.5713 NHAAFY -0.2218
-4.5713 NHAAJM -0.2218
-4.5713 NHAAJN -0.2218
-4.5713 NHAAJP -0.2218
-4.5713 NHAAJT -0.2218
-4.5713 NHAAJU -0.2218
-4.5713 NHAAJY -0.2218
-4.5713 NHAAM -0.2218
-4.5713 NHAAN -0.2218
-4.5713 NHAANG -0.2218
-4.5713 NHAARM -0.2218
-4.5713 NHAARN -0.2218
-4.5713 NHAASC -0.2218
-4.5713 NHAASM -0.2218
-4.5713 NHAASN -0.2218
-4.5713 NHAASP -0.2218
-4.5713 NHAAST -0.2218
-4.5713 NHAAU -0.2218
-4.5713 NHAAXN -0.2218
-4.5713 NHAAXY -0.2218
-4.5713 NHAAY -0.2218
-4.5713 NHAF -0.2218
-4.5713 NHAFI -0.2218
-4.5713 NHAFM -0.2218
-4.5713 NHAFN -0.2218
-4.5713 NHAFNG -0.2218
-4.5713 NHAFNH -0.2218
-4.5713 NHAFO -0.2218
-4.5713 NHAFU -0.2218
-4.5713 NHAI -0.2218
-4.5713 NHAJC -0.2218
-4.5713 NHAJI -0.2218
-4.5713 NHAJN -0.2218
-4.5713 NHAJNH -0.2218
-4.5713 NHAJO -0.2218
-4.5713 NHAJP -0.2218
-4.5713 NHAJT -0.2218
-4.5713 NHAJY -0.2218
-4.5713 NHAM -0.2218
-4.5713 NHAN -0.2218
-4.5713 NHANG -0.2218
-4.5713 NHANH -0.2218
-4.5713 NHAO -0.2218
-4.5713 NHAR -0.2218
-4.5713 NHARI -0.2218
-4.5713 NHARM -0.2218
-4.5713 NHARN -0.2218
-4.5713 NHARNH -0.2218
-4.5713 NHARU -0.2218
-4.5713 NHARY -0.2218
-4.5713 NHAS -0.2218
-4.5713 NHASC -0.2218
-4.5713 NHASCH -0.2218
-4.5713 NHASI -0.2218
-4.5713 NHASM -0.2218
-4.5713 NHASNG -0.2218
-4.5713 NHASNH -0.2218
-4.5713 NHASO -0.2218
-4.5713 NHASP -0.2218
-4.5713 NHAST -0.2218
-4.5713 NHASY -0.2218
-4.5713 NHAU -0.2218
-4.5713 NHAWFM -0.2218
-4.5713 NHAWFN -0.2218
-4.5713 NHAWFNG -0.2218
-4.5713 NHAWJM -0.2218
-4.5713 NHAWJN -0.2218
-4.5713 NHAWJNG -0.2218
-4.5713 NHAWJT -0.2218
-4.5713 NHAWM -0.2218
-4.5713 NHAWN -0.2218
-4.5713 NHAWNG -0.2218
-4.5713 NHAWRN -0.2218
-4.5713 NHAWRNG -0.2218
-4.5713 NHAWSC -0.2218
-4.5713 NHAWSM -0.2218
-4.5713 NHAWSN -0.2218
-4.5713 NHAWSNG -0.2218
-4.5713 NHAWSP -0.2218
-4.5713 NHAWST -0.2218
-4.5713 NHAWXN -0.2218
-4.5713 NHAWXNG -0.2218
-4.5713 NHAX -0.2218
-4.5713 NHAXI -0.2218
-4.5713 NHAXN -0.2218
-4.5713 NHAXNG -0.2218
-4.5713 NHAXO -0.2218
-4.5713 NHAY -0.2218
-4.5713 NHE -0.2218
-4.5713 NHEE -0.2218
-4.5713 NHEEJN -0.2218
-4.5713 NHEEJU -0.2218
-4.5713 NHEER -0.2218
-4.5713 NHEESCH -0.2218
-4.5713 NHEESU -0.2218
-4.5713 NHEEX -0.2218
-4.5713 NHEF -0.2218
-4.5713 NHEFM -0.2218
-4.5713 NHEFO -0.2218
-4.5713 NHEJ -0.2218
-4.5713 NHEJM -0.2218
-4.5713 NHEJN -0.2218
-4.5713 NHEJO -0.2218
-4.5713 NHEJP -0.2218
-4.5713 NHEJT -0.2218
-4.5713 NHEM -0.2218
-4.5713 NHEN -0.2218
-4.5713 NHEO -0.2218
-4.5713 NHER -0.2218
-4.5713 NHERM -0.2218
-4.5713 NHERO -0.2218
-4.5713 NHES -0.2218
-4.5713 NHESN -0.2218
-4.5713 NHESO -0.2218
-4.5713 NHESP -0.2218
-4.5713 NHEST -0.2218
-4.5713 NHEX -0.2218
-4.5713 NHEXO -0.2218
-4.5713 NHI -0.2218
-4.5713 NHIEEFU -0.2218
-4.5713 NHIEEJM -0.2218
-4.5713 NHIEEJT -0.2218
-4.5713 NHIEEN -0.2218
-4.5713 NHIEESC -0.2218
-4.5713 NHIEESP -0.2218
-4.5713 NHIEEU -0.2218
-4.5713 NHIEEXM -0.2218
-4.5713 NHIEEXN -0.2218
-4.5713 NHIEEXU -0.2218
-4.5713 NHIF -0.2218
-4.5713 NHIFN -0.2218
-4.5713 NHIFU -0.2218
-4.5713 NHIJ -0.2218
-4.5713 NHIJN -0.2218
-4.5713 NHIJP -0.2218
-4.5713 NHIJT -0.2218
-4.5713 NHIJU -0.2218
-4.5713 NHINH -0.2218
-4.5713 NHIR -0.2218
-4.5713 NHIRNH -0.2218
-4.5713 NHIS -0.2218
-4.5713 NHISCH -0.2218
-4.5713 NHISM -0.2218
-4.5713 NHISN -0.2218
-4.5713 NHISP -0.2218
-4.5713 NHIST -0.2218
-4.5713 NHISU -0.2218
-4.5713 NHIX -0.2218
-4.5713 NHO -0.2218
-4.5713 NHOAFI -0.2218
-4.5713 NHOAFM -0.2218
-4.5713 NHOAI -0.2218
-4.5713 NHOAJNG -0.2218
-4.5713 NHOANG -0.2218
-4.5713 NHOASNG -0.2218
-4.5713 NHOASY -0.2218
-4.5713 NHOAY -0.2218
-4.5713 NHOE -0.2218
-4.5713 NHOEF -0.2218
-4.5713 NHOEFN -0.2218
-4.5713 NHOEJT -0.2218
-4.5713 NHOEN -0.2218
-4.5713 NHOERN -0.2218
-4.5713 NHOES -0.2218
-4.5713 NHOEST -0.2218
-4.5713 NHOFA -0.2218
-4.5713 NHOFM -0.2218
-4.5713 NHOFNG -0.2218
-4.5713 NHOI -0.2218
-4.5713 NHOJ -0.2218
-4.5713 NHOJC -0.2218
-4.5713 NHOJN -0.2218
-4.5713 NHOJT -0.2218
-4.5713 NHOM -0.2218
-4.5713 NHON -0.2218
-4.5713 NHONG -0.2218
-4.5713 NHOO -0.2218
-4.5713 NHOOFI -0.2218
-4.5713 NHOOFM -0.2218
-4.5713 NHOOFNG -0.2218
-4.5713 NHOOI -0.2218
-4.5713 NHOOJN -0.2218
-4.5713 NHOOJNG -0.2218
-4.5713 NHOOJT -0.2218
-4.5713 NHOOM -0.2218
-4.5713 NHOON -0.2218
-4.5713 NHOONG -0.2218
-4.5713 NHOOR -0.2218
-4.5713 NHOORM -0.2218
-4.5713 NHOORN -0.2218
-4.5713 NHOOS -0.2218
-4.5713 NHOOSC -0.2218
-4.5713 NHOOSI -0.2218
-4.5713 NHOOSN -0.2218
-4.5713 NHOOST -0.2218
-4.5713 NHOR -0.2218
-4.5713 NHORM -0.2218
-4.5713 NHORN -0.2218
-4.5713 NHORNG -0.2218
-4.5713 NHOS -0.2218
-4.5713 NHOSA -0.2218
-4.5713 NHOSC -0.2218
-4.5713 NHOSI -0.2218
-4.5713 NHOSM -0.2218
-4.5713 NHOSN -0.2218
-4.5713 NHOSNG -0.2218
-4.5713 NHOSP -0.2218
-4.5713 NHOST -0.2218
-4.5713 NHOW -0.2218
-4.5713 NHOWF -0.2218
-4.5713 NHOWFI -0.2218
-4.5713 NHOWFN -0.2218
-4.5713 NHOWI -0.2218
-4.5713 NHOWJ -0.2218
-4.5713 NHOWJT -0.2218
-4.5713 NHOWM -0.2218
-4.5713 NHOWN -0.2218
-4.5713 NHOWR -0.2218
-4.5713 NHOWRI -0.2218
-4.5713 NHOWRN -0.2218
-4.5713 NHOWS -0.2218
-4.5713 NHOWSM -0.2218
-4.5713 NHOWSN -0.2218
-4.5713 NHOWSP -0.2218
-4.5713 NHOWST -0.2218
-4.5713 NHOWX -0.2218
-4.5713 NHOWXN -0.2218
-4.5713 NHOX -0.2218
-4.5713 NHOXM -0.2218
-4.5713 NHOXN -0.2218
-4.5713 NHOXNG -0.2218
-4.5713 NHU -0.2218
-4.5713 NHUAAFN -0.2218
-4.5713 NHUAAJN -0.2218
-4.5713 NHUEEJ -0.2218
-4.5713 NHUEES -0.2218
-4.5713 NHUFI -0.2218
-4.5713 NHUFN -0.2218
-4.5713 NHUFNG -0.2218
-4.5713 NHUI -0.2218
-4.5713 NHUJ -0.2218
-4.5713 NHUJA -0.2218
-4.5713 NHUJC -0.2218
-4.5713 NHUJI -0.2218
-4.5713 NHUJNG -0.2218
-4.5713 NHUJT -0.2218
-4.5713 NHUJY -0.2218
-4.5713 NHUM -0.2218
-4.5713 NHUNG -0.2218
-4.5713 NHUOOFN -0.2218
-4.5713 NHUOOJM -0.2218
-4.5713 NHUOOM -0.2218
-4.5713 NHUOOSC -0.2218
-4.5713 NHUOOSM -0.2218
-4.5713 NHUR -0.2218
-4.5713 NHURI -0.2218
-4.5713 NHURN -0.2218
-4.5713 NHURNG -0.2218
-4.5713 NHUS -0.2218
-4.5713 NHUSA -0.2218
-4.5713 NHUSC -0.2218
-4.5713 NHUSM -0.2218
-4.5713 NHUSN -0.2218
-4.5713 NHUSNG -0.2218
-4.5713 NHUST -0.2218
-4.5713 NHUW -0.2218
-4.5713 NHUWF -0.2218
-4.5713 NHUWJA -0.2218
-4.5713 NHUWJT -0.2218
-4.5713 NHUWNG -0.2218
-4.5713 NHUWOWFNG -0.2218
-4.5713 NHUWOWJC -0.2218
-4.5713 NHUWOWJNG -0.2218
-4.5713 NHUWOWNG -0.2218
-4.5713 NHUWOWXNG -0.2218
-4.5713 NHUWR -0.2218
-4.5713 NHUWS -0.2218
-4.5713 NHUWSC -0.2218
-4.5713 NHUWST -0.2218
-4.5713 NHUWX -0.2218
-4.5713 NHUWXNG -0.2218
-4.5713 NHUX -0.2218
-4.5713 NHUXN -0.2218
-4.5713 NHUXNG -0.2218
-4.5713 NHUYEEXN -0.2218
-4.5713 NI -0.2218
-4.5713 NIA -0.2218
-4.5713 NIEEFM -0.2218
-4.5713 NIEEFNG -0.2218
-4.5713 NIEEJM -0.2218
-4.5713 NIEEJT -0.2218
-4.5713 NIEEJU -0.2218
-4.5713 NIEEM -0.2218
-4.5713 NIEEN -0.2218
-4.5713 NIEEST -0.2218
-4.5713 NIEEU -0.2218
-4.5713 NIEEXNG -0.2218
-4.5713 NIF -0.2218
-4.5713 NIFNH -0.2218
-4.5713 NIJCH -0.2218
-4.5713 NIJNH -0.2218
-4.5713 NIJT -0.2218
-4.5713 NIJU -0.2218
-4.5713 NINH -0.2218
-4.5713 NIR -0.2218
-4.5713 NIS -0.2218
-4.5713 NISCH -0.2218
-4.5713 NISN -0.2218
-4.5713 NISNH -0.2218
-4.5713 NISP -0.2218
-4.5713 NIST -0.2218
-4.5713 NISU -0.2218
-4.5713 NIU -0.2218
-4.5713 NIXA -0.2218
-4.5713 NO -0.2218
-4.5713 NOAXN -0.2218
-4.5713 NOF -0.2218
-4.5713 NOFI -0.2218
-4.5713 NOFM -0.2218
-4.5713 NOFNG -0.2218
-4.5713 NOI -0.2218
-4.5713 NOJ -0.2218
-4.5713 NOJC -0.2218
-4.5713 NOJI -0.2218
-4.5713 NOJN -0.2218
-4.5713 NOJNG -0.2218
-4.5713 NOJT -0.2218
-4.5713 NOM -0.2218
-4.5713 NON -0.2218
-4.5713 NONG -0.2218
-4.5713 NOO -0.2218
-4.5713 NOOF -0.2218
-4.5713 NOOFI -0.2218
-4.5713 NOOFM -0.2218
-4.5713 NOOFNG -0.2218
-4.5713 NOOI -0.2218
-4.5713 NOOJ -0.2218
-4.5713 NOOJI -0.2218
-4.5713 NOOJM -0.2218
-4.5713 NOOJN -0.2218
-4.5713 NOOJP -0.2218
-4.5713 NOOM -0.2218
-4.5713 NOON -0.2218
-4.5713 NOONG -0.2218
-4.5713 NOOR -0.2218
-4.5713 NOORI -0.2218
-4.5713 NOOS -0.2218
-4.5713 NOOSC -0.2218
-4.5713 NOOSI -0.2218
-4.5713 NOOSNG -0.2218
-4.5713 NOOSP -0.2218
-4.5713 NOOST -0.2218
-4.5713 NOOX -0.2218
-4.5713 NOOXI -0.2218
-4.5713 NOOXNG -0.2218
-4.5713 NOR -0.2218
-4.5713 NORI -0.2218
-4.5713 NORM -0.2218
-4.5713 NOS -0.2218
-4.5713 NOSC -0.2218
-4.5713 NOSI -0.2218
-4.5713 NOSN -0.2218
-4.5713 NOSNG -0.2218
-4.5713 NOSP -0.2218
-4.5713 NOST -0.2218
-4.5713 NOW -0.2218
-4.5713 NOWI -0.2218
-4.5713 NOWJ -0.2218
-4.5713 NOWM -0.2218
-4.5713 NOWR -0.2218
-4.5713 NOWS -0.2218
-4.5713 NOWSI -0.2218
-4.5713 NOWSP -0.2218
-4.5713 NOWST -0.2218
-4.5713 NOWX -0.2218
-4.5713 NOWXM -0.2218
-4.5713 NOX -0.2218
-4.5713 NOXN -0.2218
-4.5713 NU -0.2218
-4.5713 NUA -0.2218
-4.5713 NUFI -0.2218
-4.5713 NUFNG -0.2218
-4.5713 NUJ -0.2218
-4.5713 NUJC -0.2218
-4.5713 NUM -0.2218
-4.5713 NUNG -0.2218
-4.5713 NUOOI -0.2218
-4.5713 NUOOJC -0.2218
-4.5713 NUOOJT -0.2218
-4.5713 NUOONG -0.2218
-4.5713 NUOOSI -0.2218
-4.5713 NUOOSM -0.2218
-4.5713 NUOOST -0.2218
-4.5713 NURA -0.2218
-4.5713 NUS -0.2218
-4.5713 NUSA -0.2218
-4.5713 NUSC -0.2218
-4.5713 NUSI -0.2218
-4.5713 NUSM -0.2218
-4.5713 NUSNG -0.2218
-4.5713 NUSP -0.2218
-4.5713 NUST -0.2218
-4.5713 NUW -0.2218
-4.5713 NUWA -0.2218
-4.5713 NUWFNG -0.2218
-4.5713 NUWJC -0.2218
-4.5713 NUWJNG -0.2218
-4.5713 NUWNG -0.2218
-4.5713 NUWOWFM -0.2218
-4.5713 NUWOWFNG -0.2218
-4.5713 NUWOWJP -0.2218
-4.5713 NUWOWNG -0.2218
-4.5713 NUWOWSC -0.2218
-4.5713 NUWOWSNG -0.2218
-4.5713 NUWRA -0.2218
-4.5713 NUWSA -0.2218
-4.5713 NUWSC -0.2218
-4.5713 NUWSNG -0.2218
-4.5713 NUWST -0.2218
-4.5713 NUWX -0.2218
-4.5713 NUWXA -0.2218
-4.5713 NUXNG -0.2218
-4.5713 OA -0.2218
-4.5713 OAFM -0.2218
-4.5713 OAFNH -0.2218
-4.5713 OAI -0.2218
-4.5713 OAJCH -0.2218
-4.5713 OAJP -0.2218
-4.5713 OAN -0.2218
-4.5713 OANG -0.2218
-4.5713 OANH -0.2218
-4.5713 OARI -0.2218
-4.5713 OARN -0.2218
-4.5713 OASC -0.2218
-4.5713 OASCH -0.2218
-4.5713 OASI -0.2218
-4.5713 OASN -0.2218
-4.5713 OAST -0.2218
-4.5713 OAWFN -0.2218
-4.5713 OAWJT -0.2218
-4.5713 OAWM -0.2218
-4.5713 OAWNG -0.2218
-4.5713 OAWRNG -0.2218
-4.5713 OAWST -0.2218
-4.5713 OE -0.2218
-4.5713 OER -0.2218
-4.5713 OES -0.2218
-4.5713 OFA -0.2218
-4.5713 OFI -0.2218
-4.5713 OFM -0.2218
-4.5713 OFNG -0.2218
-4.5713 OI -0.2218
-4.5713 OJC -0.2218
-4.5713 OJE -0.2218
-4.5713 OJI -0.2218
-4.5713 OJP -0.2218
-4.5713 OJT -0.2218
-4.5713 OM -0.2218
-4.5713 ONG -0.2218
-4.5713 OOFM -0.2218
-4.5713 OOFN -0.2218
-4.5713 OOFNG -0.2218
-4.5713 OOI -0.2218
-4.5713 OOJC -0.2218
-4.5713 OOJN -0.2218
-4.5713 OOJP -0.2218
-4.5713 OOM -0.2218
-4.5713 OON -0.2218
-4.5713 OONG -0.2218
-4.5713 OORI -0.2218
-4.5713 OORN -0.2218
-4.5713 OORNG -0.2218
-4.5713 OOSC -0.2218
-4.5713 OOSI -0.2218
-4.5713 OOSM -0.2218
-4.5713 OOSNG -0.2218
-4.5713 OOSP -0.2218
-4.5713 OOST -0.2218
-4.5713 ORI -0.2218
-4.5713 ORM -0.2218
-4.5713 ORN -0.2218
-4.5713 ORNG -0.2218
-4.5713 OSC -0.2218
-4.5713 OSI -0.2218
-4.5713 OSNG -0.2218
-4.5713 OSP -0.2218
-4.5713 OST -0.2218
-4.5713 OWFI -0.2218
-4.5713 OWI -0.2218
-4.5713 OWJT -0.2218
-4.5713 OWN -0.2218
-4.5713 OWSI -0.2218
-4.5713 OWSM -0.2218
-4.5713 OWSN -0.2218
-4.5713 OWST -0.2218
-4.5713 OWXM -0.2218
-4.5713 OXNG -0.2218
-4.5713 PA -0.2218
-4.5713 PAASC -0.2218
-4.5713 PAAU -0.2218
-4.5713 PAF -0.2218
-4.5713 PAFI -0.2218
-4.5713 PAFNG -0.2218
-4.5713 PAI -0.2218
-4.5713 PAJ -0.2218
-4.5713 PAN -0.2218
-4.5713 PANG -0.2218
-4.5713 PAR -0.2218
-4.5713 PASC -0.2218
-4.5713 PASN -0.2218
-4.5713 PAWFN -0.2218
-4.5713 PE -0.2218
-4.5713 PEE -0.2218
-4.5713 PEN -0.2218
-4.5713 PER -0.2218
-4.5713 PHA -0.2218
-4.5713 PHAAFM -0.2218
-4.5713 PHAAFN -0.2218
-4.5713 PHAAJN -0.2218
-4.5713 PHAAJP -0.2218
-4.5713 PHAAJT -0.2218
-4.5713 PHAAN -0.2218
-4.5713 PHAARM -0.2218
-4.5713 PHAARN -0.2218
-4.5713 PHAARY -0.2218
-4.5713 PHAASN -0.2218
-4.5713 PHAASP -0.2218
-4.5713 PHAAST -0.2218
-4.5713 PHAAXN -0.2218
-4.5713 PHAAXU -0.2218
-4.5713 PHAAY -0.2218
-4.5713 PHAF -0.2218
-4.5713 PHAFM -0.2218
-4.5713 PHAFN -0.2218
-4.5713 PHAFNG -0.2218
-4.5713 PHAFNH -0.2218
-4.5713 PHAFO -0.2218
-4.5713 PHAI -0.2218
-4.5713 PHAJ -0.2218
-4.5713 PHAJCH -0.2218
-4.5713 PHAJM -0.2218
-4.5713 PHAJN -0.2218
-4.5713 PHAJNG -0.2218
-4.5713 PHAJT -0.2218
-4.5713 PHAN -0.2218
-4.5713 PHANG -0.2218
-4.5713 PHANH -0.2218
-4.5713 PHAO -0.2218
-4.5713 PHAR -0.2218
-4.5713 PHARI -0.2218
-4.5713 PHARN -0.2218
-4.5713 PHARNG -0.2218
-4.5713 PHAS -0.2218
-4.5713 PHASC -0.2218
-4.5713 PHASCH -0.2218
-4.5713 PHASI -0.2218
-4.5713 PHASN -0.2218
-4.5713 PHASO -0.2218
-4.5713 PHASP -0.2218
-4.5713 PHAST -0.2218
-4.5713 PHAU -0.2218
-4.5713 PHAWJNG -0.2218
-4.5713 PHAWM -0.2218
-4.5713 PHAWN -0.2218
-4.5713 PHAWNG -0.2218
-4.5713 PHAWRNG -0.2218
-4.5713 PHAWSC -0.2218
-4.5713 PHAWSN -0.2218
-4.5713 PHAWSP -0.2218
-4.5713 PHAWST -0.2218
-4.5713 PHAY -0.2218
-4.5713 PHE -0.2218
-4.5713 PHEE -0.2218
-4.5713 PHEEF -0.2218
-4.5713 PHEEFNH -0.2218
-4.5713 PHEEFU -0.2218
-4.5713 PHEEJ -0.2218
-4.5713 PHEEJNH -0.2218
-4.5713 PHEEJT -0.2218
-4.5713 PHEEN -0.2218
-4.5713 PHEES -0.2218
-4.5713 PHEESCH -0.2218
-4.5713 PHEEST -0.2218
-4.5713 PHEEXN -0.2218
-4.5713 PHEEXU -0.2218
-4.5713 PHEF -0.2218
-4.5713 PHEFN -0.2218
-4.5713 PHEFNG -0.2218
-4.5713 PHEFO -0.2218
-4.5713 PHEJC -0.2218
-4.5713 PHEJT -0.2218
-4.5713 PHEN -0.2218
-4.5713 PHEO -0.2218
-4.5713 PHESC -0.2218
-4.5713 PHESNG -0.2218
-4.5713 PHESP -0.2218
-4.5713 PHEST -0.2218
-4.5713 PHI -0.2218
-4.5713 PHIEEFN -0.2218
-4.5713 PHIEEJN -0.2218
-4.5713 PHIEEJT -0.2218
-4.5713 PHIEEJU -0.2218
-4.5713 PHIEEN -0.2218
-4.5713 PHIEESM -0.2218
-4.5713 PHIEESN -0.2218
-4.5713 PHIEEST -0.2218
-4.5713 PHIEESU -0.2218
-4.5713 PHIEEU -0.2218
-4.5713 PHIF -0.2218
-4.5713 PHIFA -0.2218
-4.5713 PHIFN -0.2218
-4.5713 PHIFNH -0.2218
-4.5713 PHIJ -0.2218
-4.5713 PHIJCH -0.2218
-4.5713 PHIJU -0.2218
-4.5713 PHIM -0.2218
-4.5713 PHIN -0.2218
-4.5713 PHINH -0.2218
-4.5713 PHIR -0.2218
-4.5713 PHIRNH -0.2218
-4.5713 PHIS -0.2218
-4.5713 PHISA -0.2218
-4.5713 PHISCH -0.2218
-4.5713 PHISM -0.2218
-4.5713 PHISNH -0.2218
-4.5713 PHIU -0.2218
-4.5713 PHIXNH -0.2218
-4.5713 PHO -0.2218
-4.5713 PHOF -0.2218
-4.5713 PHOFI -0.2218
-4.5713 PHOFNG -0.2218
-4.5713 PHOI -0.2218
-4.5713 PHOJC -0.2218
-4.5713 PHOJT -0.2218
-4.5713 PHONG -0.2218
-4.5713 PHOO -0.2218
-4.5713 PHOOFM -0.2218
-4.5713 PHOOFN -0.2218
-4.5713 PHOOFNG -0.2218
-4.5713 PHOOI -0.2218
-4.5713 PHOOM -0.2218
-4.5713 PHOONG -0.2218
-4.5713 PHOOR -0.2218
-4.5713 PHOORI -0.2218
-4.5713 PHOORNG -0.2218
-4.5713 PHOOS -0.2218
-4.5713 PHOOSC -0.2218
-4.5713 PHOOSI -0.2218
-4.5713 PHOOSP -0.2218
-4.5713 PHOOST -0.2218
-4.5713 PHOOXNG -0.2218
-4.5713 PHORNG -0.2218
-4.5713 PHOS -0.2218
-4.5713 PHOSNG -0.2218
-4.5713 PHOST -0.2218
-4.5713 PHOW -0.2218
-4.5713 PHOWF -0.2218
-4.5713 PHOWFI -0.2218
-4.5713 PHOWI -0.2218
-4.5713 PHOWN -0.2218
-4.5713 PHOWR -0.2218
-4.5713 PHOWRN -0.2218
-4.5713 PHOWSI -0.2218
-4.5713 PHOWSN -0.2218
-4.5713 PHOWST -0.2218
-4.5713 PHOWXN -0.2218
-4.5713 PHU -0.2218
-4.5713 PHUA -0.2218
-4.5713 PHUF -0.2218
-4.5713 PHUFN -0.2218
-4.5713 PHUFNG -0.2218
-4.5713 PHUI -0.2218
-4.5713 PHUJ -0.2218
-4.5713 PHUJC -0.2218
-4.5713 PHUJNG -0.2218
-4.5713 PHUJT -0.2218
-4.5713 PHUN -0.2218
-4.5713 PHUNG -0.2218
-4.5713 PHUR -0.2218
-4.5713 PHURI -0.2218
-4.5713 PHURNG -0.2218
-4.5713 PHUS -0.2218
-4.5713 PHUSC -0.2218
-4.5713 PHUSN -0.2218
-4.5713 PHUSNG -0.2218
-4.5713 PHUST -0.2218
-4.5713 PHUWJA -0.2218
-4.5713 PHUWJT -0.2218
-4.5713 PHUWNG -0.2218
-4.5713 PHUWOWFNG -0.2218
-4.5713 PHUWOWJNG -0.2218
-4.5713 PHUWOWJT -0.2218
-4.5713 PHUWOWJU -0.2218
-4.5713 PHUWOWNG -0.2218
-4.5713 PHUWOWSC -0.2218
-4.5713 PHUWOWSN -0.2218
-4.5713 PHUWOWXN -0.2218
-4.5713 PHUWSA -0.2218
-4.5713 PHUWSC -0.2218
-4.5713 PHUWST -0.2218
-4.5713 PHUX -0.2218
-4.5713 PI -0.2218
-4.5713 PIN -0.2218
-4.5713 POO -0.2218
-4.5713 POOJNG -0.2218
-4.5713 POOOONG -0.2218
-4.5713 POS -0.2218
-4.5713 POW -0.2218
-4.5713 POWF -0.2218
-4.5713 POWNG -0.2218
-4.5713 PU -0.2218
-4.5713 PUI -0.2218
-4.5713 PUJA -0.2218
-4.5713 PUOOJC -0.2218
-4.5713 PUWOWI -0.2218
-4.5713 QUA -0.2218
-4.5713 QUAAFN -0.2218
-4.5713 QUAAFNG -0.2218
-4.5713 QUAAFY -0.2218
-4.5713 QUAAJN -0.2218
-4.5713 QUAAJT -0.2218
-4.5713 QUAAJY -0.2218
-4.5713 QUAAN -0.2218
-4.5713 QUAARN -0.2218
-4.5713 QUAARNG -0.2218
-4.5713 QUAARY -0.2218
-4.5713 QUAASN -0.2218
-4.5713 QUAAST -0.2218
-4.5713 QUAASY -0.2218
-4.5713 QUAAXN -0.2218
-4.5713 QUAAXY -0.2218
-4.5713 QUAAY -0.2218
-4.5713 QUAF -0.2218
-4.5713 QUAFI -0.2218
-4.5713 QUAFN -0.2218
-4.5713 QUAFNG -0.2218
-4.5713 QUAFNH -0.2218
-4.5713 QUAFO -0.2218
-4.5713 QUAFU -0.2218
-4.5713 QUAFY -0.2218
-4.5713 QUAI -0.2218
-4.5713 QUAJ -0.2218
-4.5713 QUAJC -0.2218
-4.5713 QUAJCH -0.2218
-4.5713 QUAJI -0.2218
-4.5713 QUAJNG -0.2218
-4.5713 QUAJNH -0.2218
-4.5713 QUAJT -0.2218
-4.5713 QUAJU -0.2218
-4.5713 QUAN -0.2218
-4.5713 QUANG -0.2218
-4.5713 QUANH -0.2218
-4.5713 QUAO -0.2218
-4.5713 QUAR -0.2218
-4.5713 QUARI -0.2218
-4.5713 QUARN -0.2218
-4.5713 QUARNG -0.2218
-4.5713 QUARY -0.2218
-4.5713 QUAS -0.2218
-4.5713 QUASC -0.2218
-4.5713 QUASCH -0.2218
-4.5713 QUASI -0.2218
-4.5713 QUASN -0.2218
-4.5713 QUASNG -0.2218
-4.5713 QUASNH -0.2218
-4.5713 QUASO -0.2218
-4.5713 QUAST -0.2218
-4.5713 QUAWFM -0.2218
-4.5713 QUAWFN -0.2218
-4.5713 QUAWJC -0.2218
-4.5713 QUAWJM -0.2218
-4.5713 QUAWJN -0.2218
-4.5713 QUAWJNG -0.2218
-4.5713 QUAWJP -0.2218
-4.5713 QUAWJT -0.2218
-4.5713 QUAWN -0.2218
-4.5713 QUAWNG -0.2218
-4.5713 QUAWRNG -0.2218
-4.5713 QUAWSC -0.2218
-4.5713 QUAWSM -0.2218
-4.5713 QUAWSN -0.2218
-4.5713 QUAWSP -0.2218
-4.5713 QUAWST -0.2218
-4.5713 QUAX -0.2218
-4.5713 QUAXNG -0.2218
-4.5713 QUAY -0.2218
-4.5713 QUE -0.2218
-4.5713 QUEE -0.2218
-4.5713 QUEEFNH -0.2218
-4.5713 QUEEFU -0.2218
-4.5713 QUEEJ -0.2218
-4.5713 QUEEJCH -0.2218
-4.5713 QUEEJN -0.2218
-4.5713 QUEEJT -0.2218
-4.5713 QUEEN -0.2218
-4.5713 QUEES -0.2218
-4.5713 QUEEST -0.2218
-4.5713 QUEF -0.2218
-4.5713 QUEFN -0.2218
-4.5713 QUEFO -0.2218
-4.5713 QUEJO -0.2218
-4.5713 QUEJT -0.2218
-4.5713 QUEN -0.2218
-4.5713 QUEO -0.2218
-4.5713 QUER -0.2218
-4.5713 QUES -0.2218
-4.5713 QUESO -0.2218
-4.5713 QUEST -0.2218
-4.5713 QUEX -0.2218
-4.5713 QUI -0.2218
-4.5713 QUIF -0.2218
-4.5713 QUIJ -0.2218
-4.5713 QUIJT -0.2218
-4.5713 QUIR -0.2218
-4.5713 QUIS -0.2218
-4.5713 QUIST -0.2218
-4.5713 QUIX -0.2218
-4.5713 QUOOSC -0.2218
-4.5713 QUOW -0.2218
-4.5713 QUOWF -0.2218
-4.5713 QUOWR -0.2218
-4.5713 QUOWRN -0.2218
-4.5713 QUOWS -0.2218
-4.5713 QUOWSI -0.2218
-4.5713 QUOWST -0.2218
-4.5713 QUY -0.2218
-4.5713 QUYEEFN -0.2218
-4.5713 QUYEEJN -0.2218
-4.5713 QUYEEJT -0.2218
-4.5713 QUYEEN -0.2218
-4.5713 QUYEERN -0.2218
-4.5713 QUYEESN -0.2218
-4.5713 QUYEEST -0.2218
-4.5713 QUYF -0.2218
-4.5713 QUYFNH -0.2218
-4.5713 QUYJ -0.2218
-4.5713 QUYR -0.2218
-4.5713 QUYS -0.2218
-4.5713 QUYSCH -0.2218
-4.5713 QUYSNH -0.2218
-4.5713 QUYX -0.2218
-4.5713 RA -0.2218
-4.5713 RAAFM -0.2218
-4.5713 RAAFN -0.2218
-4.5713 RAAFU -0.2218
-4.5713 RAAFY -0.2218
-4.5713 RAAJM -0.2218
-4.5713 RAAJN -0.2218
-4.5713 RAAJP -0.2218
-4.5713 RAAJT -0.2218
-4.5713 RAAJU -0.2218
-4.5713 RAAM -0.2218
-4.5713 RAAN -0.2218
-4.5713 RAARM -0.2218
-4.5713 RAARY -0.2218
-4.5713 RAASM -0.2218
-4.5713 RAASN -0.2218
-4.5713 RAASP -0.2218
-4.5713 RAAST -0.2218
-4.5713 RAAU -0.2218
-4.5713 RAAXM -0.2218
-4.5713 RAAXY -0.2218
-4.5713 RAAY -0.2218
-4.5713 RAF -0.2218
-4.5713 RAFI -0.2218
-4.5713 RAFN -0.2218
-4.5713 RAFNG -0.2218
-4.5713 RAFNH -0.2218
-4.5713 RAFO -0.2218
-4.5713 RAFY -0.2218
-4.5713 RAI -0.2218
-4.5713 RAJ -0.2218
-4.5713 RAJC -0.2218
-4.5713 RAJCH -0.2218
-4.5713 RAJM -0.2218
-4.5713 RAJN -0.2218
-4.5713 RAJNG -0.2218
-4.5713 RAJO -0.2218
-4.5713 RAJP -0.2218
-4.5713 RAJY -0.2218
-4.5713 RAM -0.2218
-4.5713 RAN -0.2218
-4.5713 RANG -0.2218
-4.5713 RANH -0.2218
-4.5713 RAO -0.2218
-4.5713 RAR -0.2218
-4.5713 RARI -0.2218
-4.5713 RARNH -0.2218
-4.5713 RARO -0.2218
-4.5713 RARY -0.2218
-4.5713 RAS -0.2218
-4.5713 RASC -0.2218
-4.5713 RASCH -0.2218
-4.5713 RASI -0.2218
-4.5713 RASM -0.2218
-4.5713 RASN -0.2218
-4.5713 RASNG -0.2218
-4.5713 RASO -0.2218
-4.5713 RASP -0.2218
-4.5713 RAST -0.2218
-4.5713 RASU -0.2218
-4.5713 RASY -0.2218
-4.5713 RAU -0.2218
-4.5713 RAWFM -0.2218
-4.5713 RAWFN -0.2218
-4.5713 RAWFNG -0.2218
-4.5713 RAWJC -0.2218
-4.5713 RAWJM -0.2218
-4.5713 RAWJN -0.2218
-4.5713 RAWJNG -0.2218
-4.5713 RAWJT -0.2218
-4.5713 RAWM -0.2218
-4.5713 RAWN -0.2218
-4.5713 RAWNG -0.2218
-4.5713 RAWSC -0.2218
-4.5713 RAWSM -0.2218
-4.5713 RAWSN -0.2218
-4.5713 RAWSP -0.2218
-4.5713 RAX -0.2218
-4.5713 RAXI -0.2218
-4.5713 RAXNH -0.2218
-4.5713 RAXO -0.2218
-4.5713 RAY -0.2218
-4.5713 RE -0.2218
-4.5713 REE -0.2218
-4.5713 REEF -0.2218
-4.5713 REEFN -0.2218
-4.5713 REEJP -0.2218
-4.5713 REEJT -0.2218
-4.5713 REEJU -0.2218
-4.5713 REEN -0.2218
-4.5713 REER -0.2218
-4.5713 REES -0.2218
-4.5713 REESCH -0.2218
-4.5713 REEST -0.2218
-4.5713 REEU -0.2218
-4.5713 REEX -0.2218
-4.5713 REF -0.2218
-4.5713 REFM -0.2218
-4.5713 REFN -0.2218
-4.5713 REFO -0.2218
-4.5713 REJO -0.2218
-4.5713 REM -0.2218
-4.5713 REN -0.2218
-4.5713 REO -0.2218
-4.5713 RER -0.2218
-4.5713 RERO -0.2218
-4.5713 RES -0.2218
-4.5713 RESN -0.2218
-4.5713 RESO -0.2218
-4.5713 REST -0.2218
-4.5713 REX -0.2218
-4.5713 RI -0.2218
-4.5713 RIA -0.2218
-4.5713 RIEEFNG -0.2218
-4.5713 RIEEJT -0.2218
-4.5713 RIEENG -0.2218
-4.5713 RIEEST -0.2218
-4.5713 RIEEU -0.2218
-4.5713 RIF -0.2218
-4.5713 RIFA -0.2218
-4.5713 RIFNH -0.2218
-4.5713 RIFU -0.2218
-4.5713 RIJ -0.2218
-4.5713 RIJA -0.2218
-4.5713 RIJCH -0.2218
-4.5713 RIJN -0.2218
-4.5713 RIJP -0.2218
-4.5713 RIJT -0.2218
-4.5713 RIM -0.2218
-4.5713 RIN -0.2218
-4.5713 RINH -0.2218
-4.5713 RIR -0.2218
-4.5713 RIRA -0.2218
-4.5713 RIRNH -0.2218
-4.5713 RIS -0.2218
-4.5713 RISCH -0.2218
-4.5713 RISM -0.2218
-4.5713 RIST -0.2218
-4.5713 RISU -0.2218
-4.5713 RIU -0.2218
-4.5713 RIX -0.2218
-4.5713 RIXN -0.2218
-4.5713 RO -0.2218
-4.5713 ROF -0.2218
-4.5713 ROFI -0.2218
-4.5713 ROFM -0.2218
-4.5713 ROFNG -0.2218
-4.5713 ROI -0.2218
-4.5713 ROJ -0.2218
-4.5713 ROJC -0.2218
-4.5713 ROJI -0.2218
-4.5713 ROJN -0.2218
-4.5713 ROJNG -0.2218
-4.5713 ROJT -0.2218
-4.5713 RONG -0.2218
-4.5713 ROO -0.2218
-4.5713 ROOF -0.2218
-4.5713 ROOFI -0.2218
-4.5713 ROOFNG -0.2218
-4.5713 ROOJ -0.2218
-4.5713 ROOJC -0.2218
-4.5713 ROOJM -0.2218
-4.5713 ROOJN -0.2218
-4.5713 ROOJNG -0.2218
-4.5713 ROOJP -0.2218
-4.5713 ROOM -0.2218
-4.5713 ROON -0.2218
-4.5713 ROONG -0.2218
-4.5713 ROOR -0.2218
-4.5713 ROORI -0.2218
-4.5713 ROORNG -0.2218
-4.5713 ROOSC -0.2218
-4.5713 ROOSI -0.2218
-4.5713 ROOSN -0.2218
-4.5713 ROOSNG -0.2218
-4.5713 ROOST -0.2218
-4.5713 ROOX -0.2218
-4.5713 ROOXI -0.2218
-4.5713 ROOXNG -0.2218
-4.5713 ROR -0.2218
-4.5713 RORI -0.2218
-4.5713 RORM -0.2218
-4.5713 ROS -0.2218
-4.5713 ROSC -0.2218
-4.5713 ROSI -0.2218
-4.5713 ROSM -0.2218
-4.5713 ROSN -0.2218
-4.5713 ROSNG -0.2218
-4.5713 ROST -0.2218
-4.5713 ROW -0.2218
-4.5713 ROWF -0.2218
-4.5713 ROWFI -0.2218
-4.5713 ROWFM -0.2218
-4.5713 ROWFN -0.2218
-4.5713 ROWI -0.2218
-4.5713 ROWJ -0.2218
-4.5713 ROWJI -0.2218
-4.5713 ROWJM -0.2218
-4.5713 ROWJN -0.2218
-4.5713 ROWJP -0.2218
-4.5713 ROWM -0.2218
-4.5713 ROWN -0.2218
-4.5713 ROWRM -0.2218
-4.5713 ROWRN -0.2218
-4.5713 ROWS -0.2218
-4.5713 ROWSM -0.2218
-4.5713 ROWSP -0.2218
-4.5713 ROWST -0.2218
-4.5713 ROWX -0.2218
-4.5713 ROX -0.2218
-4.5713 RU -0.2218
-4.5713 RUA -0.2218
-4.5713 RUEE -0.2218
-4.5713 RUF -0.2218
-4.5713 RUFA -0.2218
-4.5713 RUFM -0.2218
-4.5713 RUFN -0.2218
-4.5713 RUFNG -0.2218
-4.5713 RUI -0.2218
-4.5713 RUJC -0.2218
-4.5713 RUJI -0.2218
-4.5713 RUJNG -0.2218
-4.5713 RUJT -0.2218
-4.5713 RUM -0.2218
-4.5713 RUN -0.2218
