#############################################################################
## Copyright (c) 1996, Carnegie Mellon University, Cambridge University,
## Ronald Rosenfeld and Philip Clarkson
## Version 3, Copyright (c) 2006, Carnegie Mellon University 
## Contributors includes Wen Xu, Ananlada Chotimongkol, 
## David Huggins-Daines, Arthur Chan and Alan Black 
#############################################################################
=============================================================================
===============  This file was produced by the CMU-Cambridge  ===============
===============     Statistical Language Modeling Toolkit     ===============
=============================================================================
This is a 3-gram language model, based on a vocabulary of 6213 words,
  which begins "</s>", "<s>", "AAFM"...
This is a CLOSED-vocabulary model
  (OOVs eliminated from training data and are forbidden in test data)
Good-Turing discounting was applied.
1-gram frequency of frequency : 6210 
2-gram frequency of frequency : 12421 0 0 0 0 0 0 
3-gram frequency of frequency : 18631 0 0 0 0 0 0 
1-gram discounting ratios : 1.00 
2-gram discounting ratios : 
3-gram discounting ratios : 
This file is in the ARPA-standard format introduced by Doug Paul.

p(wd3|wd1,wd2)= if(trigram exists)           p_3(wd1,wd2,wd3)
                else if(bigram w1,w2 exists) bo_wt_2(w1,w2)*p(wd3|wd2)
                else                         p(wd3|w2)

p(wd2|wd1)= if(bigram exists) p_2(wd1,wd2)
            else              bo_wt_1(wd1)*p_1(wd2)

All probs and back-off weights (bo_wt) are given in log10 form.

Data formats:

Beginning of data mark: \data\
ngram 1=nr            # number of 1-grams
ngram 2=nr            # number of 2-grams
ngram 3=nr            # number of 3-grams

\1-grams:
p_1     wd_1 bo_wt_1
\2-grams:
p_2     wd_1 wd_2 bo_wt_2
\3-grams:
p_3     wd_1 wd_2 wd_3 

end of data mark: \end\

\data\
ngram 1=6213
ngram 2=12422
ngram 3=18631

\1-grams:
-0.4771 </s>	-3.6171
-0.4771 <s>	-3.9181
-4.2703 AAFM	-0.3010
-4.2703 AAJP	-0.3010
-4.2703 AAM	-0.3010
-4.2703 AAN	-0.3010
-4.2703 AARM	-0.3010
-4.2703 AARN	-0.3010
-4.2703 AARU	-0.3010
-4.2703 AASM	-0.3010
-4.2703 AASN	-0.3010
-4.2703 AASP	-0.3010
-4.2703 AAST	-0.3010
-4.2703 AASU	-0.3010
-4.2703 AASY	-0.3010
-4.2703 AAU	-0.3010
-4.2703 AFO	-0.3010
-4.2703 AI	-0.3010
-4.2703 AJCH	-0.3010
-4.2703 AJT	-0.3010
-4.2703 AM	-0.3010
-4.2703 AN	-0.3010
-4.2703 ANG	-0.3010
-4.2703 ANH	-0.3010
-4.2703 AO	-0.3010
-4.2703 ARI	-0.3010
-4.2703 ARM	-0.3010
-4.2703 ARNH	-0.3010
-4.2703 ARO	-0.3010
-4.2703 ASC	-0.3010
-4.2703 ASCH	-0.3010
-4.2703 ASI	-0.3010
-4.2703 ASM	-0.3010
-4.2703 ASN	-0.3010
-4.2703 ASNG	-0.3010
-4.2703 ASNH	-0.3010
-4.2703 ASO	-0.3010
-4.2703 ASP	-0.3010
-4.2703 AST	-0.3010
-4.2703 ASY	-0.3010
-4.2703 AWM	-0.3010
-4.2703 AWN	-0.3010
-4.2703 AWSC	-0.3010
-4.2703 AWSNG	-0.3010
-4.2703 AWSP	-0.3010
-4.2703 AWST	-0.3010
-4.2703 AWXM	-0.3010
-4.2703 BA	-0.3010
-4.2703 BAAFM	-0.3010
-4.2703 BAAFN	-0.3010
-4.2703 BAAFU	-0.3010
-4.2703 BAAFY	-0.3010
-4.2703 BAAJC	-0.3010
-4.2703 BAAJN	-0.3010
-4.2703 BAAJP	-0.3010
-4.2703 BAAJT	-0.3010
-4.2703 BAAJU	-0.3010
-4.2703 BAAJY	-0.3010
-4.2703 BAAN	-0.3010
-4.2703 BAANG	-0.3010
-4.2703 BAARM	-0.3010
-4.2703 BAARN	-0.3010
-4.2703 BAARY	-0.3010
-4.2703 BAASC	-0.3010
-4.2703 BAASM	-0.3010
-4.2703 BAASN	-0.3010
-4.2703 BAASP	-0.3010
-4.2703 BAAST	-0.3010
-4.2703 BAASU	-0.3010
-4.2703 BAASY	-0.3010
-4.2703 BAAU	-0.3010
-4.2703 BAAXY	-0.3010
-4.2703 BAAY	-0.3010
-4.2703 BAF	-0.3010
-4.2703 BAFI	-0.3010
-4.2703 BAFN	-0.3010
-4.2703 BAFNG	-0.3010
-4.2703 BAFNH	-0.3010
-4.2703 BAFO	-0.3010
-4.2703 BAFU	-0.3010
-4.2703 BAFY	-0.3010
-4.2703 BAI	-0.3010
-4.2703 BAJ	-0.3010
-4.2703 BAJC	-0.3010
-4.2703 BAJCH	-0.3010
-4.2703 BAJI	-0.3010
-4.2703 BAJN	-0.3010
-4.2703 BAJNG	-0.3010
-4.2703 BAJO	-0.3010
-4.2703 BAJT	-0.3010
-4.2703 BAN	-0.3010
-4.2703 BANG	-0.3010
-4.2703 BANH	-0.3010
-4.2703 BAO	-0.3010
-4.2703 BAR	-0.3010
-4.2703 BARN	-0.3010
-4.2703 BARNG	-0.3010
-4.2703 BARNH	-0.3010
-4.2703 BARO	-0.3010
-4.2703 BARU	-0.3010
-4.2703 BARY	-0.3010
-4.2703 BAS	-0.3010
-4.2703 BASC	-0.3010
-4.2703 BASCH	-0.3010
-4.2703 BASI	-0.3010
-4.2703 BASM	-0.3010
-4.2703 BASN	-0.3010
-4.2703 BASNG	-0.3010
-4.2703 BASNH	-0.3010
-4.2703 BASO	-0.3010
-4.2703 BASP	-0.3010
-4.2703 BAST	-0.3010
-4.2703 BASU	-0.3010
-4.2703 BASY	-0.3010
-4.2703 BAU	-0.3010
-4.2703 BAWFNG	-0.3010
-4.2703 BAWJM	-0.3010
-4.2703 BAWJT	-0.3010
-4.2703 BAWM	-0.3010
-4.2703 BAWN	-0.3010
-4.2703 BAWNG	-0.3010
-4.2703 BAWSC	-0.3010
-4.2703 BAWSN	-0.3010
-4.2703 BAWSP	-0.3010
-4.2703 BAWST	-0.3010
-4.2703 BAWXNG	-0.3010
-4.2703 BAX	-0.3010
-4.2703 BAXI	-0.3010
-4.2703 BAXNG	-0.3010
-4.2703 BAXO	-0.3010
-4.2703 BAY	-0.3010
-4.2703 BE	-0.3010
-4.2703 BEE	-0.3010
-4.2703 BEEF	-0.3010
-4.2703 BEEFN	-0.3010
-4.2703 BEEFNH	-0.3010
-4.2703 BEEFU	-0.3010
-4.2703 BEEJ	-0.3010
-4.2703 BEEJCH	-0.3010
-4.2703 BEEJN	-0.3010
-4.2703 BEEJNH	-0.3010
-4.2703 BEEJT	-0.3010
-4.2703 BEEJU	-0.3010
-4.2703 BEEN	-0.3010
-4.2703 BEENH	-0.3010
-4.2703 BEER	-0.3010
-4.2703 BEES	-0.3010
-4.2703 BEESN	-0.3010
-4.2703 BEESP	-0.3010
-4.2703 BEEST	-0.3010
-4.2703 BEEU	-0.3010
-4.2703 BEEX	-0.3010
-4.2703 BEF	-0.3010
-4.2703 BEFM	-0.3010
-4.2703 BEFN	-0.3010
-4.2703 BEFO	-0.3010
-4.2703 BEJ	-0.3010
-4.2703 BEJN	-0.3010
-4.2703 BEJP	-0.3010
-4.2703 BEJT	-0.3010
-4.2703 BEN	-0.3010
-4.2703 BENG	-0.3010
-4.2703 BEO	-0.3010
-4.2703 BER	-0.3010
-4.2703 BERM	-0.3010
-4.2703 BERO	-0.3010
-4.2703 BES	-0.3010
-4.2703 BESN	-0.3010
-4.2703 BESO	-0.3010
-4.2703 BESP	-0.3010
-4.2703 BEST	-0.3010
-4.2703 BEX	-0.3010
-4.2703 BEXN	-0.3010
-4.2703 BI	-0.3010
-4.2703 BIA	-0.3010
-4.2703 BIEEFN	-0.3010
-4.2703 BIEEFU	-0.3010
-4.2703 BIEEJN	-0.3010
-4.2703 BIEEJT	-0.3010
-4.2703 BIEEN	-0.3010
-4.2703 BIEERN	-0.3010
-4.2703 BIEERU	-0.3010
-4.2703 BIEESC	-0.3010
-4.2703 BIEESM	-0.3010
-4.2703 BIEESN	-0.3010
-4.2703 BIEESNG	-0.3010
-4.2703 BIEEST	-0.3010
-4.2703 BIEESU	-0.3010
-4.2703 BIEEU	-0.3010
-4.2703 BIF	-0.3010
-4.2703 BIFA	-0.3010
-4.2703 BIFM	-0.3010
-4.2703 BIFNH	-0.3010
-4.2703 BIFU	-0.3010
-4.2703 BIJ	-0.3010
-4.2703 BIJA	-0.3010
-4.2703 BIJCH	-0.3010
-4.2703 BIJN	-0.3010
-4.2703 BIJNH	-0.3010
-4.2703 BIJP	-0.3010
-4.2703 BIJT	-0.3010
-4.2703 BIJU	-0.3010
-4.2703 BIM	-0.3010
-4.2703 BIN	-0.3010
-4.2703 BINH	-0.3010
-4.2703 BIR	-0.3010
-4.2703 BIRM	-0.3010
-4.2703 BIRNH	-0.3010
-4.2703 BIS	-0.3010
-4.2703 BISCH	-0.3010
-4.2703 BISNH	-0.3010
-4.2703 BIST	-0.3010
-4.2703 BISU	-0.3010
-4.2703 BIX	-0.3010
-4.2703 BIXNH	-0.3010
-4.2703 BIXU	-0.3010
-4.2703 BO	-0.3010
-4.2703 BOA	-0.3010
-4.2703 BOF	-0.3010
-4.2703 BOFN	-0.3010
-4.2703 BOFNG	-0.3010
-4.2703 BOJ	-0.3010
-4.2703 BOJC	-0.3010
-4.2703 BOJN	-0.3010
-4.2703 BOJNG	-0.3010
-4.2703 BOJT	-0.3010
-4.2703 BOM	-0.3010
-4.2703 BON	-0.3010
-4.2703 BONG	-0.3010
-4.2703 BOO	-0.3010
-4.2703 BOOF	-0.3010
-4.2703 BOOFI	-0.3010
-4.2703 BOOFN	-0.3010
-4.2703 BOOFNG	-0.3010
-4.2703 BOOI	-0.3010
-4.2703 BOOJ	-0.3010
-4.2703 BOOJC	-0.3010
-4.2703 BOOJI	-0.3010
-4.2703 BOOJN	-0.3010
-4.2703 BOOJP	-0.3010
-4.2703 BOOJT	-0.3010
-4.2703 BOOM	-0.3010
-4.2703 BOON	-0.3010
-4.2703 BOONG	-0.3010
-4.2703 BOOR	-0.3010
-4.2703 BOORI	-0.3010
-4.2703 BOORN	-0.3010
-4.2703 BOORNG	-0.3010
-4.2703 BOOS	-0.3010
-4.2703 BOOSC	-0.3010
-4.2703 BOOSI	-0.3010
-4.2703 BOOSN	-0.3010
-4.2703 BOOSNG	-0.3010
-4.2703 BOOSP	-0.3010
-4.2703 BOOST	-0.3010
-4.2703 BOOXNG	-0.3010
-4.2703 BOR	-0.3010
-4.2703 BORI	-0.3010
-4.2703 BORM	-0.3010
-4.2703 BORNG	-0.3010
-4.2703 BOS	-0.3010
-4.2703 BOSC	-0.3010
-4.2703 BOSI	-0.3010
-4.2703 BOSN	-0.3010
-4.2703 BOSNG	-0.3010
-4.2703 BOSP	-0.3010
-4.2703 BOST	-0.3010
-4.2703 BOW	-0.3010
-4.2703 BOWF	-0.3010
-4.2703 BOWFI	-0.3010
-4.2703 BOWFM	-0.3010
-4.2703 BOWI	-0.3010
-4.2703 BOWJ	-0.3010
-4.2703 BOWJM	-0.3010
-4.2703 BOWJN	-0.3010
-4.2703 BOWM	-0.3010
-4.2703 BOWN	-0.3010
-4.2703 BOWR	-0.3010
-4.2703 BOWRI	-0.3010
-4.2703 BOWS	-0.3010
-4.2703 BOWSI	-0.3010
-4.2703 BOWST	-0.3010
-4.2703 BOWX	-0.3010
-4.2703 BOWXN	-0.3010
-4.2703 BOX	-0.3010
-4.2703 BOXM	-0.3010
-4.2703 BOXNG	-0.3010
-4.2703 BU	-0.3010
-4.2703 BUA	-0.3010
-4.2703 BUF	-0.3010
-4.2703 BUFA	-0.3010
-4.2703 BUFI	-0.3010
-4.2703 BUFN	-0.3010
-4.2703 BUFNG	-0.3010
-4.2703 BUI	-0.3010
-4.2703 BUJ	-0.3010
-4.2703 BUJA	-0.3010
-4.2703 BUJC	-0.3010
-4.2703 BUJI	-0.3010
-4.2703 BUJNG	-0.3010
-4.2703 BUJP	-0.3010
-4.2703 BUJT	-0.3010
-4.2703 BUN	-0.3010
-4.2703 BUNG	-0.3010
-4.2703 BUOOFI	-0.3010
-4.2703 BUOOFM	-0.3010
-4.2703 BUOOFN	-0.3010
-4.2703 BUOOFNG	-0.3010
-4.2703 BUOOJC	-0.3010
-4.2703 BUOOJT	-0.3010
-4.2703 BUOON	-0.3010
-4.2703 BUOONG	-0.3010
-4.2703 BUOORI	-0.3010
-4.2703 BUOOST	-0.3010
-4.2703 BURN	-0.3010
-4.2703 BURNG	-0.3010
-4.2703 BUS	-0.3010
-4.2703 BUSA	-0.3010
-4.2703 BUSN	-0.3010
-4.2703 BUSNG	-0.3010
-4.2703 BUSP	-0.3010
-4.2703 BUST	-0.3010
-4.2703 BUWFA	-0.3010
-4.2703 BUWFNG	-0.3010
-4.2703 BUWJ	-0.3010
-4.2703 BUWJA	-0.3010
-4.2703 BUWJC	-0.3010
-4.2703 BUWNG	-0.3010
-4.2703 BUWOWI	-0.3010
-4.2703 BUWOWM	-0.3010
-4.2703 BUWOWNG	-0.3010
-4.2703 BUWOWRI	-0.3010
-4.2703 BUWOWSC	-0.3010
-4.2703 BUWOWSM	-0.3010
-4.2703 BUWOWSNG	-0.3010
-4.2703 BUWOWSU	-0.3010
-4.2703 BUWOWU	-0.3010
-4.2703 BUWRA	-0.3010
-4.2703 BUWRU	-0.3010
-4.2703 BUWSC	-0.3010
-4.2703 BUWSNG	-0.3010
-4.2703 BUWST	-0.3010
-4.2703 BUWU	-0.3010
-4.2703 BUWXA	-0.3010
-4.2703 BUYST	-0.3010
-4.2703 CA	-0.3010
-4.2703 CAAFM	-0.3010
-4.2703 CAAFN	-0.3010
-4.2703 CAAFU	-0.3010
-4.2703 CAAFY	-0.3010
-4.2703 CAAJN	-0.3010
-4.2703 CAAJP	-0.3010
-4.2703 CAAJT	-0.3010
-4.2703 CAAJU	-0.3010
-4.2703 CAAJY	-0.3010
-4.2703 CAAM	-0.3010
-4.2703 CAAN	-0.3010
-4.2703 CAANG	-0.3010
-4.2703 CAARM	-0.3010
-4.2703 CAARN	-0.3010
-4.2703 CAARU	-0.3010
-4.2703 CAASC	-0.3010
-4.2703 CAASM	-0.3010
-4.2703 CAASN	-0.3010
-4.2703 CAASP	-0.3010
-4.2703 CAAST	-0.3010
-4.2703 CAASU	-0.3010
-4.2703 CAASY	-0.3010
-4.2703 CAAU	-0.3010
-4.2703 CAAXM	-0.3010
-4.2703 CAAXN	-0.3010
-4.2703 CAAXNG	-0.3010
-4.2703 CAAXU	-0.3010
-4.2703 CAAY	-0.3010
-4.2703 CAF	-0.3010
-4.2703 CAFI	-0.3010
-4.2703 CAFN	-0.3010
-4.2703 CAFNG	-0.3010
-4.2703 CAFNH	-0.3010
-4.2703 CAFO	-0.3010
-4.2703 CAFU	-0.3010
-4.2703 CAFY	-0.3010
-4.2703 CAI	-0.3010
-4.2703 CAJ	-0.3010
-4.2703 CAJC	-0.3010
-4.2703 CAJCH	-0.3010
-4.2703 CAJM	-0.3010
-4.2703 CAJN	-0.3010
-4.2703 CAJNH	-0.3010
-4.2703 CAJO	-0.3010
-4.2703 CAJP	-0.3010
-4.2703 CAJY	-0.3010
-4.2703 CAM	-0.3010
-4.2703 CAN	-0.3010
-4.2703 CANG	-0.3010
-4.2703 CANH	-0.3010
-4.2703 CAO	-0.3010
-4.2703 CAR	-0.3010
-4.2703 CARI	-0.3010
-4.2703 CARM	-0.3010
-4.2703 CARN	-0.3010
-4.2703 CARNG	-0.3010
-4.2703 CARNH	-0.3010
-4.2703 CARO	-0.3010
-4.2703 CAS	-0.3010
-4.2703 CASC	-0.3010
-4.2703 CASCH	-0.3010
-4.2703 CASI	-0.3010
-4.2703 CASM	-0.3010
-4.2703 CASN	-0.3010
-4.2703 CASNG	-0.3010
-4.2703 CASNH	-0.3010
-4.2703 CASO	-0.3010
-4.2703 CASP	-0.3010
-4.2703 CAST	-0.3010
-4.2703 CASU	-0.3010
-4.2703 CASY	-0.3010
-4.2703 CAU	-0.3010
-4.2703 CAWFM	-0.3010
-4.2703 CAWFN	-0.3010
-4.2703 CAWJC	-0.3010
-4.2703 CAWJM	-0.3010
-4.2703 CAWJN	-0.3010
-4.2703 CAWJP	-0.3010
-4.2703 CAWJT	-0.3010
-4.2703 CAWM	-0.3010
-4.2703 CAWN	-0.3010
-4.2703 CAWNG	-0.3010
-4.2703 CAWRNG	-0.3010
-4.2703 CAWSC	-0.3010
-4.2703 CAWSM	-0.3010
-4.2703 CAWSN	-0.3010
-4.2703 CAWSP	-0.3010
-4.2703 CAWST	-0.3010
-4.2703 CAXI	-0.3010
-4.2703 CAY	-0.3010
-4.2703 CHA	-0.3010
-4.2703 CHAAFN	-0.3010
-4.2703 CHAAFU	-0.3010
-4.2703 CHAAFY	-0.3010
-4.2703 CHAAJM	-0.3010
-4.2703 CHAAJN	-0.3010
-4.2703 CHAAJP	-0.3010
-4.2703 CHAAJT	-0.3010
-4.2703 CHAAJU	-0.3010
-4.2703 CHAAM	-0.3010
-4.2703 CHAAN	-0.3010
-4.2703 CHAARN	-0.3010
-4.2703 CHAASM	-0.3010
-4.2703 CHAASN	-0.3010
-4.2703 CHAASP	-0.3010
-4.2703 CHAAST	-0.3010
-4.2703 CHAASU	-0.3010
-4.2703 CHAASY	-0.3010
-4.2703 CHAAU	-0.3010
-4.2703 CHAF	-0.3010
-4.2703 CHAFI	-0.3010
-4.2703 CHAFM	-0.3010
-4.2703 CHAFNG	-0.3010
-4.2703 CHAFNH	-0.3010
-4.2703 CHAFO	-0.3010
-4.2703 CHAFY	-0.3010
-4.2703 CHAI	-0.3010
-4.2703 CHAJ	-0.3010
-4.2703 CHAJC	-0.3010
-4.2703 CHAJCH	-0.3010
-4.2703 CHAJM	-0.3010
-4.2703 CHAJN	-0.3010
-4.2703 CHAJNG	-0.3010
-4.2703 CHAJNH	-0.3010
-4.2703 CHAJO	-0.3010
-4.2703 CHAJP	-0.3010
-4.2703 CHAJY	-0.3010
-4.2703 CHAM	-0.3010
-4.2703 CHAN	-0.3010
-4.2703 CHANG	-0.3010
-4.2703 CHANH	-0.3010
-4.2703 CHAO	-0.3010
-4.2703 CHAR	-0.3010
-4.2703 CHARI	-0.3010
-4.2703 CHARNH	-0.3010
-4.2703 CHARO	-0.3010
-4.2703 CHARY	-0.3010
-4.2703 CHAS	-0.3010
-4.2703 CHASC	-0.3010
-4.2703 CHASN	-0.3010
-4.2703 CHASNG	-0.3010
-4.2703 CHASNH	-0.3010
-4.2703 CHASO	-0.3010
-4.2703 CHAST	-0.3010
-4.2703 CHASU	-0.3010
-4.2703 CHASY	-0.3010
-4.2703 CHAU	-0.3010
-4.2703 CHAWFM	-0.3010
-4.2703 CHAWFNG	-0.3010
-4.2703 CHAWJC	-0.3010
-4.2703 CHAWJM	-0.3010
-4.2703 CHAWJN	-0.3010
-4.2703 CHAWJNG	-0.3010
-4.2703 CHAWJP	-0.3010
-4.2703 CHAWJT	-0.3010
-4.2703 CHAWM	-0.3010
-4.2703 CHAWN	-0.3010
-4.2703 CHAWNG	-0.3010
-4.2703 CHAWRNG	-0.3010
-4.2703 CHAWSC	-0.3010
-4.2703 CHAWSM	-0.3010
-4.2703 CHAWSN	-0.3010
-4.2703 CHAWSP	-0.3010
-4.2703 CHAWST	-0.3010
-4.2703 CHAWXN	-0.3010
-4.2703 CHAX	-0.3010
-4.2703 CHAXO	-0.3010
-4.2703 CHAY	-0.3010
-4.2703 CHE	-0.3010
-4.2703 CHEE	-0.3010
-4.2703 CHEEF	-0.3010
-4.2703 CHEEJ	-0.3010
-4.2703 CHEEJCH	-0.3010
-4.2703 CHEEJNH	-0.3010
-4.2703 CHEEM	-0.3010
-4.2703 CHEENH	-0.3010
-4.2703 CHEERNH	-0.3010
-4.2703 CHEES	-0.3010
-4.2703 CHEESCH	-0.3010
-4.2703 CHEEST	-0.3010
-4.2703 CHEEXM	-0.3010
-4.2703 CHEF	-0.3010
-4.2703 CHEFN	-0.3010
-4.2703 CHEFO	-0.3010
-4.2703 CHEJ	-0.3010
-4.2703 CHEJT	-0.3010
-4.2703 CHEN	-0.3010
-4.2703 CHEO	-0.3010
-4.2703 CHER	-0.3010
-4.2703 CHES	-0.3010
-4.2703 CHESM	-0.3010
-4.2703 CHESN	-0.3010
-4.2703 CHESNG	-0.3010
-4.2703 CHESO	-0.3010
-4.2703 CHESP	-0.3010
-4.2703 CHEST	-0.3010
-4.2703 CHEX	-0.3010
-4.2703 CHEXN	-0.3010
-4.2703 CHI	-0.3010
-4.2703 CHIA	-0.3010
-4.2703 CHIEEFN	-0.3010
-4.2703 CHIEEFNG	-0.3010
-4.2703 CHIEEFU	-0.3010
-4.2703 CHIEEM	-0.3010
-4.2703 CHIEEN	-0.3010
-4.2703 CHIEENG	-0.3010
-4.2703 CHIEERU	-0.3010
-4.2703 CHIEESC	-0.3010
-4.2703 CHIEESM	-0.3010
-4.2703 CHIEESN	-0.3010
-4.2703 CHIEESNG	-0.3010
-4.2703 CHIEEST	-0.3010
-4.2703 CHIEESU	-0.3010
-4.2703 CHIEEU	-0.3010
-4.2703 CHIF	-0.3010
-4.2703 CHIFA	-0.3010
-4.2703 CHIFM	-0.3010
-4.2703 CHIJ	-0.3010
-4.2703 CHIJT	-0.3010
-4.2703 CHIJU	-0.3010
-4.2703 CHIM	-0.3010
-4.2703 CHINH	-0.3010
-4.2703 CHIR	-0.3010
-4.2703 CHIRN	-0.3010
-4.2703 CHIRNH	-0.3010
-4.2703 CHIS	-0.3010
-4.2703 CHISCH	-0.3010
-4.2703 CHISM	-0.3010
-4.2703 CHISN	-0.3010
-4.2703 CHISNH	-0.3010
-4.2703 CHISP	-0.3010
-4.2703 CHIST	-0.3010
-4.2703 CHIXA	-0.3010
-4.2703 CHIXNH	-0.3010
-4.2703 CHO	-0.3010
-4.2703 CHOAFNG	-0.3010
-4.2703 CHOAJC	-0.3010
-4.2703 CHOAJI	-0.3010
-4.2703 CHOAJNG	-0.3010
-4.2703 CHOANG	-0.3010
-4.2703 CHOARNG	-0.3010
-4.2703 CHOASN	-0.3010
-4.2703 CHOASNG	-0.3010
-4.2703 CHOAWST	-0.3010
-4.2703 CHOEJT	-0.3010
-4.2703 CHOFE	-0.3010
-4.2703 CHOFI	-0.3010
-4.2703 CHOFM	-0.3010
-4.2703 CHOFNG	-0.3010
-4.2703 CHOI	-0.3010
-4.2703 CHOJC	-0.3010
-4.2703 CHOJE	-0.3010
-4.2703 CHOJI	-0.3010
-4.2703 CHOJN	-0.3010
-4.2703 CHOJT	-0.3010
-4.2703 CHOM	-0.3010
-4.2703 CHONG	-0.3010
-4.2703 CHOO	-0.3010
-4.2703 CHOOF	-0.3010
-4.2703 CHOOFI	-0.3010
-4.2703 CHOOFM	-0.3010
-4.2703 CHOOFN	-0.3010
-4.2703 CHOOFNG	-0.3010
-4.2703 CHOOJP	-0.3010
-4.2703 CHOOJT	-0.3010
-4.2703 CHOON	-0.3010
-4.2703 CHOONG	-0.3010
-4.2703 CHOORI	-0.3010
-4.2703 CHOORNG	-0.3010
-4.2703 CHOOSC	-0.3010
-4.2703 CHOOSI	-0.3010
-4.2703 CHOOSN	-0.3010
-4.2703 CHOOSNG	-0.3010
-4.2703 CHOOSP	-0.3010
-4.2703 CHOOST	-0.3010
-4.2703 CHOOX	-0.3010
-4.2703 CHOR	-0.3010
-4.2703 CHORI	-0.3010
-4.2703 CHORM	-0.3010
-4.2703 CHORNG	-0.3010
-4.2703 CHOS	-0.3010
-4.2703 CHOSC	-0.3010
-4.2703 CHOSE	-0.3010
-4.2703 CHOSI	-0.3010
-4.2703 CHOSNG	-0.3010
-4.2703 CHOSP	-0.3010
-4.2703 CHOST	-0.3010
-4.2703 CHOW	-0.3010
-4.2703 CHOWF	-0.3010
-4.2703 CHOWFN	-0.3010
-4.2703 CHOWI	-0.3010
-4.2703 CHOWJ	-0.3010
-4.2703 CHOWJT	-0.3010
-4.2703 CHOWM	-0.3010
-4.2703 CHOWN	-0.3010
-4.2703 CHOWR	-0.3010
-4.2703 CHOWRM	-0.3010
-4.2703 CHOWS	-0.3010
-4.2703 CHOWSI	-0.3010
-4.2703 CHOWSM	-0.3010
-4.2703 CHOWSN	-0.3010
-4.2703 CHOWSP	-0.3010
-4.2703 CHOWST	-0.3010
-4.2703 CHOX	-0.3010
-4.2703 CHOXNG	-0.3010
-4.2703 CHU	-0.3010
-4.2703 CHUA	-0.3010
-4.2703 CHUAARN	-0.3010
-4.2703 CHUEES	-0.3010
-4.2703 CHUF	-0.3010
-4.2703 CHUFA	-0.3010
-4.2703 CHUFI	-0.3010
-4.2703 CHUFM	-0.3010
-4.2703 CHUFN	-0.3010
-4.2703 CHUFNG	-0.3010
-4.2703 CHUFY	-0.3010
-4.2703 CHUI	-0.3010
-4.2703 CHUJC	-0.3010
-4.2703 CHUJM	-0.3010
-4.2703 CHUJP	-0.3010
-4.2703 CHUJT	-0.3010
-4.2703 CHUM	-0.3010
-4.2703 CHUNG	-0.3010
-4.2703 CHUOOFN	-0.3010
-4.2703 CHUOOFNG	-0.3010
-4.2703 CHUOOI	-0.3010
-4.2703 CHUOOJC	-0.3010
-4.2703 CHUOOJI	-0.3010
-4.2703 CHUOOJNG	-0.3010
-4.2703 CHUOOJT	-0.3010
-4.2703 CHUOOM	-0.3010
-4.2703 CHUOONG	-0.3010
-4.2703 CHUOOSC	-0.3010
-4.2703 CHUOOSI	-0.3010
-4.2703 CHUOOST	-0.3010
-4.2703 CHUOOXI	-0.3010
-4.2703 CHUR	-0.3010
-4.2703 CHURN	-0.3010
-4.2703 CHURNG	-0.3010
-4.2703 CHUS	-0.3010
-4.2703 CHUSA	-0.3010
-4.2703 CHUSC	-0.3010
-4.2703 CHUSI	-0.3010
-4.2703 CHUSM	-0.3010
-4.2703 CHUSNG	-0.3010
-4.2703 CHUST	-0.3010
-4.2703 CHUW	-0.3010
-4.2703 CHUWA	-0.3010
-4.2703 CHUWF	-0.3010
-4.2703 CHUWFA	-0.3010
-4.2703 CHUWFNG	-0.3010
-4.2703 CHUWJC	-0.3010
-4.2703 CHUWNG	-0.3010
-4.2703 CHUWOWFNG	-0.3010
-4.2703 CHUWOWJC	-0.3010
-4.2703 CHUWOWNG	-0.3010
-4.2703 CHUWOWRNG	-0.3010
-4.2703 CHUWOWSC	-0.3010
-4.2703 CHUWOWSNG	-0.3010
-4.2703 CHUWR	-0.3010
-4.2703 CHUWRA	-0.3010
-4.2703 CHUWRI	-0.3010
-4.2703 CHUWRNG	-0.3010
-4.2703 CHUWS	-0.3010
-4.2703 CHUWSA	-0.3010
-4.2703 CHUWSC	-0.3010
-4.2703 CHUWSNG	-0.3010
-4.2703 CHUWX	-0.3010
-4.2703 CHUWXA	-0.3010
-4.2703 CHUWXNG	-0.3010
-4.2703 CHUXM	-0.3010
-4.2703 CHUXN	-0.3010
-4.2703 CHUYEEFN	-0.3010
-4.2703 CHUYEEJN	-0.3010
-4.2703 CHUYEEN	-0.3010
-4.2703 CHUYEERN	-0.3010
-4.2703 CHUYEESN	-0.3010
-4.2703 CHUYEEST	-0.3010
-4.2703 CO	-0.3010
-4.2703 COF	-0.3010
-4.2703 COFI	-0.3010
-4.2703 COFM	-0.3010
-4.2703 COFN	-0.3010
-4.2703 COFNG	-0.3010
-4.2703 COI	-0.3010
-4.2703 COJ	-0.3010
-4.2703 COJC	-0.3010
-4.2703 COJM	-0.3010
-4.2703 COJN	-0.3010
-4.2703 COJNG	-0.3010
-4.2703 COJP	-0.3010
-4.2703 COJT	-0.3010
-4.2703 COM	-0.3010
-4.2703 CON	-0.3010
-4.2703 CONG	-0.3010
-4.2703 COO	-0.3010
-4.2703 COOF	-0.3010
-4.2703 COOFM	-0.3010
-4.2703 COOFN	-0.3010
-4.2703 COOFNG	-0.3010
-4.2703 COOI	-0.3010
-4.2703 COOJ	-0.3010
-4.2703 COOJC	-0.3010
-4.2703 COOJI	-0.3010
-4.2703 COOJM	-0.3010
-4.2703 COOJNG	-0.3010
-4.2703 COOJP	-0.3010
-4.2703 COOJT	-0.3010
-4.2703 COON	-0.3010
-4.2703 COONG	-0.3010
-4.2703 COOOOSNG	-0.3010
-4.2703 COOR	-0.3010
-4.2703 COORI	-0.3010
-4.2703 COORN	-0.3010
-4.2703 COORNG	-0.3010
-4.2703 COOS	-0.3010
-4.2703 COOSC	-0.3010
-4.2703 COOSI	-0.3010
-4.2703 COOSM	-0.3010
-4.2703 COOSNG	-0.3010
-4.2703 COOSP	-0.3010
-4.2703 COOST	-0.3010
-4.2703 COOX	-0.3010
-4.2703 COOXI	-0.3010
-4.2703 COR	-0.3010
-4.2703 CORI	-0.3010
-4.2703 CORN	-0.3010
-4.2703 COS	-0.3010
-4.2703 COSC	-0.3010
-4.2703 COSI	-0.3010
-4.2703 COSNG	-0.3010
-4.2703 COSP	-0.3010
-4.2703 COST	-0.3010
-4.2703 COW	-0.3010
-4.2703 COWF	-0.3010
-4.2703 COWFI	-0.3010
-4.2703 COWI	-0.3010
-4.2703 COWJN	-0.3010
-4.2703 COWJT	-0.3010
-4.2703 COWM	-0.3010
-4.2703 COWN	-0.3010
-4.2703 COWRI	-0.3010
-4.2703 COWS	-0.3010
-4.2703 COWSM	-0.3010
-4.2703 COWX	-0.3010
-4.2703 COWXI	-0.3010
-4.2703 COWXN	-0.3010
-4.2703 COXI	-0.3010
-4.2703 COXNG	-0.3010
-4.2703 CU	-0.3010
-4.2703 CUA	-0.3010
-4.2703 CUF	-0.3010
-4.2703 CUFA	-0.3010
-4.2703 CUFI	-0.3010
-4.2703 CUFM	-0.3010
-4.2703 CUFN	-0.3010
-4.2703 CUFNG	-0.3010
-4.2703 CUI	-0.3010
-4.2703 CUJ	-0.3010
-4.2703 CUJC	-0.3010
-4.2703 CUJI	-0.3010
-4.2703 CUJM	-0.3010
-4.2703 CUJP	-0.3010
-4.2703 CUJT	-0.3010
-4.2703 CUN	-0.3010
-4.2703 CUNG	-0.3010
-4.2703 CUOOFN	-0.3010
-4.2703 CUOOFNG	-0.3010
-4.2703 CUOOJC	-0.3010
-4.2703 CUOOJI	-0.3010
-4.2703 CUOOJN	-0.3010
-4.2703 CUOONG	-0.3010
-4.2703 CUOOSC	-0.3010
-4.2703 CUOOSI	-0.3010
-4.2703 CUOOSN	-0.3010
-4.2703 CUOOSNG	-0.3010
-4.2703 CUOOXM	-0.3010
-4.2703 CUR	-0.3010
-4.2703 CURA	-0.3010
-4.2703 CURI	-0.3010
-4.2703 CURN	-0.3010
-4.2703 CURNG	-0.3010
-4.2703 CUS	-0.3010
-4.2703 CUSC	-0.3010
-4.2703 CUSI	-0.3010
-4.2703 CUSM	-0.3010
-4.2703 CUSNG	-0.3010
-4.2703 CUSP	-0.3010
-4.2703 CUST	-0.3010
-4.2703 CUW	-0.3010
-4.2703 CUWA	-0.3010
-4.2703 CUWF	-0.3010
-4.2703 CUWFU	-0.3010
-4.2703 CUWJ	-0.3010
-4.2703 CUWJA	-0.3010
-4.2703 CUWJC	-0.3010
-4.2703 CUWJU	-0.3010
-4.2703 CUWNG	-0.3010
-4.2703 CUWOWFI	-0.3010
-4.2703 CUWOWFM	-0.3010
-4.2703 CUWOWFNG	-0.3010
-4.2703 CUWOWNG	-0.3010
-4.2703 CUWOWSC	-0.3010
-4.2703 CUWOWSI	-0.3010
-4.2703 CUWOWSP	-0.3010
-4.2703 CUWOWXI	-0.3010
-4.2703 CUWOWXNG	-0.3010
-4.2703 CUWR	-0.3010
-4.2703 CUWRA	-0.3010
-4.2703 CUWRI	-0.3010
-4.2703 CUWRU	-0.3010
-4.2703 CUWS	-0.3010
-4.2703 CUWSA	-0.3010
-4.2703 CUWSC	-0.3010
-4.2703 CUWSNG	-0.3010
-4.2703 CUWST	-0.3010
-4.2703 CUWSU	-0.3010
-4.2703 CUWU	-0.3010
-4.2703 CUWX	-0.3010
-4.2703 CUWXU	-0.3010
-4.2703 CUX	-0.3010
-4.2703 CUXI	-0.3010
-4.2703 CUXN	-0.3010
-4.2703 CUXNG	-0.3010
-4.2703 DA	-0.3010
-4.2703 DAAFM	-0.3010
-4.2703 DAAFN	-0.3010
-4.2703 DAAFU	-0.3010
-4.2703 DAAFY	-0.3010
-4.2703 DAAJM	-0.3010
-4.2703 DAAJN	-0.3010
-4.2703 DAAJP	-0.3010
-4.2703 DAAJT	-0.3010
-4.2703 DAAJY	-0.3010
-4.2703 DAAM	-0.3010
-4.2703 DAAN	-0.3010
-4.2703 DAANG	-0.3010
-4.2703 DAARM	-0.3010
-4.2703 DAARN	-0.3010
-4.2703 DAASN	-0.3010
-4.2703 DAASP	-0.3010
-4.2703 DAASU	-0.3010
-4.2703 DAASY	-0.3010
-4.2703 DAAU	-0.3010
-4.2703 DAAXN	-0.3010
-4.2703 DAAXY	-0.3010
-4.2703 DAAY	-0.3010
-4.2703 DAFI	-0.3010
-4.2703 DAFN	-0.3010
-4.2703 DAFNG	-0.3010
-4.2703 DAFNH	-0.3010
-4.2703 DAFO	-0.3010
-4.2703 DAFU	-0.3010
-4.2703 DAFY	-0.3010
-4.2703 DAI	-0.3010
-4.2703 DAJ	-0.3010
-4.2703 DAJC	-0.3010
-4.2703 DAJI	-0.3010
-4.2703 DAJM	-0.3010
-4.2703 DAJN	-0.3010
-4.2703 DAJNG	-0.3010
-4.2703 DAJO	-0.3010
-4.2703 DAJT	-0.3010
-4.2703 DAJY	-0.3010
-4.2703 DAN	-0.3010
-4.2703 DANG	-0.3010
-4.2703 DANH	-0.3010
-4.2703 DAO	-0.3010
-4.2703 DARI	-0.3010
-4.2703 DASI	-0.3010
-4.2703 DASM	-0.3010
-4.2703 DASN	-0.3010
-4.2703 DASNG	-0.3010
-4.2703 DAST	-0.3010
-4.2703 DASY	-0.3010
-4.2703 DAWFM	-0.3010
-4.2703 DAWFN	-0.3010
-4.2703 DAWFNG	-0.3010
-4.2703 DAWJC	-0.3010
-4.2703 DAWJM	-0.3010
-4.2703 DAWJN	-0.3010
-4.2703 DAWJT	-0.3010
-4.2703 DAWM	-0.3010
-4.2703 DAWNG	-0.3010
-4.2703 DAWRNG	-0.3010
-4.2703 DAWST	-0.3010
-4.2703 DAX	-0.3010
-4.2703 DAXI	-0.3010
-4.2703 DAXY	-0.3010
-4.2703 DAY	-0.3010
-4.2703 DDA	-0.3010
-4.2703 DDAAFM	-0.3010
-4.2703 DDAAFN	-0.3010
-4.2703 DDAAFU	-0.3010
-4.2703 DDAAFY	-0.3010
-4.2703 DDAAJM	-0.3010
-4.2703 DDAAJN	-0.3010
-4.2703 DDAAJP	-0.3010
-4.2703 DDAAJT	-0.3010
-4.2703 DDAAJU	-0.3010
-4.2703 DDAAJY	-0.3010
-4.2703 DDAAM	-0.3010
-4.2703 DDAARU	-0.3010
-4.2703 DDAARY	-0.3010
-4.2703 DDAASM	-0.3010
-4.2703 DDAAST	-0.3010
-4.2703 DDAASU	-0.3010
-4.2703 DDAASY	-0.3010
-4.2703 DDAAU	-0.3010
-4.2703 DDAAXM	-0.3010
-4.2703 DDAAXN	-0.3010
-4.2703 DDAAXY	-0.3010
-4.2703 DDAAY	-0.3010
-4.2703 DDAF	-0.3010
-4.2703 DDAFI	-0.3010
-4.2703 DDAFM	-0.3010
-4.2703 DDAFN	-0.3010
-4.2703 DDAFNG	-0.3010
-4.2703 DDAFNH	-0.3010
-4.2703 DDAFO	-0.3010
-4.2703 DDAFY	-0.3010
-4.2703 DDAI	-0.3010
-4.2703 DDAJC	-0.3010
-4.2703 DDAJCH	-0.3010
-4.2703 DDAJI	-0.3010
-4.2703 DDAJM	-0.3010
-4.2703 DDAJN	-0.3010
-4.2703 DDAJO	-0.3010
-4.2703 DDAJP	-0.3010
-4.2703 DDAJT	-0.3010
-4.2703 DDAM	-0.3010
-4.2703 DDAN	-0.3010
-4.2703 DDANG	-0.3010
-4.2703 DDANH	-0.3010
-4.2703 DDAO	-0.3010
-4.2703 DDAR	-0.3010
-4.2703 DDARM	-0.3010
-4.2703 DDARN	-0.3010
-4.2703 DDARNG	-0.3010
-4.2703 DDARNH	-0.3010
-4.2703 DDARO	-0.3010
-4.2703 DDAS	-0.3010
-4.2703 DDASC	-0.3010
-4.2703 DDASI	-0.3010
-4.2703 DDASM	-0.3010
-4.2703 DDASN	-0.3010
-4.2703 DDASNG	-0.3010
-4.2703 DDASNH	-0.3010
-4.2703 DDASO	-0.3010
-4.2703 DDASP	-0.3010
-4.2703 DDAST	-0.3010
-4.2703 DDASY	-0.3010
-4.2703 DDAU	-0.3010
-4.2703 DDAWFNG	-0.3010
-4.2703 DDAWJC	-0.3010
-4.2703 DDAWJN	-0.3010
-4.2703 DDAWJNG	-0.3010
-4.2703 DDAWJT	-0.3010
-4.2703 DDAWM	-0.3010
-4.2703 DDAWNG	-0.3010
-4.2703 DDAWRNG	-0.3010
-4.2703 DDAWSC	-0.3010
-4.2703 DDAWSM	-0.3010
-4.2703 DDAWSN	-0.3010
-4.2703 DDAWSNG	-0.3010
-4.2703 DDAWSP	-0.3010
-4.2703 DDAWST	-0.3010
-4.2703 DDAWXN	-0.3010
-4.2703 DDAWXNG	-0.3010
-4.2703 DDAX	-0.3010
-4.2703 DDAXI	-0.3010
-4.2703 DDAXNG	-0.3010
-4.2703 DDAY	-0.3010
-4.2703 DDE	-0.3010
-4.2703 DDEE	-0.3010
-4.2703 DDEEF	-0.3010
-4.2703 DDEEFM	-0.3010
-4.2703 DDEEFN	-0.3010
-4.2703 DDEEFU	-0.3010
-4.2703 DDEEJ	-0.3010
-4.2703 DDEEJM	-0.3010
-4.2703 DDEEM	-0.3010
-4.2703 DDEENH	-0.3010
-4.2703 DDEER	-0.3010
-4.2703 DDEERU	-0.3010
-4.2703 DDEES	-0.3010
-4.2703 DDEESM	-0.3010
-4.2703 DDEESN	-0.3010
-4.2703 DDEEU	-0.3010
-4.2703 DDEEX	-0.3010
-4.2703 DDEEXNH	-0.3010
-4.2703 DDEF	-0.3010
-4.2703 DDEFN	-0.3010
-4.2703 DDEFO	-0.3010
-4.2703 DDEJP	-0.3010
-4.2703 DDEJT	-0.3010
-4.2703 DDEM	-0.3010
-4.2703 DDEN	-0.3010
-4.2703 DDENG	-0.3010
-4.2703 DDEO	-0.3010
-4.2703 DDER	-0.3010
-4.2703 DDESO	-0.3010
-4.2703 DDEST	-0.3010
-4.2703 DDEXO	-0.3010
-4.2703 DDI	-0.3010
-4.2703 DDIEEFM	-0.3010
-4.2703 DDIEEFN	-0.3010
-4.2703 DDIEEFU	-0.3010
-4.2703 DDIEEJN	-0.3010
-4.2703 DDIEEJP	-0.3010
-4.2703 DDIEEJT	-0.3010
-4.2703 DDIEEJU	-0.3010
-4.2703 DDIEEN	-0.3010
-4.2703 DDIEENG	-0.3010
-4.2703 DDIEERM	-0.3010
-4.2703 DDIEERN	-0.3010
-4.2703 DDIEERU	-0.3010
-4.2703 DDIEESC	-0.3010
-4.2703 DDIEESM	-0.3010
-4.2703 DDIEESU	-0.3010
-4.2703 DDIEEU	-0.3010
-4.2703 DDIF	-0.3010
-4.2703 DDIFA	-0.3010
-4.2703 DDIFN	-0.3010
-4.2703 DDIFNH	-0.3010
-4.2703 DDIFU	-0.3010
-4.2703 DDIJA	-0.3010
-4.2703 DDIJCH	-0.3010
-4.2703 DDIJNH	-0.3010
-4.2703 DDIJT	-0.3010
-4.2703 DDINH	-0.3010
-4.2703 DDIR	-0.3010
-4.2703 DDIRA	-0.3010
-4.2703 DDIRNH	-0.3010
-4.2703 DDISCH	-0.3010
-4.2703 DDISNH	-0.3010
-4.2703 DDIST	-0.3010
-4.2703 DDIU	-0.3010
-4.2703 DDIX	-0.3010
-4.2703 DDIXA	-0.3010
-4.2703 DDIXNH	-0.3010
-4.2703 DDO	-0.3010
-4.2703 DDOAFI	-0.3010
-4.2703 DDOAFN	-0.3010
-4.2703 DDOAJN	-0.3010
-4.2703 DDOAJT	-0.3010
-4.2703 DDOAN	-0.3010
-4.2703 DDOARN	-0.3010
-4.2703 DDOASI	-0.3010
-4.2703 DDOASN	-0.3010
-4.2703 DDOF	-0.3010
-4.2703 DDOFI	-0.3010
-4.2703 DDOFN	-0.3010
-4.2703 DDOJ	-0.3010
-4.2703 DDOJA	-0.3010
-4.2703 DDOJC	-0.3010
-4.2703 DDOJI	-0.3010
-4.2703 DDOJNG	-0.3010
-4.2703 DDOJT	-0.3010
-4.2703 DDOM	-0.3010
-4.2703 DDONG	-0.3010
-4.2703 DDOO	-0.3010
-4.2703 DDOOF	-0.3010
-4.2703 DDOOFI	-0.3010
-4.2703 DDOOFM	-0.3010
-4.2703 DDOOFN	-0.3010
-4.2703 DDOOFNG	-0.3010
-4.2703 DDOOI	-0.3010
-4.2703 DDOOJ	-0.3010
-4.2703 DDOOJC	-0.3010
-4.2703 DDOOJI	-0.3010
-4.2703 DDOOJN	-0.3010
-4.2703 DDOOJNG	-0.3010
-4.2703 DDOOJP	-0.3010
-4.2703 DDOOJT	-0.3010
-4.2703 DDOON	-0.3010
-4.2703 DDOONG	-0.3010
-4.2703 DDOOR	-0.3010
-4.2703 DDOORI	-0.3010
-4.2703 DDOORNG	-0.3010
-4.2703 DDOOS	-0.3010
-4.2703 DDOOSC	-0.3010
-4.2703 DDOOSI	-0.3010
-4.2703 DDOOSM	-0.3010
-4.2703 DDOOSN	-0.3010
-4.2703 DDOOSNG	-0.3010
-4.2703 DDOOSP	-0.3010
-4.2703 DDOOST	-0.3010
-4.2703 DDOOX	-0.3010
-4.2703 DDOOXI	-0.3010
-4.2703 DDOOXNG	-0.3010
-4.2703 DDOR	-0.3010
-4.2703 DDORM	-0.3010
-4.2703 DDOS	-0.3010
-4.2703 DDOSI	-0.3010
-4.2703 DDOSM	-0.3010
-4.2703 DDOSN	-0.3010
-4.2703 DDOSNG	-0.3010
-4.2703 DDOW	-0.3010
-4.2703 DDOWF	-0.3010
-4.2703 DDOWFI	-0.3010
-4.2703 DDOWFM	-0.3010
-4.2703 DDOWJ	-0.3010
-4.2703 DDOWJI	-0.3010
-4.2703 DDOWJT	-0.3010
-4.2703 DDOWM	-0.3010
-4.2703 DDOWN	-0.3010
-4.2703 DDOWRM	-0.3010
-4.2703 DDOWSI	-0.3010
-4.2703 DDOWSN	-0.3010
-4.2703 DDOWSP	-0.3010
-4.2703 DDOWST	-0.3010
-4.2703 DDOWX	-0.3010
-4.2703 DDU	-0.3010
-4.2703 DDUA	-0.3010
-4.2703 DDUF	-0.3010
-4.2703 DDUFA	-0.3010
-4.2703 DDUFI	-0.3010
-4.2703 DDUFM	-0.3010
-4.2703 DDUFN	-0.3010
-4.2703 DDUFNG	-0.3010
-4.2703 DDUI	-0.3010
-4.2703 DDUJ	-0.3010
-4.2703 DDUJC	-0.3010
-4.2703 DDUJN	-0.3010
-4.2703 DDUJNG	-0.3010
-4.2703 DDUN	-0.3010
-4.2703 DDUOOI	-0.3010
-4.2703 DDUOOJI	-0.3010
-4.2703 DDUOORI	-0.3010
-4.2703 DDUOOSC	-0.3010
-4.2703 DDUOOSI	-0.3010
-4.2703 DDUOOSNG	-0.3010
-4.2703 DDUR	-0.3010
-4.2703 DDUSC	-0.3010
-4.2703 DDUSNG	-0.3010
-4.2703 DDUSP	-0.3010
-4.2703 DDUST	-0.3010
-4.2703 DDUWA	-0.3010
-4.2703 DDUWF	-0.3010
-4.2703 DDUWFNG	-0.3010
-4.2703 DDUWJC	-0.3010
-4.2703 DDUWJNG	-0.3010
-4.2703 DDUWOWFI	-0.3010
-4.2703 DDUWOWFNG	-0.3010
-4.2703 DDUWOWJC	-0.3010
-4.2703 DDUWOWNG	-0.3010
-4.2703 DDUWSA	-0.3010
-4.2703 DDUWSC	-0.3010
-4.2703 DDUWSNG	-0.3010
-4.2703 DDUWST	-0.3010
-4.2703 DDUXA	-0.3010
-4.2703 DDUYSCH	-0.3010
-4.2703 DE	-0.3010
-4.2703 DEE	-0.3010
-4.2703 DEEF	-0.3010
-4.2703 DEEFN	-0.3010
-4.2703 DEEFNH	-0.3010
-4.2703 DEEJT	-0.3010
-4.2703 DEEJU	-0.3010
-4.2703 DEER	-0.3010
-4.2703 DEES	-0.3010
-4.2703 DEEST	-0.3010
-4.2703 DEEX	-0.3010
-4.2703 DEF	-0.3010
-4.2703 DEJM	-0.3010
-4.2703 DEJP	-0.3010
-4.2703 DER	-0.3010
-4.2703 DERO	-0.3010
-4.2703 DESO	-0.3010
-4.2703 DESP	-0.3010
-4.2703 DI	-0.3010
-4.2703 DIEEFU	-0.3010
-4.2703 DIEEJC	-0.3010
-4.2703 DIEEJM	-0.3010
-4.2703 DIEEJN	-0.3010
-4.2703 DIEEJP	-0.3010
-4.2703 DIEEJT	-0.3010
-4.2703 DIEEJU	-0.3010
-4.2703 DIEEM	-0.3010
-4.2703 DIEEN	-0.3010
-4.2703 DIEESP	-0.3010
-4.2703 DIEEST	-0.3010
-4.2703 DIEEU	-0.3010
-4.2703 DIEEXM	-0.3010
-4.2703 DIEEXN	-0.3010
-4.2703 DIEEXU	-0.3010
-4.2703 DIF	-0.3010
-4.2703 DIFM	-0.3010
-4.2703 DIFU	-0.3010
-4.2703 DIJ	-0.3010
-4.2703 DIJCH	-0.3010
-4.2703 DIJP	-0.3010
-4.2703 DIJU	-0.3010
-4.2703 DIM	-0.3010
-4.2703 DIN	-0.3010
-4.2703 DINH	-0.3010
-4.2703 DIR	-0.3010
-4.2703 DIS	-0.3010
-4.2703 DISNH	-0.3010
-4.2703 DISU	-0.3010
-4.2703 DIU	-0.3010
-4.2703 DIX	-0.3010
-4.2703 DIXA	-0.3010
-4.2703 DIXN	-0.3010
-4.2703 DIXNH	-0.3010
-4.2703 DO	-0.3010
-4.2703 DOAFNH	-0.3010
-4.2703 DOANH	-0.3010
-4.2703 DOAXN	-0.3010
-4.2703 DOF	-0.3010
-4.2703 DOFM	-0.3010
-4.2703 DOFNG	-0.3010
-4.2703 DOI	-0.3010
-4.2703 DOJA	-0.3010
-4.2703 DOJC	-0.3010
-4.2703 DOJN	-0.3010
-4.2703 DOM	-0.3010
-4.2703 DON	-0.3010
-4.2703 DONG	-0.3010
-4.2703 DOOFI	-0.3010
-4.2703 DOOFN	-0.3010
-4.2703 DOOJI	-0.3010
-4.2703 DOOJNG	-0.3010
-4.2703 DOOJT	-0.3010
-4.2703 DOONG	-0.3010
-4.2703 DOORI	-0.3010
-4.2703 DOOSC	-0.3010
-4.2703 DOOSI	-0.3010
-4.2703 DOOSNG	-0.3010
-4.2703 DOOST	-0.3010
-4.2703 DOOX	-0.3010
-4.2703 DOOXI	-0.3010
-4.2703 DORM	-0.3010
-4.2703 DORNG	-0.3010
-4.2703 DOS	-0.3010
-4.2703 DOSC	-0.3010
-4.2703 DOW	-0.3010
-4.2703 DOWFI	-0.3010
-4.2703 DOWI	-0.3010
-4.2703 DOWJN	-0.3010
-4.2703 DOWN	-0.3010
-4.2703 DOWR	-0.3010
-4.2703 DOWS	-0.3010
-4.2703 DOWSP	-0.3010
-4.2703 DOWX	-0.3010
-4.2703 DOXI	-0.3010
-4.2703 DOXNG	-0.3010
-4.2703 DU	-0.3010
-4.2703 DUA	-0.3010
-4.2703 DUAAJT	-0.3010
-4.2703 DUEEFNH	-0.3010
-4.2703 DUEEJ	-0.3010
-4.2703 DUF	-0.3010
-4.2703 DUFI	-0.3010
-4.2703 DUFM	-0.3010
-4.2703 DUFNG	-0.3010
-4.2703 DUJ	-0.3010
-4.2703 DUJC	-0.3010
-4.2703 DUJM	-0.3010
-4.2703 DUJNG	-0.3010
-4.2703 DUNG	-0.3010
-4.2703 DUOOFN	-0.3010
-4.2703 DUOOSC	-0.3010
-4.2703 DUOOXI	-0.3010
-4.2703 DUSM	-0.3010
-4.2703 DUST	-0.3010
-4.2703 DUW	-0.3010
-4.2703 DUWA	-0.3010
-4.2703 DUWFA	-0.3010
-4.2703 DUWFNG	-0.3010
-4.2703 DUWJ	-0.3010
-4.2703 DUWJA	-0.3010
-4.2703 DUWJC	-0.3010
-4.2703 DUWJNG	-0.3010
-4.2703 DUWNG	-0.3010
-4.2703 DUWOWFNG	-0.3010
-4.2703 DUWOWJC	-0.3010
-4.2703 DUWOWJI	-0.3010
-4.2703 DUWOWJNG	-0.3010
-4.2703 DUWOWJT	-0.3010
-4.2703 DUWOWNG	-0.3010
-4.2703 DUWOWSI	-0.3010
-4.2703 DUWOWXNG	-0.3010
-4.2703 DUWRNG	-0.3010
-4.2703 DUWS	-0.3010
-4.2703 DUWSA	-0.3010
-4.2703 DUWST	-0.3010
-4.2703 DUWX	-0.3010
-4.2703 DUX	-0.3010
-4.2703 DUXA	-0.3010
-4.2703 DUXI	-0.3010
-4.2703 DUXNG	-0.3010
-4.2703 DUY	-0.3010
-4.2703 DUYEEJT	-0.3010
-4.2703 DUYEEN	-0.3010
-4.2703 DY	-0.3010
-4.2703 DYSN	-0.3010
-4.2703 EEFNH	-0.3010
-4.2703 EEJN	-0.3010
-4.2703 EEJP	-0.3010
-4.2703 EEM	-0.3010
-4.2703 EESCH	-0.3010
-4.2703 EESM	-0.3010
-4.2703 EESP	-0.3010
-4.2703 EEU	-0.3010
-4.2703 EEXNH	-0.3010
-4.2703 EFO	-0.3010
-4.2703 EJO	-0.3010
-4.2703 EJP	-0.3010
-4.2703 EJT	-0.3010
-4.2703 EM	-0.3010
-4.2703 EN	-0.3010
-4.2703 ENG	-0.3010
-4.2703 EO	-0.3010
-4.2703 ERN	-0.3010
-4.2703 ERO	-0.3010
-4.2703 ESC	-0.3010
-4.2703 ESM	-0.3010
-4.2703 ESN	-0.3010
-4.2703 ESO	-0.3010
-4.2703 ESP	-0.3010
-4.2703 EST	-0.3010
-4.2703 EXO	-0.3010
-4.2703 GA	-0.3010
-4.2703 GAAFM	-0.3010
-4.2703 GAAFN	-0.3010
-4.2703 GAAFU	-0.3010
-4.2703 GAAFY	-0.3010
-4.2703 GAAJM	-0.3010
-4.2703 GAAJN	-0.3010
-4.2703 GAAJP	-0.3010
-4.2703 GAAJT	-0.3010
-4.2703 GAAJY	-0.3010
-4.2703 GAAN	-0.3010
-4.2703 GAARM	-0.3010
-4.2703 GAASC	-0.3010
-4.2703 GAASM	-0.3010
-4.2703 GAASN	-0.3010
-4.2703 GAASP	-0.3010
-4.2703 GAASU	-0.3010
-4.2703 GAASY	-0.3010
-4.2703 GAAU	-0.3010
-4.2703 GAAXM	-0.3010
-4.2703 GAAXU	-0.3010
-4.2703 GAAXY	-0.3010
-4.2703 GAAY	-0.3010
-4.2703 GAF	-0.3010
-4.2703 GAFI	-0.3010
-4.2703 GAFN	-0.3010
-4.2703 GAFNG	-0.3010
-4.2703 GAFNH	-0.3010
-4.2703 GAFO	-0.3010
-4.2703 GAFU	-0.3010
-4.2703 GAFY	-0.3010
-4.2703 GAI	-0.3010
-4.2703 GAJ	-0.3010
-4.2703 GAJC	-0.3010
-4.2703 GAJCH	-0.3010
-4.2703 GAJN	-0.3010
-4.2703 GAJO	-0.3010
-4.2703 GAJT	-0.3010
-4.2703 GAJY	-0.3010
-4.2703 GAM	-0.3010
-4.2703 GAN	-0.3010
-4.2703 GANG	-0.3010
-4.2703 GANH	-0.3010
-4.2703 GAO	-0.3010
-4.2703 GAR	-0.3010
-4.2703 GARY	-0.3010
-4.2703 GAS	-0.3010
-4.2703 GASC	-0.3010
-4.2703 GASI	-0.3010
-4.2703 GASN	-0.3010
-4.2703 GASNH	-0.3010
-4.2703 GASO	-0.3010
-4.2703 GASP	-0.3010
-4.2703 GASU	-0.3010
-4.2703 GASY	-0.3010
-4.2703 GAU	-0.3010
-4.2703 GAWFM	-0.3010
-4.2703 GAWJC	-0.3010
-4.2703 GAWJM	-0.3010
-4.2703 GAWJNG	-0.3010
-4.2703 GAWJP	-0.3010
-4.2703 GAWJT	-0.3010
-4.2703 GAWM	-0.3010
-4.2703 GAWNG	-0.3010
-4.2703 GAWSM	-0.3010
-4.2703 GAWSN	-0.3010
-4.2703 GAWSNG	-0.3010
-4.2703 GAWSP	-0.3010
-4.2703 GAWST	-0.3010
-4.2703 GAX	-0.3010
-4.2703 GAXI	-0.3010
-4.2703 GAXY	-0.3010
-4.2703 GAY	-0.3010
-4.2703 GHE	-0.3010
-4.2703 GHEE	-0.3010
-4.2703 GHEEF	-0.3010
-4.2703 GHEEFNH	-0.3010
-4.2703 GHEEJ	-0.3010
-4.2703 GHEEJT	-0.3010
-4.2703 GHEERNH	-0.3010
-4.2703 GHEES	-0.3010
-4.2703 GHEESCH	-0.3010
-4.2703 GHEF	-0.3010
-4.2703 GHEFN	-0.3010
-4.2703 GHEJ	-0.3010
-4.2703 GHEJO	-0.3010
-4.2703 GHEN	-0.3010
-4.2703 GHER	-0.3010
-4.2703 GHES	-0.3010
-4.2703 GHESM	-0.3010
-4.2703 GHESP	-0.3010
-4.2703 GHEST	-0.3010
-4.2703 GHEX	-0.3010
-4.2703 GHI	-0.3010
-4.2703 GHIEEFN	-0.3010
-4.2703 GHIEESC	-0.3010
-4.2703 GHIF	-0.3010
-4.2703 GHIFM	-0.3010
-4.2703 GHIM	-0.3010
-4.2703 GHISN	-0.3010
-4.2703 GIA	-0.3010
-4.2703 GIAAFM	-0.3010
-4.2703 GIAAFN	-0.3010
-4.2703 GIAAFU	-0.3010
-4.2703 GIAAFY	-0.3010
-4.2703 GIAAJM	-0.3010
-4.2703 GIAAJN	-0.3010
-4.2703 GIAAJP	-0.3010
-4.2703 GIAAJT	-0.3010
-4.2703 GIAAJU	-0.3010
-4.2703 GIAASC	-0.3010
-4.2703 GIAASM	-0.3010
-4.2703 GIAASN	-0.3010
-4.2703 GIAASP	-0.3010
-4.2703 GIAASU	-0.3010
-4.2703 GIAASY	-0.3010
-4.2703 GIAAXM	-0.3010
-4.2703 GIAAXY	-0.3010
-4.2703 GIAAY	-0.3010
-4.2703 GIAF	-0.3010
-4.2703 GIAFN	-0.3010
-4.2703 GIAFNG	-0.3010
-4.2703 GIAFNH	-0.3010
-4.2703 GIAFO	-0.3010
-4.2703 GIAFU	-0.3010
-4.2703 GIAFY	-0.3010
-4.2703 GIAI	-0.3010
-4.2703 GIAJ	-0.3010
-4.2703 GIAJI	-0.3010
-4.2703 GIAJM	-0.3010
-4.2703 GIAJNG	-0.3010
-4.2703 GIAJT	-0.3010
-4.2703 GIAM	-0.3010
-4.2703 GIAN	-0.3010
-4.2703 GIANG	-0.3010
-4.2703 GIANH	-0.3010
-4.2703 GIAO	-0.3010
-4.2703 GIAR	-0.3010
-4.2703 GIARI	-0.3010
-4.2703 GIARM	-0.3010
-4.2703 GIARN	-0.3010
-4.2703 GIARNG	-0.3010
-4.2703 GIARNH	-0.3010
-4.2703 GIARO	-0.3010
-4.2703 GIARU	-0.3010
-4.2703 GIAS	-0.3010
-4.2703 GIASC	-0.3010
-4.2703 GIASM	-0.3010
-4.2703 GIASN	-0.3010
-4.2703 GIASNG	-0.3010
-4.2703 GIASO	-0.3010
-4.2703 GIASP	-0.3010
-4.2703 GIAST	-0.3010
-4.2703 GIAU	-0.3010
-4.2703 GIAWFM	-0.3010
-4.2703 GIAWFN	-0.3010
-4.2703 GIAWFNG	-0.3010
-4.2703 GIAWJC	-0.3010
-4.2703 GIAWJM	-0.3010
-4.2703 GIAWJN	-0.3010
-4.2703 GIAWJT	-0.3010
-4.2703 GIAWM	-0.3010
-4.2703 GIAWNG	-0.3010
-4.2703 GIAWST	-0.3010
-4.2703 GIAWXM	-0.3010
-4.2703 GIAX	-0.3010
-4.2703 GIAXI	-0.3010
-4.2703 GIAXN	-0.3010
-4.2703 GIAXY	-0.3010
-4.2703 GIEEF	-0.3010
-4.2703 GIEEFN	-0.3010
-4.2703 GIEEFNG	-0.3010
-4.2703 GIEESM	-0.3010
-4.2703 GIEESNG	-0.3010
-4.2703 GIEEST	-0.3010
-4.2703 GIEEXU	-0.3010
-4.2703 GIEFM	-0.3010
-4.2703 GIEJO	-0.3010
-4.2703 GIEJP	-0.3010
-4.2703 GIEO	-0.3010
-4.2703 GIER	-0.3010
-4.2703 GIES	-0.3010
-4.2703 GIESO	-0.3010
-4.2703 GIEX	-0.3010
-4.2703 GIF	-0.3010
-4.2703 GIFN	-0.3010
-4.2703 GIOF	-0.3010
-4.2703 GIOFI	-0.3010
-4.2703 GIOFN	-0.3010
-4.2703 GIOFNG	-0.3010
-4.2703 GIOJ	-0.3010
-4.2703 GIOJC	-0.3010
-4.2703 GIOJI	-0.3010
-4.2703 GIOJNG	-0.3010
-4.2703 GIOJT	-0.3010
-4.2703 GIONG	-0.3010
-4.2703 GIOOF	-0.3010
-4.2703 GIOOFI	-0.3010
-4.2703 GIOOFNG	-0.3010
-4.2703 GIOOJ	-0.3010
-4.2703 GIOOJI	-0.3010
-4.2703 GIOONG	-0.3010
-4.2703 GIOORI	-0.3010
-4.2703 GIOOSC	-0.3010
-4.2703 GIOOSI	-0.3010
-4.2703 GIOOSNG	-0.3010
-4.2703 GIOOST	-0.3010
-4.2703 GIOOX	-0.3010
-4.2703 GIOOXI	-0.3010
-4.2703 GIOR	-0.3010
-4.2703 GIORI	-0.3010
-4.2703 GIORN	-0.3010
-4.2703 GIORNG	-0.3010
-4.2703 GIOS	-0.3010
-4.2703 GIOSI	-0.3010
-4.2703 GIOSN	-0.3010
-4.2703 GIOSNG	-0.3010
-4.2703 GIOWF	-0.3010
-4.2703 GIOWFI	-0.3010
-4.2703 GIOWFN	-0.3010
-4.2703 GIOWR	-0.3010
-4.2703 GIOWSI	-0.3010
-4.2703 GIOWXN	-0.3010
-4.2703 GIR	-0.3010
-4.2703 GIS	-0.3010
-4.2703 GISCH	-0.3010
-4.2703 GIUA	-0.3010
-4.2703 GIUFI	-0.3010
-4.2703 GIUFM	-0.3010
-4.2703 GIUJA	-0.3010
-4.2703 GIUJC	-0.3010
-4.2703 GIUJI	-0.3010
-4.2703 GIUN	-0.3010
-4.2703 GIUOOJC	-0.3010
-4.2703 GIURI	-0.3010
-4.2703 GIUS	-0.3010
-4.2703 GIUSI	-0.3010
-4.2703 GIUSP	-0.3010
-4.2703 GIUWF	-0.3010
-4.2703 GIUWJT	-0.3010
-4.2703 GIUWOWFNG	-0.3010
-4.2703 GIUWOWNG	-0.3010
-4.2703 GIUWOWSNG	-0.3010
-4.2703 GIUWX	-0.3010
-4.2703 GIUWXA	-0.3010
-4.2703 GIUX	-0.3010
-4.2703 GIUXA	-0.3010
-4.2703 GO	-0.3010
-4.2703 GOF	-0.3010
-4.2703 GOFN	-0.3010
-4.2703 GOJ	-0.3010
-4.2703 GOJI	-0.3010
-4.2703 GOJN	-0.3010
-4.2703 GOJNG	-0.3010
-4.2703 GOJT	-0.3010
-4.2703 GOM	-0.3010
-4.2703 GON	-0.3010
-4.2703 GOO	-0.3010
-4.2703 GOOF	-0.3010
-4.2703 GOOFI	-0.3010
-4.2703 GOOFM	-0.3010
-4.2703 GOOFNG	-0.3010
-4.2703 GOOJC	-0.3010
-4.2703 GOOJI	-0.3010
-4.2703 GOOJP	-0.3010
-4.2703 GOOJT	-0.3010
-4.2703 GOOM	-0.3010
-4.2703 GOON	-0.3010
-4.2703 GOONG	-0.3010
-4.2703 GOOR	-0.3010
-4.2703 GOOSC	-0.3010
-4.2703 GOOSI	-0.3010
-4.2703 GOOSM	-0.3010
-4.2703 GOOX	-0.3010
-4.2703 GORI	-0.3010
-4.2703 GORNG	-0.3010
-4.2703 GOSA	-0.3010
-4.2703 GOSC	-0.3010
-4.2703 GOSI	-0.3010
-4.2703 GOSP	-0.3010
-4.2703 GOST	-0.3010
-4.2703 GOW	-0.3010
-4.2703 GOWF	-0.3010
-4.2703 GOWFM	-0.3010
-4.2703 GOWFN	-0.3010
-4.2703 GOWJI	-0.3010
-4.2703 GOWJN	-0.3010
-4.2703 GOWJT	-0.3010
-4.2703 GOWN	-0.3010
-4.2703 GOWR	-0.3010
-4.2703 GOWRI	-0.3010
-4.2703 GOWSM	-0.3010
-4.2703 GOWX	-0.3010
-4.2703 GOX	-0.3010
-4.2703 GU	-0.3010
-4.2703 GUF	-0.3010
-4.2703 GUFI	-0.3010
-4.2703 GUFN	-0.3010
-4.2703 GUFNG	-0.3010
-4.2703 GUJ	-0.3010
-4.2703 GUJC	-0.3010
-4.2703 GUJI	-0.3010
-4.2703 GUOOFNG	-0.3010
-4.2703 GUOOJC	-0.3010
-4.2703 GUOOJT	-0.3010
-4.2703 GUOOSC	-0.3010
-4.2703 GUST	-0.3010
-4.2703 GUWF	-0.3010
-4.2703 GUWFNG	-0.3010
-4.2703 GUWOWFM	-0.3010
-4.2703 GUWOWFNG	-0.3010
-4.2703 GUWOWJM	-0.3010
-4.2703 GUWOWJNG	-0.3010
-4.2703 GUWOWM	-0.3010
-4.2703 GUWOWNG	-0.3010
-4.2703 GUWOWXNG	-0.3010
-4.2703 GUWRI	-0.3010
-4.2703 GUWSNG	-0.3010
-4.2703 GUXI	-0.3010
-4.2703 HA	-0.3010
-4.2703 HAAFM	-0.3010
-4.2703 HAAFU	-0.3010
-4.2703 HAAFY	-0.3010
-4.2703 HAAJN	-0.3010
-4.2703 HAAJU	-0.3010
-4.2703 HAAM	-0.3010
-4.2703 HAAN	-0.3010
-4.2703 HAARM	-0.3010
-4.2703 HAARU	-0.3010
-4.2703 HAARY	-0.3010
-4.2703 HAASN	-0.3010
-4.2703 HAASP	-0.3010
-4.2703 HAAST	-0.3010
-4.2703 HAASU	-0.3010
-4.2703 HAAU	-0.3010
-4.2703 HAAXNG	-0.3010
-4.2703 HAF	-0.3010
-4.2703 HAFI	-0.3010
-4.2703 HAFM	-0.3010
-4.2703 HAFN	-0.3010
-4.2703 HAFNG	-0.3010
-4.2703 HAFNH	-0.3010
-4.2703 HAFO	-0.3010
-4.2703 HAFU	-0.3010
-4.2703 HAI	-0.3010
-4.2703 HAJ	-0.3010
-4.2703 HAJC	-0.3010
-4.2703 HAJCH	-0.3010
-4.2703 HAJI	-0.3010
-4.2703 HAJM	-0.3010
-4.2703 HAJN	-0.3010
-4.2703 HAJNG	-0.3010
-4.2703 HAJNH	-0.3010
-4.2703 HAJO	-0.3010
-4.2703 HAJP	-0.3010
-4.2703 HAJT	-0.3010
-4.2703 HAJY	-0.3010
-4.2703 HAM	-0.3010
-4.2703 HAN	-0.3010
-4.2703 HANG	-0.3010
-4.2703 HANH	-0.3010
-4.2703 HAO	-0.3010
-4.2703 HAR	-0.3010
-4.2703 HARI	-0.3010
-4.2703 HARNG	-0.3010
-4.2703 HARO	-0.3010
-4.2703 HAS	-0.3010
-4.2703 HASC	-0.3010
-4.2703 HASCH	-0.3010
-4.2703 HASI	-0.3010
-4.2703 HASM	-0.3010
-4.2703 HASN	-0.3010
-4.2703 HASNG	-0.3010
-4.2703 HASO	-0.3010
-4.2703 HASP	-0.3010
-4.2703 HAST	-0.3010
-4.2703 HASY	-0.3010
-4.2703 HAWFM	-0.3010
-4.2703 HAWFN	-0.3010
-4.2703 HAWFNG	-0.3010
-4.2703 HAWJC	-0.3010
-4.2703 HAWM	-0.3010
-4.2703 HAWNG	-0.3010
-4.2703 HAWRN	-0.3010
-4.2703 HAWSC	-0.3010
-4.2703 HAWSN	-0.3010
-4.2703 HAWSNG	-0.3010
-4.2703 HAWST	-0.3010
-4.2703 HAXI	-0.3010
-4.2703 HAXM	-0.3010
-4.2703 HAXN	-0.3010
-4.2703 HAXNG	-0.3010
-4.2703 HAXNH	-0.3010
-4.2703 HAXO	-0.3010
-4.2703 HAXY	-0.3010
-4.2703 HAY	-0.3010
-4.2703 HE	-0.3010
-4.2703 HEE	-0.3010
-4.2703 HEEF	-0.3010
-4.2703 HEEJ	-0.3010
-4.2703 HEEJCH	-0.3010
-4.2703 HEEJT	-0.3010
-4.2703 HEEN	-0.3010
-4.2703 HEENH	-0.3010
-4.2703 HEER	-0.3010
-4.2703 HEERN	-0.3010
-4.2703 HEERNH	-0.3010
-4.2703 HEESCH	-0.3010
-4.2703 HEESN	-0.3010
-4.2703 HEEST	-0.3010
-4.2703 HEESU	-0.3010
-4.2703 HEEX	-0.3010
-4.2703 HEF	-0.3010
-4.2703 HEFM	-0.3010
-4.2703 HEFN	-0.3010
-4.2703 HEFO	-0.3010
-4.2703 HEJ	-0.3010
-4.2703 HEJN	-0.3010
-4.2703 HEJP	-0.3010
-4.2703 HEJT	-0.3010
-4.2703 HEM	-0.3010
-4.2703 HEN	-0.3010
-4.2703 HEO	-0.3010
-4.2703 HERM	-0.3010
-4.2703 HERO	-0.3010
-4.2703 HES	-0.3010
-4.2703 HESC	-0.3010
-4.2703 HESO	-0.3010
-4.2703 HEST	-0.3010
-4.2703 HI	-0.3010
-4.2703 HIA	-0.3010
-4.2703 HIEEFM	-0.3010
-4.2703 HIEEFN	-0.3010
-4.2703 HIEEJN	-0.3010
-4.2703 HIEEJP	-0.3010
-4.2703 HIEEJU	-0.3010
-4.2703 HIEEN	-0.3010
-4.2703 HIEERM	-0.3010
-4.2703 HIEERN	-0.3010
-4.2703 HIEERU	-0.3010
-4.2703 HIEESM	-0.3010
-4.2703 HIEESN	-0.3010
-4.2703 HIEESNG	-0.3010
-4.2703 HIEESP	-0.3010
-4.2703 HIEESU	-0.3010
-4.2703 HIFNH	-0.3010
-4.2703 HIJCH	-0.3010
-4.2703 HIN	-0.3010
-4.2703 HIR	-0.3010
-4.2703 HIRNH	-0.3010
-4.2703 HIS	-0.3010
-4.2703 HISCH	-0.3010
-4.2703 HISP	-0.3010
-4.2703 HIST	-0.3010
-4.2703 HIU	-0.3010
-4.2703 HIX	-0.3010
-4.2703 HIXNH	-0.3010
-4.2703 HO	-0.3010
-4.2703 HOA	-0.3010
-4.2703 HOAF	-0.3010
-4.2703 HOAFI	-0.3010
-4.2703 HOAFN	-0.3010
-4.2703 HOAFNG	-0.3010
-4.2703 HOAFNH	-0.3010
-4.2703 HOAJ	-0.3010
-4.2703 HOAJCH	-0.3010
-4.2703 HOAJI	-0.3010
-4.2703 HOAJN	-0.3010
-4.2703 HOAJNH	-0.3010
-4.2703 HOAJT	-0.3010
-4.2703 HOAN	-0.3010
-4.2703 HOANG	-0.3010
-4.2703 HOAR	-0.3010
-4.2703 HOARNG	-0.3010
-4.2703 HOARNH	-0.3010
-4.2703 HOAS	-0.3010
-4.2703 HOASC	-0.3010
-4.2703 HOASN	-0.3010
-4.2703 HOASNH	-0.3010
-4.2703 HOASY	-0.3010
-4.2703 HOAWFNG	-0.3010
-4.2703 HOAWJC	-0.3010
-4.2703 HOAWNG	-0.3010
-4.2703 HOAWSC	-0.3010
-4.2703 HOAWSM	-0.3010
-4.2703 HOAWST	-0.3010
-4.2703 HOAWXNG	-0.3010
-4.2703 HOAXN	-0.3010
-4.2703 HOAY	-0.3010
-4.2703 HOE	-0.3010
-4.2703 HOEF	-0.3010
-4.2703 HOEJ	-0.3010
-4.2703 HOEJT	-0.3010
-4.2703 HOEN	-0.3010
-4.2703 HOERN	-0.3010
-4.2703 HOEST	-0.3010
-4.2703 HOF	-0.3010
-4.2703 HOFM	-0.3010
-4.2703 HOFN	-0.3010
-4.2703 HOFNG	-0.3010
-4.2703 HOI	-0.3010
-4.2703 HOJ	-0.3010
-4.2703 HOJC	-0.3010
-4.2703 HOJNG	-0.3010
-4.2703 HOJP	-0.3010
-4.2703 HOM	-0.3010
-4.2703 HON	-0.3010
-4.2703 HONG	-0.3010
-4.2703 HOO	-0.3010
-4.2703 HOOF	-0.3010
-4.2703 HOOFI	-0.3010
-4.2703 HOOFM	-0.3010
-4.2703 HOOFN	-0.3010
-4.2703 HOOFNG	-0.3010
-4.2703 HOOI	-0.3010
-4.2703 HOOJ	-0.3010
-4.2703 HOOJC	-0.3010
-4.2703 HOOJI	-0.3010
-4.2703 HOOJN	-0.3010
-4.2703 HOOJP	-0.3010
-4.2703 HOOJT	-0.3010
-4.2703 HOOM	-0.3010
-4.2703 HOON	-0.3010
-4.2703 HOONG	-0.3010
-4.2703 HOOR	-0.3010
-4.2703 HOORI	-0.3010
-4.2703 HOORN	-0.3010
-4.2703 HOORNG	-0.3010
-4.2703 HOOS	-0.3010
-4.2703 HOOSC	-0.3010
-4.2703 HOOSI	-0.3010
-4.2703 HOOSNG	-0.3010
-4.2703 HOOST	-0.3010
-4.2703 HOOX	-0.3010
-4.2703 HOOXM	-0.3010
-4.2703 HOOXN	-0.3010
-4.2703 HORI	-0.3010
-4.2703 HORM	-0.3010
-4.2703 HORN	-0.3010
-4.2703 HORNG	-0.3010
-4.2703 HOSC	-0.3010
-4.2703 HOSI	-0.3010
-4.2703 HOSM	-0.3010
-4.2703 HOSNG	-0.3010
-4.2703 HOSP	-0.3010
-4.2703 HOST	-0.3010
-4.2703 HOW	-0.3010
-4.2703 HOWF	-0.3010
-4.2703 HOWFI	-0.3010
-4.2703 HOWFN	-0.3010
-4.2703 HOWI	-0.3010
-4.2703 HOWJI	-0.3010
-4.2703 HOWJM	-0.3010
-4.2703 HOWJP	-0.3010
-4.2703 HOWJT	-0.3010
-4.2703 HOWN	-0.3010
-4.2703 HOWR	-0.3010
-4.2703 HOWRI	-0.3010
-4.2703 HOWS	-0.3010
-4.2703 HOWSN	-0.3010
-4.2703 HOWSP	-0.3010
-4.2703 HOWST	-0.3010
-4.2703 HOWXI	-0.3010
-4.2703 HOXM	-0.3010
-4.2703 HU	-0.3010
-4.2703 HUA	-0.3010
-4.2703 HUAAN	-0.3010
-4.2703 HUAASN	-0.3010
-4.2703 HUEE	-0.3010
-4.2703 HUEEF	-0.3010
-4.2703 HUEEJ	-0.3010
-4.2703 HUEENH	-0.3010
-4.2703 HUEES	-0.3010
-4.2703 HUEESCH	-0.3010
-4.2703 HUF	-0.3010
-4.2703 HUFA	-0.3010
-4.2703 HUFM	-0.3010
-4.2703 HUFN	-0.3010
-4.2703 HUFNG	-0.3010
-4.2703 HUJ	-0.3010
-4.2703 HUJC	-0.3010
-4.2703 HUJI	-0.3010
-4.2703 HUJM	-0.3010
-4.2703 HUJP	-0.3010
-4.2703 HUJT	-0.3010
-4.2703 HUM	-0.3010
-4.2703 HUN	-0.3010
-4.2703 HUNG	-0.3010
-4.2703 HUOOSNG	-0.3010
-4.2703 HUOW	-0.3010
-4.2703 HUOWXN	-0.3010
-4.2703 HUR	-0.3010
-4.2703 HURI	-0.3010
-4.2703 HURN	-0.3010
-4.2703 HUS	-0.3010
-4.2703 HUSC	-0.3010
-4.2703 HUSI	-0.3010
-4.2703 HUSNG	-0.3010
-4.2703 HUSP	-0.3010
-4.2703 HUST	-0.3010
-4.2703 HUSY	-0.3010
-4.2703 HUW	-0.3010
-4.2703 HUWF	-0.3010
-4.2703 HUWFA	-0.3010
-4.2703 HUWFNG	-0.3010
-4.2703 HUWJC	-0.3010
-4.2703 HUWJU	-0.3010
-4.2703 HUWNG	-0.3010
-4.2703 HUWOWFNG	-0.3010
-4.2703 HUWOWJM	-0.3010
-4.2703 HUWOWNG	-0.3010
-4.2703 HUWOWRNG	-0.3010
-4.2703 HUWOWSC	-0.3010
-4.2703 HUWOWSNG	-0.3010
-4.2703 HUWOWU	-0.3010
-4.2703 HUWR	-0.3010
-4.2703 HUWRNG	-0.3010
-4.2703 HUWS	-0.3010
-4.2703 HUWSA	-0.3010
-4.2703 HUWSC	-0.3010
-4.2703 HUWSNG	-0.3010
-4.2703 HUWU	-0.3010
-4.2703 HUWXNG	-0.3010
-4.2703 HUWXU	-0.3010
-4.2703 HUX	-0.3010
-4.2703 HUXM	-0.3010
-4.2703 HUY	-0.3010
-4.2703 HUYEEFN	-0.3010
-4.2703 HUYEEJN	-0.3010
-4.2703 HUYEEJT	-0.3010
-4.2703 HUYEEN	-0.3010
-4.2703 HUYEEST	-0.3010
-4.2703 HUYEEXN	-0.3010
-4.2703 HUYFNH	-0.3010
-4.2703 HUYJCH	-0.3010
-4.2703 HUYNH	-0.3010
-4.2703 HUYR	-0.3010
-4.2703 HUYSCH	-0.3010
-4.2703 HUYST	-0.3010
-4.2703 HY	-0.3010
-4.2703 HYR	-0.3010
-4.2703 IFN	-0.3010
-4.2703 IFNH	-0.3010
-4.2703 IJCH	-0.3010
-4.2703 IJN	-0.3010
-4.2703 IJT	-0.3010
-4.2703 IM	-0.3010
-4.2703 IN	-0.3010
-4.2703 INH	-0.3010
-4.2703 IRA	-0.3010
-4.2703 IRM	-0.3010
-4.2703 IRN	-0.3010
-4.2703 IRU	-0.3010
-4.2703 ISCH	-0.3010
-4.2703 ISN	-0.3010
-4.2703 IST	-0.3010
-4.2703 IXNH	-0.3010
-4.2703 KA	-0.3010
-4.2703 KAN	-0.3010
-4.2703 KAY	-0.3010
-4.2703 KE	-0.3010
-4.2703 KEE	-0.3010
-4.2703 KEEF	-0.3010
-4.2703 KEEFM	-0.3010
-4.2703 KEEFN	-0.3010
-4.2703 KEEFNH	-0.3010
-4.2703 KEEFU	-0.3010
-4.2703 KEEJ	-0.3010
-4.2703 KEEJCH	-0.3010
-4.2703 KEEJNH	-0.3010
-4.2703 KEEN	-0.3010
-4.2703 KEENG	-0.3010
-4.2703 KEENH	-0.3010
-4.2703 KEER	-0.3010
-4.2703 KEES	-0.3010
-4.2703 KEESCH	-0.3010
-4.2703 KEESP	-0.3010
-4.2703 KEEST	-0.3010
-4.2703 KEEU	-0.3010
-4.2703 KEEXNH	-0.3010
-4.2703 KEF	-0.3010
-4.2703 KEFM	-0.3010
-4.2703 KEFN	-0.3010
-4.2703 KEFO	-0.3010
-4.2703 KEJ	-0.3010
-4.2703 KEJO	-0.3010
-4.2703 KEJP	-0.3010
-4.2703 KEJT	-0.3010
-4.2703 KEM	-0.3010
-4.2703 KEN	-0.3010
-4.2703 KENG	-0.3010
-4.2703 KEO	-0.3010
-4.2703 KER	-0.3010
-4.2703 KERNG	-0.3010
-4.2703 KERO	-0.3010
-4.2703 KES	-0.3010
-4.2703 KESC	-0.3010
-4.2703 KESM	-0.3010
-4.2703 KESN	-0.3010
-4.2703 KESO	-0.3010
-4.2703 KESP	-0.3010
-4.2703 KEST	-0.3010
-4.2703 KEX	-0.3010
-4.2703 KEXM	-0.3010
-4.2703 KEXO	-0.3010
-4.2703 KHA	-0.3010
-4.2703 KHAAJP	-0.3010
-4.2703 KHAAM	-0.3010
-4.2703 KHAAN	-0.3010
-4.2703 KHAARN	-0.3010
-4.2703 KHAARU	-0.3010
-4.2703 KHAARY	-0.3010
-4.2703 KHAASC	-0.3010
-4.2703 KHAASN	-0.3010
-4.2703 KHAASP	-0.3010
-4.2703 KHAAST	-0.3010
-4.2703 KHAASU	-0.3010
-4.2703 KHAAU	-0.3010
-4.2703 KHAF	-0.3010
-4.2703 KHAFN	-0.3010
-4.2703 KHAI	-0.3010
-4.2703 KHAJ	-0.3010
-4.2703 KHAJC	-0.3010
-4.2703 KHAJNG	-0.3010
-4.2703 KHAJO	-0.3010
-4.2703 KHAJP	-0.3010
-4.2703 KHAM	-0.3010
-4.2703 KHAN	-0.3010
-4.2703 KHANG	-0.3010
-4.2703 KHANH	-0.3010
-4.2703 KHAO	-0.3010
-4.2703 KHAR	-0.3010
-4.2703 KHARI	-0.3010
-4.2703 KHARM	-0.3010
-4.2703 KHARN	-0.3010
-4.2703 KHARNG	-0.3010
-4.2703 KHARNH	-0.3010
-4.2703 KHARO	-0.3010
-4.2703 KHAS	-0.3010
-4.2703 KHASC	-0.3010
-4.2703 KHASCH	-0.3010
-4.2703 KHASI	-0.3010
-4.2703 KHASM	-0.3010
-4.2703 KHASN	-0.3010
-4.2703 KHASNG	-0.3010
-4.2703 KHASNH	-0.3010
-4.2703 KHASO	-0.3010
-4.2703 KHASP	-0.3010
-4.2703 KHAST	-0.3010
-4.2703 KHASU	-0.3010
-4.2703 KHASY	-0.3010
-4.2703 KHAU	-0.3010
-4.2703 KHAWJC	-0.3010
-4.2703 KHAWM	-0.3010
-4.2703 KHAWN	-0.3010
-4.2703 KHAWNG	-0.3010
-4.2703 KHAWRM	-0.3010
-4.2703 KHAWRN	-0.3010
-4.2703 KHAWRNG	-0.3010
-4.2703 KHAWSC	-0.3010
-4.2703 KHAWSM	-0.3010
-4.2703 KHAWSN	-0.3010
-4.2703 KHAWSP	-0.3010
-4.2703 KHAWST	-0.3010
-4.2703 KHAY	-0.3010
-4.2703 KHE	-0.3010
-4.2703 KHEE	-0.3010
-4.2703 KHEEF	-0.3010
-4.2703 KHEEFU	-0.3010
-4.2703 KHEEJ	-0.3010
-4.2703 KHEEJNH	-0.3010
-4.2703 KHEENH	-0.3010
-4.2703 KHEERNH	-0.3010
-4.2703 KHEES	-0.3010
-4.2703 KHEEU	-0.3010
-4.2703 KHEF	-0.3010
-4.2703 KHEFN	-0.3010
-4.2703 KHEFO	-0.3010
-4.2703 KHEJC	-0.3010
-4.2703 KHEM	-0.3010
-4.2703 KHEN	-0.3010
-4.2703 KHEO	-0.3010
-4.2703 KHES	-0.3010
-4.2703 KHESO	-0.3010
-4.2703 KHESP	-0.3010
-4.2703 KHEST	-0.3010
-4.2703 KHEX	-0.3010
-4.2703 KHI	-0.3010
-4.2703 KHIEEFN	-0.3010
-4.2703 KHIEEM	-0.3010
-4.2703 KHIEEN	-0.3010
-4.2703 KHIEENG	-0.3010
-4.2703 KHIEERN	-0.3010
-4.2703 KHIEESM	-0.3010
-4.2703 KHIEESN	-0.3010
-4.2703 KHIEESP	-0.3010
-4.2703 KHIEEST	-0.3010
-4.2703 KHIEESU	-0.3010
-4.2703 KHIEEU	-0.3010
-4.2703 KHIEEXNG	-0.3010
-4.2703 KHIF	-0.3010
-4.2703 KHIFN	-0.3010
-4.2703 KHIJA	-0.3010
-4.2703 KHIJT	-0.3010
-4.2703 KHIN	-0.3010
-4.2703 KHINH	-0.3010
-4.2703 KHIR	-0.3010
-4.2703 KHIRNH	-0.3010
-4.2703 KHIS	-0.3010
-4.2703 KHISA	-0.3010
-4.2703 KHISCH	-0.3010
-4.2703 KHIST	-0.3010
-4.2703 KHISU	-0.3010
-4.2703 KHIU	-0.3010
-4.2703 KHIXNH	-0.3010
-4.2703 KHO	-0.3010
-4.2703 KHOA	-0.3010
-4.2703 KHOAI	-0.3010
-4.2703 KHOAN	-0.3010
-4.2703 KHOANG	-0.3010
-4.2703 KHOANH	-0.3010
-4.2703 KHOARI	-0.3010
-4.2703 KHOARN	-0.3010
-4.2703 KHOARNG	-0.3010
-4.2703 KHOARNH	-0.3010
-4.2703 KHOAS	-0.3010
-4.2703 KHOASC	-0.3010
-4.2703 KHOASI	-0.3010
-4.2703 KHOASN	-0.3010
-4.2703 KHOASNG	-0.3010
-4.2703 KHOAST	-0.3010
-4.2703 KHOASY	-0.3010
-4.2703 KHOAWFM	-0.3010
-4.2703 KHOAWM	-0.3010
-4.2703 KHOAWN	-0.3010
-4.2703 KHOAWSN	-0.3010
-4.2703 KHOAWSNG	-0.3010
-4.2703 KHOAWST	-0.3010
-4.2703 KHOE	-0.3010
-4.2703 KHOEFO	-0.3010
-4.2703 KHOEO	-0.3010
-4.2703 KHOER	-0.3010
-4.2703 KHOES	-0.3010
-4.2703 KHOEST	-0.3010
-4.2703 KHOF	-0.3010
-4.2703 KHOFM	-0.3010
-4.2703 KHOI	-0.3010
-4.2703 KHOJM	-0.3010
-4.2703 KHOM	-0.3010
-4.2703 KHOO	-0.3010
-4.2703 KHOOI	-0.3010
-4.2703 KHOON	-0.3010
-4.2703 KHOONG	-0.3010
-4.2703 KHOOOOSNG	-0.3010
-4.2703 KHOOR	-0.3010
-4.2703 KHOORN	-0.3010
-4.2703 KHOORNG	-0.3010
-4.2703 KHOOS	-0.3010
-4.2703 KHOOSC	-0.3010
-4.2703 KHOOSI	-0.3010
-4.2703 KHOOSN	-0.3010
-4.2703 KHOOSNG	-0.3010
-4.2703 KHORA	-0.3010
-4.2703 KHORI	-0.3010
-4.2703 KHORNG	-0.3010
-4.2703 KHOS	-0.3010
-4.2703 KHOSC	-0.3010
-4.2703 KHOSI	-0.3010
-4.2703 KHOSM	-0.3010
-4.2703 KHOW	-0.3010
-4.2703 KHOWF	-0.3010
-4.2703 KHOWI	-0.3010
-4.2703 KHOWRI	-0.3010
-4.2703 KHOWS	-0.3010
-4.2703 KHOWSP	-0.3010
-4.2703 KHU	-0.3010
-4.2703 KHUA	-0.3010
-4.2703 KHUAAN	-0.3010
-4.2703 KHUAANG	-0.3010
-4.2703 KHUAARN	-0.3010
-4.2703 KHUAAST	-0.3010
-4.2703 KHUAASY	-0.3010
-4.2703 KHUAAY	-0.3010
-4.2703 KHUEE	-0.3010
-4.2703 KHUEESCH	-0.3010
-4.2703 KHUF	-0.3010
-4.2703 KHUFA	-0.3010
-4.2703 KHUFNG	-0.3010
-4.2703 KHUI	-0.3010
-4.2703 KHUJ	-0.3010
-4.2703 KHUJC	-0.3010
-4.2703 KHUJT	-0.3010
-4.2703 KHUM	-0.3010
-4.2703 KHUNG	-0.3010
-4.2703 KHUOON	-0.3010
-4.2703 KHUOONG	-0.3010
-4.2703 KHUR	-0.3010
-4.2703 KHURA	-0.3010
-4.2703 KHURNG	-0.3010
-4.2703 KHUS	-0.3010
-4.2703 KHUSC	-0.3010
-4.2703 KHUSM	-0.3010
-4.2703 KHUW	-0.3010
-4.2703 KHUWF	-0.3010
-4.2703 KHUWFA	-0.3010
-4.2703 KHUWFNG	-0.3010
-4.2703 KHUWJA	-0.3010
-4.2703 KHUWOWN	-0.3010
-4.2703 KHUWOWNG	-0.3010
-4.2703 KHUWOWSC	-0.3010
-4.2703 KHUWOWST	-0.3010
-4.2703 KHUWOWSU	-0.3010
-4.2703 KHUWR	-0.3010
-4.2703 KHUWS	-0.3010
-4.2703 KHUWSA	-0.3010
-4.2703 KHUWSNG	-0.3010
-4.2703 KHUWSU	-0.3010
-4.2703 KHUY	-0.3010
-4.2703 KHUYA	-0.3010
-4.2703 KHUYEEN	-0.3010
-4.2703 KHUYEERN	-0.3010
-4.2703 KHUYEESN	-0.3010
-4.2703 KHUYEEST	-0.3010
-4.2703 KHUYFNH	-0.3010
-4.2703 KHUYJU	-0.3010
-4.2703 KHUYNH	-0.3010
-4.2703 KHUYRU	-0.3010
-4.2703 KI	-0.3010
-4.2703 KIA	-0.3010
-4.2703 KIEEFM	-0.3010
-4.2703 KIEEFN	-0.3010
-4.2703 KIEEFNG	-0.3010
-4.2703 KIEEFU	-0.3010
-4.2703 KIEEJM	-0.3010
-4.2703 KIEEJN	-0.3010
-4.2703 KIEEJT	-0.3010
-4.2703 KIEEJU	-0.3010
-4.2703 KIEEM	-0.3010
-4.2703 KIEEN	-0.3010
-4.2703 KIEENG	-0.3010
-4.2703 KIEERM	-0.3010
-4.2703 KIEERNG	-0.3010
-4.2703 KIEERU	-0.3010
-4.2703 KIEESM	-0.3010
-4.2703 KIEESN	-0.3010
-4.2703 KIEESP	-0.3010
-4.2703 KIEEST	-0.3010
-4.2703 KIEESU	-0.3010
-4.2703 KIEEU	-0.3010
-4.2703 KIEEXNG	-0.3010
-4.2703 KIF	-0.3010
-4.2703 KIFA	-0.3010
-4.2703 KIFM	-0.3010
-4.2703 KIFN	-0.3010
-4.2703 KIFNH	-0.3010
-4.2703 KIJ	-0.3010
-4.2703 KIJCH	-0.3010
-4.2703 KIJP	-0.3010
-4.2703 KIJT	-0.3010
-4.2703 KIM	-0.3010
-4.2703 KINH	-0.3010
-4.2703 KIR	-0.3010
-4.2703 KIRNH	-0.3010
-4.2703 KIS	-0.3010
-4.2703 KISCH	-0.3010
-4.2703 KISN	-0.3010
-4.2703 KISNH	-0.3010
-4.2703 KISP	-0.3010
-4.2703 KIXU	-0.3010
-4.2703 KOST	-0.3010
-4.2703 KOWI	-0.3010
-4.2703 KU	-0.3010
-4.2703 KUEENH	-0.3010
-4.2703 KUNG	-0.3010
-4.2703 KY	-0.3010
-4.2703 KYF	-0.3010
-4.2703 KYJ	-0.3010
-4.2703 KYR	-0.3010
-4.2703 KYS	-0.3010
-4.2703 KYX	-0.3010
-4.2703 LA	-0.3010
-4.2703 LAAFM	-0.3010
-4.2703 LAAFN	-0.3010
-4.2703 LAAFU	-0.3010
-4.2703 LAAFY	-0.3010
-4.2703 LAAJN	-0.3010
-4.2703 LAAJP	-0.3010
-4.2703 LAAJT	-0.3010
-4.2703 LAAJU	-0.3010
-4.2703 LAAM	-0.3010
-4.2703 LAAN	-0.3010
-4.2703 LAANG	-0.3010
-4.2703 LAARM	-0.3010
-4.2703 LAARN	-0.3010
-4.2703 LAARY	-0.3010
-4.2703 LAASC	-0.3010
-4.2703 LAASM	-0.3010
-4.2703 LAASN	-0.3010
-4.2703 LAASP	-0.3010
-4.2703 LAAST	-0.3010
-4.2703 LAASY	-0.3010
-4.2703 LAAU	-0.3010
-4.2703 LAAXM	-0.3010
-4.2703 LAAXN	-0.3010
-4.2703 LAAXY	-0.3010
-4.2703 LAAY	-0.3010
-4.2703 LAF	-0.3010
-4.2703 LAFI	-0.3010
-4.2703 LAFM	-0.3010
-4.2703 LAFN	-0.3010
-4.2703 LAFNG	-0.3010
-4.2703 LAFNH	-0.3010
-4.2703 LAFO	-0.3010
-4.2703 LAFU	-0.3010
-4.2703 LAI	-0.3010
-4.2703 LAJ	-0.3010
-4.2703 LAJC	-0.3010
-4.2703 LAJCH	-0.3010
-4.2703 LAJI	-0.3010
-4.2703 LAJM	-0.3010
-4.2703 LAJN	-0.3010
-4.2703 LAJNG	-0.3010
-4.2703 LAJNH	-0.3010
-4.2703 LAJO	-0.3010
-4.2703 LAJP	-0.3010
-4.2703 LAJT	-0.3010
-4.2703 LAJY	-0.3010
-4.2703 LAM	-0.3010
-4.2703 LAN	-0.3010
-4.2703 LANG	-0.3010
-4.2703 LANH	-0.3010
-4.2703 LAO	-0.3010
-4.2703 LAR	-0.3010
-4.2703 LARI	-0.3010
-4.2703 LARM	-0.3010
-4.2703 LARNG	-0.3010
-4.2703 LARNH	-0.3010
-4.2703 LARO	-0.3010
-4.2703 LARU	-0.3010
-4.2703 LARY	-0.3010
-4.2703 LAS	-0.3010
-4.2703 LASC	-0.3010
-4.2703 LASCH	-0.3010
-4.2703 LASI	-0.3010
-4.2703 LASN	-0.3010
-4.2703 LASNG	-0.3010
-4.2703 LASNH	-0.3010
-4.2703 LASO	-0.3010
-4.2703 LASP	-0.3010
-4.2703 LAST	-0.3010
-4.2703 LASU	-0.3010
-4.2703 LASY	-0.3010
-4.2703 LAU	-0.3010
-4.2703 LAWFN	-0.3010
-4.2703 LAWFNG	-0.3010
-4.2703 LAWJC	-0.3010
-4.2703 LAWJM	-0.3010
-4.2703 LAWJN	-0.3010
-4.2703 LAWJNG	-0.3010
-4.2703 LAWJP	-0.3010
-4.2703 LAWJT	-0.3010
-4.2703 LAWM	-0.3010
-4.2703 LAWN	-0.3010
-4.2703 LAWNG	-0.3010
-4.2703 LAWRM	-0.3010
-4.2703 LAWRN	-0.3010
-4.2703 LAWRNG	-0.3010
-4.2703 LAWSC	-0.3010
-4.2703 LAWSM	-0.3010
-4.2703 LAWSNG	-0.3010
-4.2703 LAWSP	-0.3010
-4.2703 LAWST	-0.3010
-4.2703 LAWXNG	-0.3010
-4.2703 LAX	-0.3010
-4.2703 LAXI	-0.3010
-4.2703 LAXM	-0.3010
-4.2703 LAXN	-0.3010
-4.2703 LAXNG	-0.3010
-4.2703 LAXNH	-0.3010
-4.2703 LAXO	-0.3010
-4.2703 LAY	-0.3010
-4.2703 LE	-0.3010
-4.2703 LEE	-0.3010
-4.2703 LEEF	-0.3010
-4.2703 LEEFNH	-0.3010
-4.2703 LEEFU	-0.3010
-4.2703 LEEJ	-0.3010
-4.2703 LEEJCH	-0.3010
-4.2703 LEEJNH	-0.3010
-4.2703 LEEJT	-0.3010
-4.2703 LEEN	-0.3010
-4.2703 LEENH	-0.3010
-4.2703 LEER	-0.3010
-4.2703 LEERU	-0.3010
-4.2703 LEESCH	-0.3010
-4.2703 LEEST	-0.3010
-4.2703 LEESU	-0.3010
-4.2703 LEEU	-0.3010
-4.2703 LEEX	-0.3010
-4.2703 LEEXU	-0.3010
-4.2703 LEF	-0.3010
-4.2703 LEFM	-0.3010
-4.2703 LEFN	-0.3010
-4.2703 LEFNG	-0.3010
-4.2703 LEFO	-0.3010
-4.2703 LEJ	-0.3010
-4.2703 LEJM	-0.3010
-4.2703 LEJN	-0.3010
-4.2703 LEJO	-0.3010
-4.2703 LEJP	-0.3010
-4.2703 LEJT	-0.3010
-4.2703 LEM	-0.3010
-4.2703 LEN	-0.3010
-4.2703 LENG	-0.3010
-4.2703 LEO	-0.3010
-4.2703 LER	-0.3010
-4.2703 LERN	-0.3010
-4.2703 LERNG	-0.3010
-4.2703 LERO	-0.3010
-4.2703 LES	-0.3010
-4.2703 LESM	-0.3010
-4.2703 LESN	-0.3010
-4.2703 LESNG	-0.3010
-4.2703 LESO	-0.3010
-4.2703 LESP	-0.3010
-4.2703 LEST	-0.3010
-4.2703 LEX	-0.3010
-4.2703 LEXN	-0.3010
-4.2703 LEXO	-0.3010
-4.2703 LI	-0.3010
-4.2703 LIA	-0.3010
-4.2703 LIEEFM	-0.3010
-4.2703 LIEEFN	-0.3010
-4.2703 LIEEFNG	-0.3010
-4.2703 LIEEFU	-0.3010
-4.2703 LIEEJM	-0.3010
-4.2703 LIEEJNG	-0.3010
-4.2703 LIEEJP	-0.3010
-4.2703 LIEEJT	-0.3010
-4.2703 LIEEJU	-0.3010
-4.2703 LIEEM	-0.3010
-4.2703 LIEEN	-0.3010
-4.2703 LIEENG	-0.3010
-4.2703 LIEERNG	-0.3010
-4.2703 LIEESC	-0.3010
-4.2703 LIEESM	-0.3010
-4.2703 LIEESN	-0.3010
-4.2703 LIEESP	-0.3010
-4.2703 LIEESU	-0.3010
-4.2703 LIEEU	-0.3010
-4.2703 LIEEXM	-0.3010
-4.2703 LIEEXN	-0.3010
-4.2703 LIEEXU	-0.3010
-4.2703 LIF	-0.3010
-4.2703 LIFA	-0.3010
-4.2703 LIFM	-0.3010
-4.2703 LIFN	-0.3010
-4.2703 LIFNH	-0.3010
-4.2703 LIFU	-0.3010
-4.2703 LIJ	-0.3010
-4.2703 LIJA	-0.3010
-4.2703 LIJCH	-0.3010
-4.2703 LIJM	-0.3010
-4.2703 LIJNH	-0.3010
-4.2703 LIJU	-0.3010
-4.2703 LIM	-0.3010
-4.2703 LIN	-0.3010
-4.2703 LINH	-0.3010
-4.2703 LIRNH	-0.3010
-4.2703 LIS	-0.3010
-4.2703 LISCH	-0.3010
-4.2703 LISNH	-0.3010
-4.2703 LISP	-0.3010
-4.2703 LIST	-0.3010
-4.2703 LISU	-0.3010
-4.2703 LIU	-0.3010
-4.2703 LIXNH	-0.3010
-4.2703 LO	-0.3010
-4.2703 LOA	-0.3010
-4.2703 LOAF	-0.3010
-4.2703 LOAFI	-0.3010
-4.2703 LOAFN	-0.3010
-4.2703 LOAFNG	-0.3010
-4.2703 LOAI	-0.3010
-4.2703 LOAJC	-0.3010
-4.2703 LOAJI	-0.3010
-4.2703 LOAJN	-0.3010
-4.2703 LOAJNG	-0.3010
-4.2703 LOAJT	-0.3010
-4.2703 LOAN	-0.3010
-4.2703 LOANG	-0.3010
-4.2703 LOANH	-0.3010
-4.2703 LOARNG	-0.3010
-4.2703 LOASN	-0.3010
-4.2703 LOASNG	-0.3010
-4.2703 LOAST	-0.3010
-4.2703 LOAWFNG	-0.3010
-4.2703 LOAWN	-0.3010
-4.2703 LOAWNG	-0.3010
-4.2703 LOAWST	-0.3010
-4.2703 LOAXNG	-0.3010
-4.2703 LOAY	-0.3010
-4.2703 LOE	-0.3010
-4.2703 LOEF	-0.3010
-4.2703 LOEJT	-0.3010
-4.2703 LOEST	-0.3010
-4.2703 LOF	-0.3010
-4.2703 LOFI	-0.3010
-4.2703 LOFM	-0.3010
-4.2703 LOFN	-0.3010
-4.2703 LOFNG	-0.3010
-4.2703 LOI	-0.3010
-4.2703 LOJ	-0.3010
-4.2703 LOJC	-0.3010
-4.2703 LOJI	-0.3010
-4.2703 LOJM	-0.3010
-4.2703 LOJN	-0.3010
-4.2703 LOJNG	-0.3010
-4.2703 LOJT	-0.3010
-4.2703 LOM	-0.3010
-4.2703 LON	-0.3010
-4.2703 LONG	-0.3010
-4.2703 LOO	-0.3010
-4.2703 LOOF	-0.3010
-4.2703 LOOFI	-0.3010
-4.2703 LOOFM	-0.3010
-4.2703 LOOFN	-0.3010
-4.2703 LOOFNG	-0.3010
-4.2703 LOOI	-0.3010
-4.2703 LOOJ	-0.3010
-4.2703 LOOJC	-0.3010
-4.2703 LOOJI	-0.3010
-4.2703 LOOJM	-0.3010
-4.2703 LOOJN	-0.3010
-4.2703 LOOJNG	-0.3010
-4.2703 LOOJP	-0.3010
-4.2703 LOOJT	-0.3010
-4.2703 LOOM	-0.3010
-4.2703 LOON	-0.3010
-4.2703 LOONG	-0.3010
-4.2703 LOOR	-0.3010
-4.2703 LOORM	-0.3010
-4.2703 LOORN	-0.3010
-4.2703 LOORNG	-0.3010
-4.2703 LOOS	-0.3010
-4.2703 LOOSC	-0.3010
-4.2703 LOOSI	-0.3010
-4.2703 LOOSM	-0.3010
-4.2703 LOOSN	-0.3010
-4.2703 LOOSP	-0.3010
-4.2703 LOOST	-0.3010
-4.2703 LOOX	-0.3010
-4.2703 LOOXI	-0.3010
-4.2703 LORA	-0.3010
-4.2703 LORI	-0.3010
-4.2703 LORM	-0.3010
-4.2703 LORN	-0.3010
-4.2703 LORNG	-0.3010
-4.2703 LOS	-0.3010
-4.2703 LOSA	-0.3010
-4.2703 LOSC	-0.3010
-4.2703 LOSE	-0.3010
-4.2703 LOSI	-0.3010
-4.2703 LOSM	-0.3010
-4.2703 LOSNG	-0.3010
-4.2703 LOSP	-0.3010
-4.2703 LOST	-0.3010
-4.2703 LOW	-0.3010
-4.2703 LOWF	-0.3010
-4.2703 LOWFI	-0.3010
-4.2703 LOWFM	-0.3010
-4.2703 LOWFN	-0.3010
-4.2703 LOWI	-0.3010
-4.2703 LOWJ	-0.3010
-4.2703 LOWJI	-0.3010
-4.2703 LOWJM	-0.3010
-4.2703 LOWJN	-0.3010
-4.2703 LOWJP	-0.3010
-4.2703 LOWJT	-0.3010
-4.2703 LOWN	-0.3010
-4.2703 LOWNG	-0.3010
-4.2703 LOWR	-0.3010
-4.2703 LOWRM	-0.3010
-4.2703 LOWRN	-0.3010
-4.2703 LOWS	-0.3010
-4.2703 LOWSI	-0.3010
-4.2703 LOWSN	-0.3010
-4.2703 LOWSP	-0.3010
-4.2703 LOWST	-0.3010
-4.2703 LOWX	-0.3010
-4.2703 LOWXI	-0.3010
-4.2703 LOWXM	-0.3010
-4.2703 LOX	-0.3010
-4.2703 LOXA	-0.3010
-4.2703 LOXI	-0.3010
-4.2703 LOXM	-0.3010
-4.2703 LOXNG	-0.3010
-4.2703 LU	-0.3010
-4.2703 LUAAJN	-0.3010
-4.2703 LUAAJT	-0.3010
-4.2703 LUAAN	-0.3010
-4.2703 LUAARN	-0.3010
-4.2703 LUAASN	-0.3010
-4.2703 LUF	-0.3010
-4.2703 LUFA	-0.3010
-4.2703 LUFI	-0.3010
-4.2703 LUFM	-0.3010
-4.2703 LUFN	-0.3010
-4.2703 LUFNG	-0.3010
-4.2703 LUI	-0.3010
-4.2703 LUJ	-0.3010
-4.2703 LUJA	-0.3010
-4.2703 LUJC	-0.3010
-4.2703 LUJI	-0.3010
-4.2703 LUJN	-0.3010
-4.2703 LUJNG	-0.3010
-4.2703 LUJP	-0.3010
-4.2703 LUJT	-0.3010
-4.2703 LUM	-0.3010
-4.2703 LUNG	-0.3010
-4.2703 LUOOFN	-0.3010
-4.2703 LUOOFNG	-0.3010
-4.2703 LUOOJC	-0.3010
-4.2703 LUOOJM	-0.3010
-4.2703 LUOOM	-0.3010
-4.2703 LUOON	-0.3010
-4.2703 LUOONG	-0.3010
-4.2703 LUOOSC	-0.3010
-4.2703 LUOOSNG	-0.3010
-4.2703 LUOOXNG	-0.3010
-4.2703 LUR	-0.3010
-4.2703 LURI	-0.3010
-4.2703 LURM	-0.3010
-4.2703 LURN	-0.3010
-4.2703 LURNG	-0.3010
-4.2703 LUS	-0.3010
-4.2703 LUSA	-0.3010
-4.2703 LUSC	-0.3010
-4.2703 LUSI	-0.3010
-4.2703 LUSM	-0.3010
-4.2703 LUSN	-0.3010
-4.2703 LUSNG	-0.3010
-4.2703 LUSP	-0.3010
-4.2703 LUST	-0.3010
-4.2703 LUW	-0.3010
-4.2703 LUWA	-0.3010
-4.2703 LUWF	-0.3010
-4.2703 LUWFA	-0.3010
-4.2703 LUWFNG	-0.3010
-4.2703 LUWJ	-0.3010
-4.2703 LUWJA	-0.3010
-4.2703 LUWJC	-0.3010
-4.2703 LUWJNG	-0.3010
-4.2703 LUWJU	-0.3010
-4.2703 LUWNG	-0.3010
-4.2703 LUWOWFI	-0.3010
-4.2703 LUWOWFM	-0.3010
-4.2703 LUWOWFN	-0.3010
-4.2703 LUWOWFNG	-0.3010
-4.2703 LUWOWJC	-0.3010
-4.2703 LUWOWJM	-0.3010
-4.2703 LUWOWJN	-0.3010
-4.2703 LUWOWJNG	-0.3010
-4.2703 LUWOWJT	-0.3010
-4.2703 LUWOWM	-0.3010
-4.2703 LUWOWN	-0.3010
-4.2703 LUWOWNG	-0.3010
-4.2703 LUWOWSI	-0.3010
-4.2703 LUWOWST	-0.3010
-4.2703 LUWOWXI	-0.3010
-4.2703 LUWOWXNG	-0.3010
-4.2703 LUWR	-0.3010
-4.2703 LUWRA	-0.3010
-4.2703 LUWRNG	-0.3010
-4.2703 LUWSA	-0.3010
-4.2703 LUWSC	-0.3010
-4.2703 LUWU	-0.3010
-4.2703 LUWX	-0.3010
-4.2703 LUWXA	-0.3010
-4.2703 LUWXNG	-0.3010
-4.2703 LUX	-0.3010
-4.2703 LUXA	-0.3010
-4.2703 LUXM	-0.3010
-4.2703 LUXN	-0.3010
-4.2703 LUXNG	-0.3010
-4.2703 LUXY	-0.3010
-4.2703 LUYEEJN	-0.3010
-4.2703 LUYEESN	-0.3010
-4.2703 LUYJ	-0.3010
-4.2703 LUYS	-0.3010
-4.2703 LUYX	-0.3010
-4.2703 LY	-0.3010
-4.2703 LYJ	-0.3010
-4.2703 LYS	-0.3010
-4.2703 LYX	-0.3010
-4.2703 MA	-0.3010
-4.2703 MAAFM	-0.3010
-4.2703 MAAFN	-0.3010
-4.2703 MAAFNG	-0.3010
-4.2703 MAAFU	-0.3010
-4.2703 MAAJN	-0.3010
-4.2703 MAAJP	-0.3010
-4.2703 MAAJT	-0.3010
-4.2703 MAAJU	-0.3010
-4.2703 MAAM	-0.3010
-4.2703 MAAN	-0.3010
-4.2703 MAANG	-0.3010
-4.2703 MAARM	-0.3010
-4.2703 MAARN	-0.3010
-4.2703 MAARU	-0.3010
-4.2703 MAARY	-0.3010
-4.2703 MAASM	-0.3010
-4.2703 MAASN	-0.3010
-4.2703 MAASP	-0.3010
-4.2703 MAAST	-0.3010
-4.2703 MAASU	-0.3010
-4.2703 MAASY	-0.3010
-4.2703 MAAU	-0.3010
-4.2703 MAAXM	-0.3010
-4.2703 MAAXN	-0.3010
-4.2703 MAAXU	-0.3010
-4.2703 MAAY	-0.3010
-4.2703 MAF	-0.3010
-4.2703 MAFI	-0.3010
-4.2703 MAFN	-0.3010
-4.2703 MAFNG	-0.3010
-4.2703 MAFNH	-0.3010
-4.2703 MAFO	-0.3010
-4.2703 MAFU	-0.3010
-4.2703 MAFY	-0.3010
-4.2703 MAI	-0.3010
-4.2703 MAJ	-0.3010
-4.2703 MAJC	-0.3010
-4.2703 MAJCH	-0.3010
-4.2703 MAJI	-0.3010
-4.2703 MAJN	-0.3010
-4.2703 MAJNG	-0.3010
-4.2703 MAJNH	-0.3010
-4.2703 MAJO	-0.3010
-4.2703 MAJP	-0.3010
-4.2703 MAJT	-0.3010
-4.2703 MAJY	-0.3010
-4.2703 MAN	-0.3010
-4.2703 MANG	-0.3010
-4.2703 MANH	-0.3010
-4.2703 MAO	-0.3010
-4.2703 MAR	-0.3010
-4.2703 MARI	-0.3010
-4.2703 MARNG	-0.3010
-4.2703 MARNH	-0.3010
-4.2703 MARY	-0.3010
-4.2703 MAS	-0.3010
-4.2703 MASC	-0.3010
-4.2703 MASCH	-0.3010
-4.2703 MASI	-0.3010
-4.2703 MASN	-0.3010
-4.2703 MASNG	-0.3010
-4.2703 MASNH	-0.3010
-4.2703 MASO	-0.3010
-4.2703 MAST	-0.3010
-4.2703 MASU	-0.3010
-4.2703 MASY	-0.3010
-4.2703 MAU	-0.3010
-4.2703 MAWFN	-0.3010
-4.2703 MAWJC	-0.3010
-4.2703 MAWJN	-0.3010
-4.2703 MAWJT	-0.3010
-4.2703 MAWM	-0.3010
-4.2703 MAWNG	-0.3010
-4.2703 MAWRN	-0.3010
-4.2703 MAWSC	-0.3010
-4.2703 MAWSM	-0.3010
-4.2703 MAWSN	-0.3010
-4.2703 MAWSNG	-0.3010
-4.2703 MAWST	-0.3010
-4.2703 MAX	-0.3010
-4.2703 MAXI	-0.3010
-4.2703 MAXN	-0.3010
-4.2703 MAXNG	-0.3010
-4.2703 MAXNH	-0.3010
-4.2703 MAXO	-0.3010
-4.2703 MAY	-0.3010
-4.2703 ME	-0.3010
-4.2703 MEE	-0.3010
-4.2703 MEEF	-0.3010
-4.2703 MEEFM	-0.3010
-4.2703 MEEFN	-0.3010
-4.2703 MEEJ	-0.3010
-4.2703 MEEJNH	-0.3010
-4.2703 MEEJT	-0.3010
-4.2703 MEENH	-0.3010
-4.2703 MEES	-0.3010
-4.2703 MEESCH	-0.3010
-4.2703 MEESN	-0.3010
-4.2703 MEESU	-0.3010
-4.2703 MEEX	-0.3010
-4.2703 MEF	-0.3010
-4.2703 MEFM	-0.3010
-4.2703 MEFN	-0.3010
-4.2703 MEFNG	-0.3010
-4.2703 MEFO	-0.3010
-4.2703 MEJ	-0.3010
-4.2703 MEJO	-0.3010
-4.2703 MEJP	-0.3010
-4.2703 MEJT	-0.3010
-4.2703 MEM	-0.3010
-4.2703 MEN	-0.3010
-4.2703 MEO	-0.3010
-4.2703 MER	-0.3010
-4.2703 MERO	-0.3010
-4.2703 MES	-0.3010
-4.2703 MESM	-0.3010
-4.2703 MESN	-0.3010
-4.2703 MESO	-0.3010
-4.2703 MESP	-0.3010
-4.2703 MEST	-0.3010
-4.2703 MEX	-0.3010
-4.2703 MEXO	-0.3010
-4.2703 MI	-0.3010
-4.2703 MIEEFN	-0.3010
-4.2703 MIEEFU	-0.3010
-4.2703 MIEEJN	-0.3010
-4.2703 MIEEJNG	-0.3010
-4.2703 MIEEJT	-0.3010
-4.2703 MIEEN	-0.3010
-4.2703 MIEENG	-0.3010
-4.2703 MIEESN	-0.3010
-4.2703 MIEESNG	-0.3010
-4.2703 MIEEST	-0.3010
-4.2703 MIEESU	-0.3010
-4.2703 MIEEU	-0.3010
-4.2703 MIEEXN	-0.3010
-4.2703 MIEEXU	-0.3010
-4.2703 MIF	-0.3010
-4.2703 MIFN	-0.3010
-4.2703 MIFNH	-0.3010
-4.2703 MIFU	-0.3010
-4.2703 MIJ	-0.3010
-4.2703 MIJCH	-0.3010
-4.2703 MIJN	-0.3010
-4.2703 MIJT	-0.3010
-4.2703 MIN	-0.3010
-4.2703 MINH	-0.3010
-4.2703 MIR	-0.3010
-4.2703 MIRA	-0.3010
-4.2703 MIRM	-0.3010
-4.2703 MIS	-0.3010
-4.2703 MISA	-0.3010
-4.2703 MISCH	-0.3010
-4.2703 MISM	-0.3010
-4.2703 MISP	-0.3010
-4.2703 MIST	-0.3010
-4.2703 MISU	-0.3010
-4.2703 MIU	-0.3010
-4.2703 MIXM	-0.3010
-4.2703 MO	-0.3010
-4.2703 MOAY	-0.3010
-4.2703 MOF	-0.3010
-4.2703 MOFI	-0.3010
-4.2703 MOFN	-0.3010
-4.2703 MOFNG	-0.3010
-4.2703 MOI	-0.3010
-4.2703 MOJ	-0.3010
-4.2703 MOJC	-0.3010
-4.2703 MOJI	-0.3010
-4.2703 MOJN	-0.3010
-4.2703 MOJNG	-0.3010
-4.2703 MOJT	-0.3010
-4.2703 MOM	-0.3010
-4.2703 MON	-0.3010
-4.2703 MONG	-0.3010
-4.2703 MOO	-0.3010
-4.2703 MOOF	-0.3010
-4.2703 MOOFI	-0.3010
-4.2703 MOOFM	-0.3010
-4.2703 MOOFNG	-0.3010
-4.2703 MOOI	-0.3010
-4.2703 MOOJ	-0.3010
-4.2703 MOOJC	-0.3010
-4.2703 MOOJI	-0.3010
-4.2703 MOOJNG	-0.3010
-4.2703 MOOJT	-0.3010
-4.2703 MOOM	-0.3010
-4.2703 MOON	-0.3010
-4.2703 MOONG	-0.3010
-4.2703 MOOR	-0.3010
-4.2703 MOORNG	-0.3010
-4.2703 MOOS	-0.3010
-4.2703 MOOSC	-0.3010
-4.2703 MOOSI	-0.3010
-4.2703 MOOSNG	-0.3010
-4.2703 MOOST	-0.3010
-4.2703 MOOX	-0.3010
-4.2703 MOOXI	-0.3010
-4.2703 MOR	-0.3010
-4.2703 MORI	-0.3010
-4.2703 MORM	-0.3010
-4.2703 MORNG	-0.3010
-4.2703 MOS	-0.3010
-4.2703 MOSC	-0.3010
-4.2703 MOSI	-0.3010
-4.2703 MOSM	-0.3010
-4.2703 MOSN	-0.3010
-4.2703 MOSNG	-0.3010
-4.2703 MOSP	-0.3010
-4.2703 MOST	-0.3010
-4.2703 MOW	-0.3010
-4.2703 MOWF	-0.3010
-4.2703 MOWFI	-0.3010
-4.2703 MOWFM	-0.3010
-4.2703 MOWJ	-0.3010
-4.2703 MOWN	-0.3010
-4.2703 MOWR	-0.3010
-4.2703 MOWRN	-0.3010
-4.2703 MOWS	-0.3010
-4.2703 MOWSI	-0.3010
-4.2703 MOWSM	-0.3010
-4.2703 MOWSN	-0.3010
-4.2703 MOWSP	-0.3010
-4.2703 MOWX	-0.3010
-4.2703 MOX	-0.3010
-4.2703 MOXM	-0.3010
-4.2703 MU	-0.3010
-4.2703 MUA	-0.3010
-4.2703 MUF	-0.3010
-4.2703 MUFA	-0.3010
-4.2703 MUFI	-0.3010
-4.2703 MUFN	-0.3010
-4.2703 MUFNG	-0.3010
-4.2703 MUI	-0.3010
-4.2703 MUJ	-0.3010
-4.2703 MUJC	-0.3010
-4.2703 MUJI	-0.3010
-4.2703 MUJN	-0.3010
-4.2703 MUJP	-0.3010
-4.2703 MUJT	-0.3010
-4.2703 MUM	-0.3010
-4.2703 MUN	-0.3010
-4.2703 MUNG	-0.3010
-4.2703 MUOOFNG	-0.3010
-4.2703 MUOOI	-0.3010
-4.2703 MUOOJI	-0.3010
-4.2703 MUOOJN	-0.3010
-4.2703 MUOON	-0.3010
-4.2703 MUOONG	-0.3010
-4.2703 MUOOSI	-0.3010
-4.2703 MUOOSN	-0.3010
-4.2703 MUOOSNG	-0.3010
-4.2703 MUOOST	-0.3010
-4.2703 MUOOXI	-0.3010
-4.2703 MUOOXM	-0.3010
-4.2703 MUOOXNG	-0.3010
-4.2703 MUR	-0.3010
-4.2703 MURI	-0.3010
-4.2703 MURM	-0.3010
-4.2703 MURN	-0.3010
-4.2703 MURNG	-0.3010
-4.2703 MUS	-0.3010
-4.2703 MUSA	-0.3010
-4.2703 MUSC	-0.3010
-4.2703 MUSI	-0.3010
-4.2703 MUSM	-0.3010
-4.2703 MUSP	-0.3010
-4.2703 MUST	-0.3010
-4.2703 MUWA	-0.3010
-4.2703 MUWFNG	-0.3010
-4.2703 MUWJA	-0.3010
-4.2703 MUWJC	-0.3010
-4.2703 MUWNG	-0.3010
-4.2703 MUWOWFI	-0.3010
-4.2703 MUWOWFNG	-0.3010
-4.2703 MUWOWI	-0.3010
-4.2703 MUWOWJN	-0.3010
-4.2703 MUWOWJT	-0.3010
-4.2703 MUWOWN	-0.3010
-4.2703 MUWOWNG	-0.3010
-4.2703 MUWOWSN	-0.3010
-4.2703 MUWOWSP	-0.3010
-4.2703 MUWOWST	-0.3010
-4.2703 MUWOWXU	-0.3010
-4.2703 MUWRA	-0.3010
-4.2703 MUWSA	-0.3010
-4.2703 MUWSC	-0.3010
-4.2703 MUWSN	-0.3010
-4.2703 MUWST	-0.3010
-4.2703 MUWU	-0.3010
-4.2703 MUX	-0.3010
-4.2703 MUXI	-0.3010
-4.2703 MUXM	-0.3010
-4.2703 MY	-0.3010
-4.2703 MYX	-0.3010
-4.2703 NA	-0.3010
-4.2703 NAAFM	-0.3010
-4.2703 NAAFN	-0.3010
-4.2703 NAAFY	-0.3010
-4.2703 NAAJM	-0.3010
-4.2703 NAAJNG	-0.3010
-4.2703 NAAJP	-0.3010
-4.2703 NAAJU	-0.3010
-4.2703 NAAM	-0.3010
-4.2703 NAANG	-0.3010
-4.2703 NAARY	-0.3010
-4.2703 NAASC	-0.3010
-4.2703 NAASM	-0.3010
-4.2703 NAASN	-0.3010
-4.2703 NAASNG	-0.3010
-4.2703 NAASP	-0.3010
-4.2703 NAASU	-0.3010
-4.2703 NAASY	-0.3010
-4.2703 NAAU	-0.3010
-4.2703 NAAXM	-0.3010
-4.2703 NAAXNG	-0.3010
-4.2703 NAAXU	-0.3010
-4.2703 NAAXY	-0.3010
-4.2703 NAAY	-0.3010
-4.2703 NAF	-0.3010
-4.2703 NAFI	-0.3010
-4.2703 NAFN	-0.3010
-4.2703 NAFNG	-0.3010
-4.2703 NAFNH	-0.3010
-4.2703 NAFO	-0.3010
-4.2703 NAFY	-0.3010
-4.2703 NAI	-0.3010
-4.2703 NAJ	-0.3010
-4.2703 NAJC	-0.3010
-4.2703 NAJI	-0.3010
-4.2703 NAJM	-0.3010
-4.2703 NAJN	-0.3010
-4.2703 NAJNG	-0.3010
-4.2703 NAJNH	-0.3010
-4.2703 NAJO	-0.3010
-4.2703 NAJP	-0.3010
-4.2703 NAJT	-0.3010
-4.2703 NAJY	-0.3010
-4.2703 NAM	-0.3010
-4.2703 NAN	-0.3010
-4.2703 NANG	-0.3010
-4.2703 NANH	-0.3010
-4.2703 NAO	-0.3010
-4.2703 NAR	-0.3010
-4.2703 NARI	-0.3010
-4.2703 NARN	-0.3010
-4.2703 NARY	-0.3010
-4.2703 NAS	-0.3010
-4.2703 NASC	-0.3010
-4.2703 NASCH	-0.3010
-4.2703 NASI	-0.3010
-4.2703 NASM	-0.3010
-4.2703 NASN	-0.3010
-4.2703 NASNH	-0.3010
-4.2703 NASO	-0.3010
-4.2703 NAST	-0.3010
-4.2703 NASU	-0.3010
-4.2703 NASY	-0.3010
-4.2703 NAU	-0.3010
-4.2703 NAWFM	-0.3010
-4.2703 NAWFN	-0.3010
-4.2703 NAWFNG	-0.3010
-4.2703 NAWJC	-0.3010
-4.2703 NAWJN	-0.3010
-4.2703 NAWJNG	-0.3010
-4.2703 NAWM	-0.3010
-4.2703 NAWN	-0.3010
-4.2703 NAWNG	-0.3010
-4.2703 NAWRM	-0.3010
-4.2703 NAWSC	-0.3010
-4.2703 NAWSM	-0.3010
-4.2703 NAWSN	-0.3010
-4.2703 NAWSNG	-0.3010
-4.2703 NAWSP	-0.3010
-4.2703 NAWXNG	-0.3010
-4.2703 NAX	-0.3010
-4.2703 NAXO	-0.3010
-4.2703 NAXY	-0.3010
-4.2703 NAY	-0.3010
-4.2703 NE	-0.3010
-4.2703 NEE	-0.3010
-4.2703 NEEF	-0.3010
-4.2703 NEEFN	-0.3010
-4.2703 NEEJ	-0.3010
-4.2703 NEEJM	-0.3010
-4.2703 NEEJN	-0.3010
-4.2703 NEEM	-0.3010
-4.2703 NEEN	-0.3010
-4.2703 NEER	-0.3010
-4.2703 NEESM	-0.3010
-4.2703 NEESN	-0.3010
-4.2703 NEESP	-0.3010
-4.2703 NEEST	-0.3010
-4.2703 NEESU	-0.3010
-4.2703 NEEU	-0.3010
-4.2703 NEF	-0.3010
-4.2703 NEFO	-0.3010
-4.2703 NEJP	-0.3010
-4.2703 NEJT	-0.3010
-4.2703 NEM	-0.3010
-4.2703 NEO	-0.3010
-4.2703 NER	-0.3010
-4.2703 NERO	-0.3010
-4.2703 NES	-0.3010
-4.2703 NESM	-0.3010
-4.2703 NESN	-0.3010
-4.2703 NESO	-0.3010
-4.2703 NESP	-0.3010
-4.2703 NEST	-0.3010
-4.2703 NGA	-0.3010
-4.2703 NGAAFM	-0.3010
-4.2703 NGAAFN	-0.3010
-4.2703 NGAAFU	-0.3010
-4.2703 NGAAFY	-0.3010
-4.2703 NGAAJM	-0.3010
-4.2703 NGAAJN	-0.3010
-4.2703 NGAAJP	-0.3010
-4.2703 NGAAJU	-0.3010
-4.2703 NGAAJY	-0.3010
-4.2703 NGAAM	-0.3010
-4.2703 NGAAN	-0.3010
-4.2703 NGAARM	-0.3010
-4.2703 NGAARN	-0.3010
-4.2703 NGAARNG	-0.3010
-4.2703 NGAASC	-0.3010
-4.2703 NGAASM	-0.3010
-4.2703 NGAASN	-0.3010
-4.2703 NGAASP	-0.3010
-4.2703 NGAAST	-0.3010
-4.2703 NGAASU	-0.3010
-4.2703 NGAASY	-0.3010
-4.2703 NGAAU	-0.3010
-4.2703 NGAAXM	-0.3010
-4.2703 NGAAXU	-0.3010
-4.2703 NGAAY	-0.3010
-4.2703 NGAF	-0.3010
-4.2703 NGAFI	-0.3010
-4.2703 NGAFM	-0.3010
-4.2703 NGAFN	-0.3010
-4.2703 NGAFNG	-0.3010
-4.2703 NGAFNH	-0.3010
-4.2703 NGAFO	-0.3010
-4.2703 NGAFY	-0.3010
-4.2703 NGAI	-0.3010
-4.2703 NGAJC	-0.3010
-4.2703 NGAJCH	-0.3010
-4.2703 NGAJI	-0.3010
-4.2703 NGAJN	-0.3010
-4.2703 NGAJNH	-0.3010
-4.2703 NGAJO	-0.3010
-4.2703 NGAJT	-0.3010
-4.2703 NGAM	-0.3010
-4.2703 NGAN	-0.3010
-4.2703 NGANG	-0.3010
-4.2703 NGAO	-0.3010
-4.2703 NGAR	-0.3010
-4.2703 NGARI	-0.3010
-4.2703 NGARNH	-0.3010
-4.2703 NGARO	-0.3010
-4.2703 NGASC	-0.3010
-4.2703 NGASCH	-0.3010
-4.2703 NGASI	-0.3010
-4.2703 NGASM	-0.3010
-4.2703 NGASN	-0.3010
-4.2703 NGASNG	-0.3010
-4.2703 NGASO	-0.3010
-4.2703 NGASP	-0.3010
-4.2703 NGAST	-0.3010
-4.2703 NGASU	-0.3010
-4.2703 NGASY	-0.3010
-4.2703 NGAU	-0.3010
-4.2703 NGAWFN	-0.3010
-4.2703 NGAWJT	-0.3010
-4.2703 NGAWM	-0.3010
-4.2703 NGAWN	-0.3010
-4.2703 NGAWRNG	-0.3010
-4.2703 NGAWSC	-0.3010
-4.2703 NGAWSM	-0.3010
-4.2703 NGAWSN	-0.3010
-4.2703 NGAWST	-0.3010
-4.2703 NGAWXNG	-0.3010
-4.2703 NGAX	-0.3010
-4.2703 NGAXI	-0.3010
-4.2703 NGAXNG	-0.3010
-4.2703 NGAY	-0.3010
-4.2703 NGHE	-0.3010
-4.2703 NGHEE	-0.3010
-4.2703 NGHEEF	-0.3010
-4.2703 NGHEEFU	-0.3010
-4.2703 NGHEEJ	-0.3010
-4.2703 NGHEEJCH	-0.3010
-4.2703 NGHEEJN	-0.3010
-4.2703 NGHEENH	-0.3010
-4.2703 NGHEER	-0.3010
-4.2703 NGHEERN	-0.3010
-4.2703 NGHEERNH	-0.3010
-4.2703 NGHEERU	-0.3010
-4.2703 NGHEESCH	-0.3010
-4.2703 NGHEEU	-0.3010
-4.2703 NGHEEX	-0.3010
-4.2703 NGHEEXNH	-0.3010
-4.2703 NGHEEXU	-0.3010
-4.2703 NGHEF	-0.3010
-4.2703 NGHEFO	-0.3010
-4.2703 NGHEJ	-0.3010
-4.2703 NGHEJN	-0.3010
-4.2703 NGHEJO	-0.3010
-4.2703 NGHEJT	-0.3010
-4.2703 NGHERO	-0.3010
-4.2703 NGHES	-0.3010
-4.2703 NGHESN	-0.3010
-4.2703 NGHEXN	-0.3010
-4.2703 NGHEXO	-0.3010
-4.2703 NGHI	-0.3010
-4.2703 NGHIEEFN	-0.3010
-4.2703 NGHIEEJM	-0.3010
-4.2703 NGHIEEJN	-0.3010
-4.2703 NGHIEEJP	-0.3010
-4.2703 NGHIEEJT	-0.3010
-4.2703 NGHIEEM	-0.3010
-4.2703 NGHIEEN	-0.3010
-4.2703 NGHIEENG	-0.3010
-4.2703 NGHIEESN	-0.3010
-4.2703 NGHIEEU	-0.3010
-4.2703 NGHIEEXM	-0.3010
-4.2703 NGHIF	-0.3010
-4.2703 NGHIFN	-0.3010
-4.2703 NGHIJ	-0.3010
-4.2703 NGHIJCH	-0.3010
-4.2703 NGHIJT	-0.3010
-4.2703 NGHIJU	-0.3010
-4.2703 NGHINH	-0.3010
-4.2703 NGHIR	-0.3010
-4.2703 NGHIRNH	-0.3010
-4.2703 NGHIS	-0.3010
-4.2703 NGHISA	-0.3010
-4.2703 NGHIU	-0.3010
-4.2703 NGHIX	-0.3010
-4.2703 NGHIXA	-0.3010
-4.2703 NGHIXNH	-0.3010
-4.2703 NGO	-0.3010
-4.2703 NGOA	-0.3010
-4.2703 NGOAFI	-0.3010
-4.2703 NGOAFM	-0.3010
-4.2703 NGOAJC	-0.3010
-4.2703 NGOAJCH	-0.3010
-4.2703 NGOAJI	-0.3010
-4.2703 NGOAJM	-0.3010
-4.2703 NGOAJN	-0.3010
-4.2703 NGOAJY	-0.3010
-4.2703 NGOAM	-0.3010
-4.2703 NGOAN	-0.3010
-4.2703 NGOANG	-0.3010
-4.2703 NGOAO	-0.3010
-4.2703 NGOARI	-0.3010
-4.2703 NGOARNG	-0.3010
-4.2703 NGOARNH	-0.3010
-4.2703 NGOARY	-0.3010
-4.2703 NGOASC	-0.3010
-4.2703 NGOASI	-0.3010
-4.2703 NGOASO	-0.3010
-4.2703 NGOASP	-0.3010
-4.2703 NGOASY	-0.3010
-4.2703 NGOAWFN	-0.3010
-4.2703 NGOAWFNG	-0.3010
-4.2703 NGOAWJC	-0.3010
-4.2703 NGOAWJT	-0.3010
-4.2703 NGOAWRN	-0.3010
-4.2703 NGOAWSC	-0.3010
-4.2703 NGOAWST	-0.3010
-4.2703 NGOAXN	-0.3010
-4.2703 NGOAY	-0.3010
-4.2703 NGOE	-0.3010
-4.2703 NGOEFO	-0.3010
-4.2703 NGOEJO	-0.3010
-4.2703 NGOEM	-0.3010
-4.2703 NGOEN	-0.3010
-4.2703 NGOEO	-0.3010
-4.2703 NGOERM	-0.3010
-4.2703 NGOERN	-0.3010
-4.2703 NGOERO	-0.3010
-4.2703 NGOES	-0.3010
-4.2703 NGOESM	-0.3010
-4.2703 NGOESO	-0.3010
-4.2703 NGOEST	-0.3010
-4.2703 NGOF	-0.3010
-4.2703 NGOFI	-0.3010
-4.2703 NGOFN	-0.3010
-4.2703 NGOFNG	-0.3010
-4.2703 NGOI	-0.3010
-4.2703 NGOJ	-0.3010
-4.2703 NGOJA	-0.3010
-4.2703 NGOJC	-0.3010
-4.2703 NGOJN	-0.3010
-4.2703 NGOJNG	-0.3010
-4.2703 NGOJT	-0.3010
-4.2703 NGON	-0.3010
-4.2703 NGONG	-0.3010
-4.2703 NGOO	-0.3010
-4.2703 NGOOF	-0.3010
-4.2703 NGOOFI	-0.3010
-4.2703 NGOOFM	-0.3010
-4.2703 NGOOFN	-0.3010
-4.2703 NGOOFNG	-0.3010
-4.2703 NGOOI	-0.3010
-4.2703 NGOOJ	-0.3010
-4.2703 NGOOJC	-0.3010
-4.2703 NGOOJN	-0.3010
-4.2703 NGOOJT	-0.3010
-4.2703 NGOON	-0.3010
-4.2703 NGOONG	-0.3010
-4.2703 NGOOR	-0.3010
-4.2703 NGOORM	-0.3010
-4.2703 NGOORN	-0.3010
-4.2703 NGOOS	-0.3010
-4.2703 NGOOSC	-0.3010
-4.2703 NGOOSN	-0.3010
-4.2703 NGOOST	-0.3010
-4.2703 NGOOX	-0.3010
-4.2703 NGOOXNG	-0.3010
-4.2703 NGOR	-0.3010
-4.2703 NGORM	-0.3010
-4.2703 NGORNG	-0.3010
-4.2703 NGOS	-0.3010
-4.2703 NGOSC	-0.3010
-4.2703 NGOSI	-0.3010
-4.2703 NGOSM	-0.3010
-4.2703 NGOSN	-0.3010
-4.2703 NGOSNG	-0.3010
-4.2703 NGOSP	-0.3010
-4.2703 NGOST	-0.3010
-4.2703 NGOW	-0.3010
-4.2703 NGOWF	-0.3010
-4.2703 NGOWFI	-0.3010
-4.2703 NGOWI	-0.3010
-4.2703 NGOWJ	-0.3010
-4.2703 NGOWJI	-0.3010
-4.2703 NGOWJM	-0.3010
-4.2703 NGOWJP	-0.3010
-4.2703 NGOWM	-0.3010
-4.2703 NGOWN	-0.3010
-4.2703 NGOWS	-0.3010
-4.2703 NGOWSN	-0.3010
-4.2703 NGOWSP	-0.3010
-4.2703 NGOWST	-0.3010
-4.2703 NGOWX	-0.3010
-4.2703 NGOX	-0.3010
-4.2703 NGOXA	-0.3010
-4.2703 NGOXI	-0.3010
-4.2703 NGOXNG	-0.3010
-4.2703 NGU	-0.3010
-4.2703 NGUAARY	-0.3010
-4.2703 NGUAAY	-0.3010
-4.2703 NGUEEJCH	-0.3010
-4.2703 NGUEESCH	-0.3010
-4.2703 NGUF	-0.3010
-4.2703 NGUFI	-0.3010
-4.2703 NGUFN	-0.3010
-4.2703 NGUFNG	-0.3010
-4.2703 NGUJ	-0.3010
-4.2703 NGUJA	-0.3010
-4.2703 NGUJC	-0.3010
-4.2703 NGUJM	-0.3010
-4.2703 NGUJP	-0.3010
-4.2703 NGUJT	-0.3010
-4.2703 NGUOOFI	-0.3010
-4.2703 NGUOOFN	-0.3010
-4.2703 NGUOOI	-0.3010
-4.2703 NGUOOJI	-0.3010
-4.2703 NGUR	-0.3010
-4.2703 NGURI	-0.3010
-4.2703 NGURM	-0.3010
-4.2703 NGURN	-0.3010
-4.2703 NGURNG	-0.3010
-4.2703 NGUS	-0.3010
-4.2703 NGUSC	-0.3010
-4.2703 NGUSNG	-0.3010
-4.2703 NGUST	-0.3010
-4.2703 NGUW	-0.3010
-4.2703 NGUWF	-0.3010
-4.2703 NGUWFA	-0.3010
-4.2703 NGUWFNG	-0.3010
-4.2703 NGUWJ	-0.3010
-4.2703 NGUWJA	-0.3010
-4.2703 NGUWJC	-0.3010
-4.2703 NGUWNG	-0.3010
-4.2703 NGUWOWFI	-0.3010
-4.2703 NGUWOWFNG	-0.3010
-4.2703 NGUWOWI	-0.3010
-4.2703 NGUWOWJC	-0.3010
-4.2703 NGUWOWJNG	-0.3010
-4.2703 NGUWOWN	-0.3010
-4.2703 NGUWOWRNG	-0.3010
-4.2703 NGUWOWSC	-0.3010
-4.2703 NGUWOWXNG	-0.3010
-4.2703 NGUWRA	-0.3010
-4.2703 NGUWRI	-0.3010
-4.2703 NGUWRNG	-0.3010
-4.2703 NGUWS	-0.3010
-4.2703 NGUWSA	-0.3010
-4.2703 NGUWU	-0.3010
-4.2703 NGUWX	-0.3010
-4.2703 NGUX	-0.3010
-4.2703 NGUY	-0.3010
-4.2703 NGUYEEFN	-0.3010
-4.2703 NGUYEEJN	-0.3010
-4.2703 NGUYEEJT	-0.3010
-4.2703 NGUYEEN	-0.3010
-4.2703 NGUYEEXN	-0.3010
-4.2703 NGUYJ	-0.3010
-4.2703 NGUYRU	-0.3010
-4.2703 NGUYST	-0.3010
-4.2703 NHA	-0.3010
-4.2703 NHAAFM	-0.3010
-4.2703 NHAAFN	-0.3010
-4.2703 NHAAFU	-0.3010
-4.2703 NHAAFY	-0.3010
-4.2703 NHAAJM	-0.3010
-4.2703 NHAAJN	-0.3010
-4.2703 NHAAJP	-0.3010
-4.2703 NHAAJT	-0.3010
-4.2703 NHAAJU	-0.3010
-4.2703 NHAAJY	-0.3010
-4.2703 NHAAM	-0.3010
-4.2703 NHAAN	-0.3010
-4.2703 NHAANG	-0.3010
-4.2703 NHAARM	-0.3010
-4.2703 NHAARN	-0.3010
-4.2703 NHAASC	-0.3010
-4.2703 NHAASM	-0.3010
-4.2703 NHAASN	-0.3010
-4.2703 NHAASP	-0.3010
-4.2703 NHAAST	-0.3010
-4.2703 NHAAU	-0.3010
-4.2703 NHAAXN	-0.3010
-4.2703 NHAAXY	-0.3010
-4.2703 NHAAY	-0.3010
-4.2703 NHAF	-0.3010
-4.2703 NHAFI	-0.3010
-4.2703 NHAFM	-0.3010
-4.2703 NHAFN	-0.3010
-4.2703 NHAFNG	-0.3010
-4.2703 NHAFNH	-0.3010
-4.2703 NHAFO	-0.3010
-4.2703 NHAFU	-0.3010
-4.2703 NHAI	-0.3010
-4.2703 NHAJC	-0.3010
-4.2703 NHAJI	-0.3010
-4.2703 NHAJN	-0.3010
-4.2703 NHAJNH	-0.3010
-4.2703 NHAJO	-0.3010
-4.2703 NHAJP	-0.3010
-4.2703 NHAJT	-0.3010
-4.2703 NHAJY	-0.3010
-4.2703 NHAM	-0.3010
-4.2703 NHAN	-0.3010
-4.2703 NHANG	-0.3010
-4.2703 NHANH	-0.3010
-4.2703 NHAO	-0.3010
-4.2703 NHAR	-0.3010
-4.2703 NHARI	-0.3010
-4.2703 NHARM	-0.3010
-4.2703 NHARN	-0.3010
-4.2703 NHARNH	-0.3010
-4.2703 NHARU	-0.3010
-4.2703 NHARY	-0.3010
-4.2703 NHAS	-0.3010
-4.2703 NHASC	-0.3010
-4.2703 NHASCH	-0.3010
-4.2703 NHASI	-0.3010
-4.2703 NHASM	-0.3010
-4.2703 NHASNG	-0.3010
-4.2703 NHASNH	-0.3010
-4.2703 NHASO	-0.3010
-4.2703 NHASP	-0.3010
-4.2703 NHAST	-0.3010
-4.2703 NHASY	-0.3010
-4.2703 NHAU	-0.3010
-4.2703 NHAWFM	-0.3010
-4.2703 NHAWFN	-0.3010
-4.2703 NHAWFNG	-0.3010
-4.2703 NHAWJM	-0.3010
-4.2703 NHAWJN	-0.3010
-4.2703 NHAWJNG	-0.3010
-4.2703 NHAWJT	-0.3010
-4.2703 NHAWM	-0.3010
-4.2703 NHAWN	-0.3010
-4.2703 NHAWNG	-0.3010
-4.2703 NHAWRN	-0.3010
-4.2703 NHAWRNG	-0.3010
-4.2703 NHAWSC	-0.3010
-4.2703 NHAWSM	-0.3010
-4.2703 NHAWSN	-0.3010
-4.2703 NHAWSNG	-0.3010
-4.2703 NHAWSP	-0.3010
-4.2703 NHAWST	-0.3010
-4.2703 NHAWXN	-0.3010
-4.2703 NHAWXNG	-0.3010
-4.2703 NHAX	-0.3010
-4.2703 NHAXI	-0.3010
-4.2703 NHAXN	-0.3010
-4.2703 NHAXNG	-0.3010
-4.2703 NHAXO	-0.3010
-4.2703 NHAY	-0.3010
-4.2703 NHE	-0.3010
-4.2703 NHEE	-0.3010
-4.2703 NHEEJN	-0.3010
-4.2703 NHEEJU	-0.3010
-4.2703 NHEER	-0.3010
-4.2703 NHEESCH	-0.3010
-4.2703 NHEESU	-0.3010
-4.2703 NHEEX	-0.3010
-4.2703 NHEF	-0.3010
-4.2703 NHEFM	-0.3010
-4.2703 NHEFO	-0.3010
-4.2703 NHEJ	-0.3010
-4.2703 NHEJM	-0.3010
-4.2703 NHEJN	-0.3010
-4.2703 NHEJO	-0.3010
-4.2703 NHEJP	-0.3010
-4.2703 NHEJT	-0.3010
-4.2703 NHEM	-0.3010
-4.2703 NHEN	-0.3010
-4.2703 NHEO	-0.3010
-4.2703 NHER	-0.3010
-4.2703 NHERM	-0.3010
-4.2703 NHERO	-0.3010
-4.2703 NHES	-0.3010
-4.2703 NHESN	-0.3010
-4.2703 NHESO	-0.3010
-4.2703 NHESP	-0.3010
-4.2703 NHEST	-0.3010
-4.2703 NHEX	-0.3010
-4.2703 NHEXO	-0.3010
-4.2703 NHI	-0.3010
-4.2703 NHIEEFU	-0.3010
-4.2703 NHIEEJM	-0.3010
-4.2703 NHIEEJT	-0.3010
-4.2703 NHIEEN	-0.3010
-4.2703 NHIEESC	-0.3010
-4.2703 NHIEESP	-0.3010
-4.2703 NHIEEU	-0.3010
-4.2703 NHIEEXM	-0.3010
-4.2703 NHIEEXN	-0.3010
-4.2703 NHIEEXU	-0.3010
-4.2703 NHIF	-0.3010
-4.2703 NHIFN	-0.3010
-4.2703 NHIFU	-0.3010
-4.2703 NHIJ	-0.3010
-4.2703 NHIJN	-0.3010
-4.2703 NHIJP	-0.3010
-4.2703 NHIJT	-0.3010
-4.2703 NHIJU	-0.3010
-4.2703 NHINH	-0.3010
-4.2703 NHIR	-0.3010
-4.2703 NHIRNH	-0.3010
-4.2703 NHIS	-0.3010
-4.2703 NHISCH	-0.3010
-4.2703 NHISM	-0.3010
-4.2703 NHISN	-0.3010
-4.2703 NHISP	-0.3010
-4.2703 NHIST	-0.3010
-4.2703 NHISU	-0.3010
-4.2703 NHIX	-0.3010
-4.2703 NHO	-0.3010
-4.2703 NHOAFI	-0.3010
-4.2703 NHOAFM	-0.3010
-4.2703 NHOAI	-0.3010
-4.2703 NHOAJNG	-0.3010
-4.2703 NHOANG	-0.3010
-4.2703 NHOASNG	-0.3010
-4.2703 NHOASY	-0.3010
-4.2703 NHOAY	-0.3010
-4.2703 NHOE	-0.3010
-4.2703 NHOEF	-0.3010
-4.2703 NHOEFN	-0.3010
-4.2703 NHOEJT	-0.3010
-4.2703 NHOEN	-0.3010
-4.2703 NHOERN	-0.3010
-4.2703 NHOES	-0.3010
-4.2703 NHOEST	-0.3010
-4.2703 NHOFA	-0.3010
-4.2703 NHOFM	-0.3010
-4.2703 NHOFNG	-0.3010
-4.2703 NHOI	-0.3010
-4.2703 NHOJ	-0.3010
-4.2703 NHOJC	-0.3010
-4.2703 NHOJN	-0.3010
-4.2703 NHOJT	-0.3010
-4.2703 NHOM	-0.3010
-4.2703 NHON	-0.3010
-4.2703 NHONG	-0.3010
-4.2703 NHOO	-0.3010
-4.2703 NHOOFI	-0.3010
-4.2703 NHOOFM	-0.3010
-4.2703 NHOOFNG	-0.3010
-4.2703 NHOOI	-0.3010
-4.2703 NHOOJN	-0.3010
-4.2703 NHOOJNG	-0.3010
-4.2703 NHOOJT	-0.3010
-4.2703 NHOOM	-0.3010
-4.2703 NHOON	-0.3010
-4.2703 NHOONG	-0.3010
-4.2703 NHOOR	-0.3010
-4.2703 NHOORM	-0.3010
-4.2703 NHOORN	-0.3010
-4.2703 NHOOS	-0.3010
-4.2703 NHOOSC	-0.3010
-4.2703 NHOOSI	-0.3010
-4.2703 NHOOSN	-0.3010
-4.2703 NHOOST	-0.3010
-4.2703 NHOR	-0.3010
-4.2703 NHORM	-0.3010
-4.2703 NHORN	-0.3010
-4.2703 NHORNG	-0.3010
-4.2703 NHOS	-0.3010
-4.2703 NHOSA	-0.3010
-4.2703 NHOSC	-0.3010
-4.2703 NHOSI	-0.3010
-4.2703 NHOSM	-0.3010
-4.2703 NHOSN	-0.3010
-4.2703 NHOSNG	-0.3010
-4.2703 NHOSP	-0.3010
-4.2703 NHOST	-0.3010
-4.2703 NHOW	-0.3010
-4.2703 NHOWF	-0.3010
-4.2703 NHOWFI	-0.3010
-4.2703 NHOWFN	-0.3010
-4.2703 NHOWI	-0.3010
-4.2703 NHOWJ	-0.3010
-4.2703 NHOWJT	-0.3010
-4.2703 NHOWM	-0.3010
-4.2703 NHOWN	-0.3010
-4.2703 NHOWR	-0.3010
-4.2703 NHOWRI	-0.3010
-4.2703 NHOWRN	-0.3010
-4.2703 NHOWS	-0.3010
-4.2703 NHOWSM	-0.3010
-4.2703 NHOWSN	-0.3010
-4.2703 NHOWSP	-0.3010
-4.2703 NHOWST	-0.3010
-4.2703 NHOWX	-0.3010
-4.2703 NHOWXN	-0.3010
-4.2703 NHOX	-0.3010
-4.2703 NHOXM	-0.3010
-4.2703 NHOXN	-0.3010
-4.2703 NHOXNG	-0.3010
-4.2703 NHU	-0.3010
-4.2703 NHUAAFN	-0.3010
-4.2703 NHUAAJN	-0.3010
-4.2703 NHUEEJ	-0.3010
-4.2703 NHUEES	-0.3010
-4.2703 NHUFI	-0.3010
-4.2703 NHUFN	-0.3010
-4.2703 NHUFNG	-0.3010
-4.2703 NHUI	-0.3010
-4.2703 NHUJ	-0.3010
-4.2703 NHUJA	-0.3010
-4.2703 NHUJC	-0.3010
-4.2703 NHUJI	-0.3010
-4.2703 NHUJNG	-0.3010
-4.2703 NHUJT	-0.3010
-4.2703 NHUJY	-0.3010
-4.2703 NHUM	-0.3010
-4.2703 NHUNG	-0.3010
-4.2703 NHUOOFN	-0.3010
-4.2703 NHUOOJM	-0.3010
-4.2703 NHUOOM	-0.3010
-4.2703 NHUOOSC	-0.3010
-4.2703 NHUOOSM	-0.3010
-4.2703 NHUR	-0.3010
-4.2703 NHURI	-0.3010
-4.2703 NHURN	-0.3010
-4.2703 NHURNG	-0.3010
-4.2703 NHUS	-0.3010
-4.2703 NHUSA	-0.3010
-4.2703 NHUSC	-0.3010
-4.2703 NHUSM	-0.3010
-4.2703 NHUSN	-0.3010
-4.2703 NHUSNG	-0.3010
-4.2703 NHUST	-0.3010
-4.2703 NHUW	-0.3010
-4.2703 NHUWF	-0.3010
-4.2703 NHUWJA	-0.3010
-4.2703 NHUWJT	-0.3010
-4.2703 NHUWNG	-0.3010
-4.2703 NHUWOWFNG	-0.3010
-4.2703 NHUWOWJC	-0.3010
-4.2703 NHUWOWJNG	-0.3010
-4.2703 NHUWOWNG	-0.3010
-4.2703 NHUWOWXNG	-0.3010
-4.2703 NHUWR	-0.3010
-4.2703 NHUWS	-0.3010
-4.2703 NHUWSC	-0.3010
-4.2703 NHUWST	-0.3010
-4.2703 NHUWX	-0.3010
-4.2703 NHUWXNG	-0.3010
-4.2703 NHUX	-0.3010
-4.2703 NHUXN	-0.3010
-4.2703 NHUXNG	-0.3010
-4.2703 NHUYEEXN	-0.3010
-4.2703 NI	-0.3010
-4.2703 NIA	-0.3010
-4.2703 NIEEFM	-0.3010
-4.2703 NIEEFNG	-0.3010
-4.2703 NIEEJM	-0.3010
-4.2703 NIEEJT	-0.3010
-4.2703 NIEEJU	-0.3010
-4.2703 NIEEM	-0.3010
-4.2703 NIEEN	-0.3010
-4.2703 NIEEST	-0.3010
-4.2703 NIEEU	-0.3010
-4.2703 NIEEXNG	-0.3010
-4.2703 NIF	-0.3010
-4.2703 NIFNH	-0.3010
-4.2703 NIJCH	-0.3010
-4.2703 NIJNH	-0.3010
-4.2703 NIJT	-0.3010
-4.2703 NIJU	-0.3010
-4.2703 NINH	-0.3010
-4.2703 NIR	-0.3010
-4.2703 NIS	-0.3010
-4.2703 NISCH	-0.3010
-4.2703 NISN	-0.3010
-4.2703 NISNH	-0.3010
-4.2703 NISP	-0.3010
-4.2703 NIST	-0.3010
-4.2703 NISU	-0.3010
-4.2703 NIU	-0.3010
-4.2703 NIXA	-0.3010
-4.2703 NO	-0.3010
-4.2703 NOAXN	-0.3010
-4.2703 NOF	-0.3010
-4.2703 NOFI	-0.3010
-4.2703 NOFM	-0.3010
-4.2703 NOFNG	-0.3010
-4.2703 NOI	-0.3010
-4.2703 NOJ	-0.3010
-4.2703 NOJC	-0.3010
-4.2703 NOJI	-0.3010
-4.2703 NOJN	-0.3010
-4.2703 NOJNG	-0.3010
-4.2703 NOJT	-0.3010
-4.2703 NOM	-0.3010
-4.2703 NON	-0.3010
-4.2703 NONG	-0.3010
-4.2703 NOO	-0.3010
-4.2703 NOOF	-0.3010
-4.2703 NOOFI	-0.3010
-4.2703 NOOFM	-0.3010
-4.2703 NOOFNG	-0.3010
-4.2703 NOOI	-0.3010
-4.2703 NOOJ	-0.3010
-4.2703 NOOJI	-0.3010
-4.2703 NOOJM	-0.3010
-4.2703 NOOJN	-0.3010
-4.2703 NOOJP	-0.3010
-4.2703 NOOM	-0.3010
-4.2703 NOON	-0.3010
-4.2703 NOONG	-0.3010
-4.2703 NOOR	-0.3010
-4.2703 NOORI	-0.3010
-4.2703 NOOS	-0.3010
-4.2703 NOOSC	-0.3010
-4.2703 NOOSI	-0.3010
-4.2703 NOOSNG	-0.3010
-4.2703 NOOSP	-0.3010
-4.2703 NOOST	-0.3010
-4.2703 NOOX	-0.3010
-4.2703 NOOXI	-0.3010
-4.2703 NOOXNG	-0.3010
-4.2703 NOR	-0.3010
-4.2703 NORI	-0.3010
-4.2703 NORM	-0.3010
-4.2703 NOS	-0.3010
-4.2703 NOSC	-0.3010
-4.2703 NOSI	-0.3010
-4.2703 NOSN	-0.3010
-4.2703 NOSNG	-0.3010
-4.2703 NOSP	-0.3010
-4.2703 NOST	-0.3010
-4.2703 NOW	-0.3010
-4.2703 NOWI	-0.3010
-4.2703 NOWJ	-0.3010
-4.2703 NOWM	-0.3010
-4.2703 NOWR	-0.3010
-4.2703 NOWS	-0.3010
-4.2703 NOWSI	-0.3010
-4.2703 NOWSP	-0.3010
-4.2703 NOWST	-0.3010
-4.2703 NOWX	-0.3010
-4.2703 NOWXM	-0.3010
-4.2703 NOX	-0.3010
-4.2703 NOXN	-0.3010
-4.2703 NU	-0.3010
-4.2703 NUA	-0.3010
-4.2703 NUFI	-0.3010
-4.2703 NUFNG	-0.3010
-4.2703 NUJ	-0.3010
-4.2703 NUJC	-0.3010
-4.2703 NUM	-0.3010
-4.2703 NUNG	-0.3010
-4.2703 NUOOI	-0.3010
-4.2703 NUOOJC	-0.3010
-4.2703 NUOOJT	-0.3010
-4.2703 NUOONG	-0.3010
-4.2703 NUOOSI	-0.3010
-4.2703 NUOOSM	-0.3010
-4.2703 NUOOST	-0.3010
-4.2703 NURA	-0.3010
-4.2703 NUS	-0.3010
-4.2703 NUSA	-0.3010
-4.2703 NUSC	-0.3010
-4.2703 NUSI	-0.3010
-4.2703 NUSM	-0.3010
-4.2703 NUSNG	-0.3010
-4.2703 NUSP	-0.3010
-4.2703 NUST	-0.3010
-4.2703 NUW	-0.3010
-4.2703 NUWA	-0.3010
-4.2703 NUWFNG	-0.3010
-4.2703 NUWJC	-0.3010
-4.2703 NUWJNG	-0.3010
-4.2703 NUWNG	-0.3010
-4.2703 NUWOWFM	-0.3010
-4.2703 NUWOWFNG	-0.3010
-4.2703 NUWOWJP	-0.3010
-4.2703 NUWOWNG	-0.3010
-4.2703 NUWOWSC	-0.3010
-4.2703 NUWOWSNG	-0.3010
-4.2703 NUWRA	-0.3010
-4.2703 NUWSA	-0.3010
-4.2703 NUWSC	-0.3010
-4.2703 NUWSNG	-0.3010
-4.2703 NUWST	-0.3010
-4.2703 NUWX	-0.3010
-4.2703 NUWXA	-0.3010
-4.2703 NUXNG	-0.3010
-4.2703 OA	-0.3010
-4.2703 OAFM	-0.3010
-4.2703 OAFNH	-0.3010
-4.2703 OAI	-0.3010
-4.2703 OAJCH	-0.3010
-4.2703 OAJP	-0.3010
-4.2703 OAN	-0.3010
-4.2703 OANG	-0.3010
-4.2703 OANH	-0.3010
-4.2703 OARI	-0.3010
-4.2703 OARN	-0.3010
-4.2703 OASC	-0.3010
-4.2703 OASCH	-0.3010
-4.2703 OASI	-0.3010
-4.2703 OASN	-0.3010
-4.2703 OAST	-0.3010
-4.2703 OAWFN	-0.3010
-4.2703 OAWJT	-0.3010
-4.2703 OAWM	-0.3010
-4.2703 OAWNG	-0.3010
-4.2703 OAWRNG	-0.3010
-4.2703 OAWST	-0.3010
-4.2703 OE	-0.3010
-4.2703 OER	-0.3010
-4.2703 OES	-0.3010
-4.2703 OFA	-0.3010
-4.2703 OFI	-0.3010
-4.2703 OFM	-0.3010
-4.2703 OFNG	-0.3010
-4.2703 OI	-0.3010
-4.2703 OJC	-0.3010
-4.2703 OJE	-0.3010
-4.2703 OJI	-0.3010
-4.2703 OJP	-0.3010
-4.2703 OJT	-0.3010
-4.2703 OM	-0.3010
-4.2703 ONG	-0.3010
-4.2703 OOFM	-0.3010
-4.2703 OOFN	-0.3010
-4.2703 OOFNG	-0.3010
-4.2703 OOI	-0.3010
-4.2703 OOJC	-0.3010
-4.2703 OOJN	-0.3010
-4.2703 OOJP	-0.3010
-4.2703 OOM	-0.3010
-4.2703 OON	-0.3010
-4.2703 OONG	-0.3010
-4.2703 OORI	-0.3010
-4.2703 OORN	-0.3010
-4.2703 OORNG	-0.3010
-4.2703 OOSC	-0.3010
-4.2703 OOSI	-0.3010
-4.2703 OOSM	-0.3010
-4.2703 OOSNG	-0.3010
-4.2703 OOSP	-0.3010
-4.2703 OOST	-0.3010
-4.2703 ORI	-0.3010
-4.2703 ORM	-0.3010
-4.2703 ORN	-0.3010
-4.2703 ORNG	-0.3010
-4.2703 OSC	-0.3010
-4.2703 OSI	-0.3010
-4.2703 OSNG	-0.3010
-4.2703 OSP	-0.3010
-4.2703 OST	-0.3010
-4.2703 OWFI	-0.3010
-4.2703 OWI	-0.3010
-4.2703 OWJT	-0.3010
-4.2703 OWN	-0.3010
-4.2703 OWSI	-0.3010
-4.2703 OWSM	-0.3010
-4.2703 OWSN	-0.3010
-4.2703 OWST	-0.3010
-4.2703 OWXM	-0.3010
-4.2703 OXNG	-0.3010
-4.2703 PA	-0.3010
-4.2703 PAASC	-0.3010
-4.2703 PAAU	-0.3010
-4.2703 PAF	-0.3010
-4.2703 PAFI	-0.3010
-4.2703 PAFNG	-0.3010
-4.2703 PAI	-0.3010
-4.2703 PAJ	-0.3010
-4.2703 PAN	-0.3010
-4.2703 PANG	-0.3010
-4.2703 PAR	-0.3010
-4.2703 PASC	-0.3010
-4.2703 PASN	-0.3010
-4.2703 PAWFN	-0.3010
-4.2703 PE	-0.3010
-4.2703 PEE	-0.3010
-4.2703 PEN	-0.3010
-4.2703 PER	-0.3010
-4.2703 PHA	-0.3010
-4.2703 PHAAFM	-0.3010
-4.2703 PHAAFN	-0.3010
-4.2703 PHAAJN	-0.3010
-4.2703 PHAAJP	-0.3010
-4.2703 PHAAJT	-0.3010
-4.2703 PHAAN	-0.3010
-4.2703 PHAARM	-0.3010
-4.2703 PHAARN	-0.3010
-4.2703 PHAARY	-0.3010
-4.2703 PHAASN	-0.3010
-4.2703 PHAASP	-0.3010
-4.2703 PHAAST	-0.3010
-4.2703 PHAAXN	-0.3010
-4.2703 PHAAXU	-0.3010
-4.2703 PHAAY	-0.3010
-4.2703 PHAF	-0.3010
-4.2703 PHAFM	-0.3010
-4.2703 PHAFN	-0.3010
-4.2703 PHAFNG	-0.3010
-4.2703 PHAFNH	-0.3010
-4.2703 PHAFO	-0.3010
-4.2703 PHAI	-0.3010
-4.2703 PHAJ	-0.3010
-4.2703 PHAJCH	-0.3010
-4.2703 PHAJM	-0.3010
-4.2703 PHAJN	-0.3010
-4.2703 PHAJNG	-0.3010
-4.2703 PHAJT	-0.3010
-4.2703 PHAN	-0.3010
-4.2703 PHANG	-0.3010
-4.2703 PHANH	-0.3010
-4.2703 PHAO	-0.3010
-4.2703 PHAR	-0.3010
-4.2703 PHARI	-0.3010
-4.2703 PHARN	-0.3010
-4.2703 PHARNG	-0.3010
-4.2703 PHAS	-0.3010
-4.2703 PHASC	-0.3010
-4.2703 PHASCH	-0.3010
-4.2703 PHASI	-0.3010
-4.2703 PHASN	-0.3010
-4.2703 PHASO	-0.3010
-4.2703 PHASP	-0.3010
-4.2703 PHAST	-0.3010
-4.2703 PHAU	-0.3010
-4.2703 PHAWJNG	-0.3010
-4.2703 PHAWM	-0.3010
-4.2703 PHAWN	-0.3010
-4.2703 PHAWNG	-0.3010
-4.2703 PHAWRNG	-0.3010
-4.2703 PHAWSC	-0.3010
-4.2703 PHAWSN	-0.3010
-4.2703 PHAWSP	-0.3010
-4.2703 PHAWST	-0.3010
-4.2703 PHAY	-0.3010
-4.2703 PHE	-0.3010
-4.2703 PHEE	-0.3010
-4.2703 PHEEF	-0.3010
-4.2703 PHEEFNH	-0.3010
-4.2703 PHEEFU	-0.3010
-4.2703 PHEEJ	-0.3010
-4.2703 PHEEJNH	-0.3010
-4.2703 PHEEJT	-0.3010
-4.2703 PHEEN	-0.3010
-4.2703 PHEES	-0.3010
-4.2703 PHEESCH	-0.3010
-4.2703 PHEEST	-0.3010
-4.2703 PHEEXN	-0.3010
-4.2703 PHEEXU	-0.3010
-4.2703 PHEF	-0.3010
-4.2703 PHEFN	-0.3010
-4.2703 PHEFNG	-0.3010
-4.2703 PHEFO	-0.3010
-4.2703 PHEJC	-0.3010
-4.2703 PHEJT	-0.3010
-4.2703 PHEN	-0.3010
-4.2703 PHEO	-0.3010
-4.2703 PHESC	-0.3010
-4.2703 PHESNG	-0.3010
-4.2703 PHESP	-0.3010
-4.2703 PHEST	-0.3010
-4.2703 PHI	-0.3010
-4.2703 PHIEEFN	-0.3010
-4.2703 PHIEEJN	-0.3010
-4.2703 PHIEEJT	-0.3010
-4.2703 PHIEEJU	-0.3010
-4.2703 PHIEEN	-0.3010
-4.2703 PHIEESM	-0.3010
-4.2703 PHIEESN	-0.3010
-4.2703 PHIEEST	-0.3010
-4.2703 PHIEESU	-0.3010
-4.2703 PHIEEU	-0.3010
-4.2703 PHIF	-0.3010
-4.2703 PHIFA	-0.3010
-4.2703 PHIFN	-0.3010
-4.2703 PHIFNH	-0.3010
-4.2703 PHIJ	-0.3010
-4.2703 PHIJCH	-0.3010
-4.2703 PHIJU	-0.3010
-4.2703 PHIM	-0.3010
-4.2703 PHIN	-0.3010
-4.2703 PHINH	-0.3010
-4.2703 PHIR	-0.3010
-4.2703 PHIRNH	-0.3010
-4.2703 PHIS	-0.3010
-4.2703 PHISA	-0.3010
-4.2703 PHISCH	-0.3010
-4.2703 PHISM	-0.3010
-4.2703 PHISNH	-0.3010
-4.2703 PHIU	-0.3010
-4.2703 PHIXNH	-0.3010
-4.2703 PHO	-0.3010
-4.2703 PHOF	-0.3010
-4.2703 PHOFI	-0.3010
-4.2703 PHOFNG	-0.3010
-4.2703 PHOI	-0.3010
-4.2703 PHOJC	-0.3010
-4.2703 PHOJT	-0.3010
-4.2703 PHONG	-0.3010
-4.2703 PHOO	-0.3010
-4.2703 PHOOFM	-0.3010
-4.2703 PHOOFN	-0.3010
-4.2703 PHOOFNG	-0.3010
-4.2703 PHOOI	-0.3010
-4.2703 PHOOM	-0.3010
-4.2703 PHOONG	-0.3010
-4.2703 PHOOR	-0.3010
-4.2703 PHOORI	-0.3010
-4.2703 PHOORNG	-0.3010
-4.2703 PHOOS	-0.3010
-4.2703 PHOOSC	-0.3010
-4.2703 PHOOSI	-0.3010
-4.2703 PHOOSP	-0.3010
-4.2703 PHOOST	-0.3010
-4.2703 PHOOXNG	-0.3010
-4.2703 PHORNG	-0.3010
-4.2703 PHOS	-0.3010
-4.2703 PHOSNG	-0.3010
-4.2703 PHOST	-0.3010
-4.2703 PHOW	-0.3010
-4.2703 PHOWF	-0.3010
-4.2703 PHOWFI	-0.3010
-4.2703 PHOWI	-0.3010
-4.2703 PHOWN	-0.3010
-4.2703 PHOWR	-0.3010
-4.2703 PHOWRN	-0.3010
-4.2703 PHOWSI	-0.3010
-4.2703 PHOWSN	-0.3010
-4.2703 PHOWST	-0.3010
-4.2703 PHOWXN	-0.3010
-4.2703 PHU	-0.3010
-4.2703 PHUA	-0.3010
-4.2703 PHUF	-0.3010
-4.2703 PHUFN	-0.3010
-4.2703 PHUFNG	-0.3010
-4.2703 PHUI	-0.3010
-4.2703 PHUJ	-0.3010
-4.2703 PHUJC	-0.3010
-4.2703 PHUJNG	-0.3010
-4.2703 PHUJT	-0.3010
-4.2703 PHUN	-0.3010
-4.2703 PHUNG	-0.3010
-4.2703 PHUR	-0.3010
-4.2703 PHURI	-0.3010
-4.2703 PHURNG	-0.3010
-4.2703 PHUS	-0.3010
-4.2703 PHUSC	-0.3010
-4.2703 PHUSN	-0.3010
-4.2703 PHUSNG	-0.3010
-4.2703 PHUST	-0.3010
-4.2703 PHUWJA	-0.3010
-4.2703 PHUWJT	-0.3010
-4.2703 PHUWNG	-0.3010
-4.2703 PHUWOWFNG	-0.3010
-4.2703 PHUWOWJNG	-0.3010
-4.2703 PHUWOWJT	-0.3010
-4.2703 PHUWOWJU	-0.3010
-4.2703 PHUWOWNG	-0.3010
-4.2703 PHUWOWSC	-0.3010
-4.2703 PHUWOWSN	-0.3010
-4.2703 PHUWOWXN	-0.3010
-4.2703 PHUWSA	-0.3010
-4.2703 PHUWSC	-0.3010
-4.2703 PHUWST	-0.3010
-4.2703 PHUX	-0.3010
-4.2703 PI	-0.3010
-4.2703 PIN	-0.3010
-4.2703 POO	-0.3010
-4.2703 POOJNG	-0.3010
-4.2703 POOOONG	-0.3010
-4.2703 POS	-0.3010
-4.2703 POW	-0.3010
-4.2703 POWF	-0.3010
-4.2703 POWNG	-0.3010
-4.2703 PU	-0.3010
-4.2703 PUI	-0.3010
-4.2703 PUJA	-0.3010
-4.2703 PUOOJC	-0.3010
-4.2703 PUWOWI	-0.3010
-4.2703 QUA	-0.3010
-4.2703 QUAAFN	-0.3010
-4.2703 QUAAFNG	-0.3010
-4.2703 QUAAFY	-0.3010
-4.2703 QUAAJN	-0.3010
-4.2703 QUAAJT	-0.3010
-4.2703 QUAAJY	-0.3010
-4.2703 QUAAN	-0.3010
-4.2703 QUAARN	-0.3010
-4.2703 QUAARNG	-0.3010
-4.2703 QUAARY	-0.3010
-4.2703 QUAASN	-0.3010
-4.2703 QUAAST	-0.3010
-4.2703 QUAASY	-0.3010
-4.2703 QUAAXN	-0.3010
-4.2703 QUAAXY	-0.3010
-4.2703 QUAAY	-0.3010
-4.2703 QUAF	-0.3010
-4.2703 QUAFI	-0.3010
-4.2703 QUAFN	-0.3010
-4.2703 QUAFNG	-0.3010
-4.2703 QUAFNH	-0.3010
-4.2703 QUAFO	-0.3010
-4.2703 QUAFU	-0.3010
-4.2703 QUAFY	-0.3010
-4.2703 QUAI	-0.3010
-4.2703 QUAJ	-0.3010
-4.2703 QUAJC	-0.3010
-4.2703 QUAJCH	-0.3010
-4.2703 QUAJI	-0.3010
-4.2703 QUAJNG	-0.3010
-4.2703 QUAJNH	-0.3010
-4.2703 QUAJT	-0.3010
-4.2703 QUAJU	-0.3010
-4.2703 QUAN	-0.3010
-4.2703 QUANG	-0.3010
-4.2703 QUANH	-0.3010
-4.2703 QUAO	-0.3010
-4.2703 QUAR	-0.3010
-4.2703 QUARI	-0.3010
-4.2703 QUARN	-0.3010
-4.2703 QUARNG	-0.3010
-4.2703 QUARY	-0.3010
-4.2703 QUAS	-0.3010
-4.2703 QUASC	-0.3010
-4.2703 QUASCH	-0.3010
-4.2703 QUASI	-0.3010
-4.2703 QUASN	-0.3010
-4.2703 QUASNG	-0.3010
-4.2703 QUASNH	-0.3010
-4.2703 QUASO	-0.3010
-4.2703 QUAST	-0.3010
-4.2703 QUAWFM	-0.3010
-4.2703 QUAWFN	-0.3010
-4.2703 QUAWJC	-0.3010
-4.2703 QUAWJM	-0.3010
-4.2703 QUAWJN	-0.3010
-4.2703 QUAWJNG	-0.3010
-4.2703 QUAWJP	-0.3010
-4.2703 QUAWJT	-0.3010
-4.2703 QUAWN	-0.3010
-4.2703 QUAWNG	-0.3010
-4.2703 QUAWRNG	-0.3010
-4.2703 QUAWSC	-0.3010
-4.2703 QUAWSM	-0.3010
-4.2703 QUAWSN	-0.3010
-4.2703 QUAWSP	-0.3010
-4.2703 QUAWST	-0.3010
-4.2703 QUAX	-0.3010
-4.2703 QUAXNG	-0.3010
-4.2703 QUAY	-0.3010
-4.2703 QUE	-0.3010
-4.2703 QUEE	-0.3010
-4.2703 QUEEFNH	-0.3010
-4.2703 QUEEFU	-0.3010
-4.2703 QUEEJ	-0.3010
-4.2703 QUEEJCH	-0.3010
-4.2703 QUEEJN	-0.3010
-4.2703 QUEEJT	-0.3010
-4.2703 QUEEN	-0.3010
-4.2703 QUEES	-0.3010
-4.2703 QUEEST	-0.3010
-4.2703 QUEF	-0.3010
-4.2703 QUEFN	-0.3010
-4.2703 QUEFO	-0.3010
-4.2703 QUEJO	-0.3010
-4.2703 QUEJT	-0.3010
-4.2703 QUEN	-0.3010
-4.2703 QUEO	-0.3010
-4.2703 QUER	-0.3010
-4.2703 QUES	-0.3010
-4.2703 QUESO	-0.3010
-4.2703 QUEST	-0.3010
-4.2703 QUEX	-0.3010
-4.2703 QUI	-0.3010
-4.2703 QUIF	-0.3010
-4.2703 QUIJ	-0.3010
-4.2703 QUIJT	-0.3010
-4.2703 QUIR	-0.3010
-4.2703 QUIS	-0.3010
-4.2703 QUIST	-0.3010
-4.2703 QUIX	-0.3010
-4.2703 QUOOSC	-0.3010
-4.2703 QUOW	-0.3010
-4.2703 QUOWF	-0.3010
-4.2703 QUOWR	-0.3010
-4.2703 QUOWRN	-0.3010
-4.2703 QUOWS	-0.3010
-4.2703 QUOWSI	-0.3010
-4.2703 QUOWST	-0.3010
-4.2703 QUY	-0.3010
-4.2703 QUYEEFN	-0.3010
-4.2703 QUYEEJN	-0.3010
-4.2703 QUYEEJT	-0.3010
-4.2703 QUYEEN	-0.3010
-4.2703 QUYEERN	-0.3010
-4.2703 QUYEESN	-0.3010
-4.2703 QUYEEST	-0.3010
-4.2703 QUYF	-0.3010
-4.2703 QUYFNH	-0.3010
-4.2703 QUYJ	-0.3010
-4.2703 QUYR	-0.3010
-4.2703 QUYS	-0.3010
-4.2703 QUYSCH	-0.3010
-4.2703 QUYSNH	-0.3010
-4.2703 QUYX	-0.3010
-4.2703 RA	-0.3010
-4.2703 RAAFM	-0.3010
-4.2703 RAAFN	-0.3010
-4.2703 RAAFU	-0.3010
-4.2703 RAAFY	-0.3010
-4.2703 RAAJM	-0.3010
-4.2703 RAAJN	-0.3010
-4.2703 RAAJP	-0.3010
-4.2703 RAAJT	-0.3010
-4.2703 RAAJU	-0.3010
-4.2703 RAAM	-0.3010
-4.2703 RAAN	-0.3010
-4.2703 RAARM	-0.3010
-4.2703 RAARY	-0.3010
-4.2703 RAASM	-0.3010
-4.2703 RAASN	-0.3010
-4.2703 RAASP	-0.3010
-4.2703 RAAST	-0.3010
-4.2703 RAAU	-0.3010
-4.2703 RAAXM	-0.3010
-4.2703 RAAXY	-0.3010
-4.2703 RAAY	-0.3010
-4.2703 RAF	-0.3010
-4.2703 RAFI	-0.3010
-4.2703 RAFN	-0.3010
-4.2703 RAFNG	-0.3010
-4.2703 RAFNH	-0.3010
-4.2703 RAFO	-0.3010
-4.2703 RAFY	-0.3010
-4.2703 RAI	-0.3010
-4.2703 RAJ	-0.3010
-4.2703 RAJC	-0.3010
-4.2703 RAJCH	-0.3010
-4.2703 RAJM	-0.3010
-4.2703 RAJN	-0.3010
-4.2703 RAJNG	-0.3010
-4.2703 RAJO	-0.3010
-4.2703 RAJP	-0.3010
-4.2703 RAJY	-0.3010
-4.2703 RAM	-0.3010
-4.2703 RAN	-0.3010
-4.2703 RANG	-0.3010
-4.2703 RANH	-0.3010
-4.2703 RAO	-0.3010
-4.2703 RAR	-0.3010
-4.2703 RARI	-0.3010
-4.2703 RARNH	-0.3010
-4.2703 RARO	-0.3010
-4.2703 RARY	-0.3010
-4.2703 RAS	-0.3010
-4.2703 RASC	-0.3010
-4.2703 RASCH	-0.3010
-4.2703 RASI	-0.3010
-4.2703 RASM	-0.3010
-4.2703 RASN	-0.3010
-4.2703 RASNG	-0.3010
-4.2703 RASO	-0.3010
-4.2703 RASP	-0.3010
-4.2703 RAST	-0.3010
-4.2703 RASU	-0.3010
-4.2703 RASY	-0.3010
-4.2703 RAU	-0.3010
-4.2703 RAWFM	-0.3010
-4.2703 RAWFN	-0.3010
-4.2703 RAWFNG	-0.3010
-4.2703 RAWJC	-0.3010
-4.2703 RAWJM	-0.3010
-4.2703 RAWJN	-0.3010
-4.2703 RAWJNG	-0.3010
-4.2703 RAWJT	-0.3010
-4.2703 RAWM	-0.3010
-4.2703 RAWN	-0.3010
-4.2703 RAWNG	-0.3010
-4.2703 RAWSC	-0.3010
-4.2703 RAWSM	-0.3010
-4.2703 RAWSN	-0.3010
-4.2703 RAWSP	-0.3010
-4.2703 RAX	-0.3010
-4.2703 RAXI	-0.3010
-4.2703 RAXNH	-0.3010
-4.2703 RAXO	-0.3010
-4.2703 RAY	-0.3010
-4.2703 RE	-0.3010
-4.2703 REE	-0.3010
-4.2703 REEF	-0.3010
-4.2703 REEFN	-0.3010
-4.2703 REEJP	-0.3010
-4.2703 REEJT	-0.3010
-4.2703 REEJU	-0.3010
-4.2703 REEN	-0.3010
-4.2703 REER	-0.3010
-4.2703 REES	-0.3010
-4.2703 REESCH	-0.3010
-4.2703 REEST	-0.3010
-4.2703 REEU	-0.3010
-4.2703 REEX	-0.3010
-4.2703 REF	-0.3010
-4.2703 REFM	-0.3010
-4.2703 REFN	-0.3010
-4.2703 REFO	-0.3010
-4.2703 REJO	-0.3010
-4.2703 REM	-0.3010
-4.2703 REN	-0.3010
-4.2703 REO	-0.3010
-4.2703 RER	-0.3010
-4.2703 RERO	-0.3010
-4.2703 RES	-0.3010
-4.2703 RESN	-0.3010
-4.2703 RESO	-0.3010
-4.2703 REST	-0.3010
-4.2703 REX	-0.3010
-4.2703 RI	-0.3010
-4.2703 RIA	-0.3010
-4.2703 RIEEFNG	-0.3010
-4.2703 RIEEJT	-0.3010
-4.2703 RIEENG	-0.3010
-4.2703 RIEEST	-0.3010
-4.2703 RIEEU	-0.3010
-4.2703 RIF	-0.3010
-4.2703 RIFA	-0.3010
-4.2703 RIFNH	-0.3010
-4.2703 RIFU	-0.3010
-4.2703 RIJ	-0.3010
-4.2703 RIJA	-0.3010
-4.2703 RIJCH	-0.3010
-4.2703 RIJN	-0.3010
-4.2703 RIJP	-0.3010
-4.2703 RIJT	-0.3010
-4.2703 RIM	-0.3010
-4.2703 RIN	-0.3010
-4.2703 RINH	-0.3010
-4.2703 RIR	-0.3010
-4.2703 RIRA	-0.3010
-4.2703 RIRNH	-0.3010
-4.2703 RIS	-0.3010
-4.2703 RISCH	-0.3010
-4.2703 RISM	-0.3010
-4.2703 RIST	-0.3010
-4.2703 RISU	-0.3010
-4.2703 RIU	-0.3010
-4.2703 RIX	-0.3010
-4.2703 RIXN	-0.3010
-4.2703 RO	-0.3010
-4.2703 ROF	-0.3010
-4.2703 ROFI	-0.3010
-4.2703 ROFM	-0.3010
-4.2703 ROFNG	-0.3010
-4.2703 ROI	-0.3010
-4.2703 ROJ	-0.3010
-4.2703 ROJC	-0.3010
-4.2703 ROJI	-0.3010
-4.2703 ROJN	-0.3010
-4.2703 ROJNG	-0.3010
-4.2703 ROJT	-0.3010
-4.2703 RONG	-0.3010
-4.2703 ROO	-0.3010
-4.2703 ROOF	-0.3010
-4.2703 ROOFI	-0.3010
-4.2703 ROOFNG	-0.3010
